%YAML:1.0
---
opencv_ml_svm:
   format: 3
   svmType: C_SVC
   kernel:
      type: RBF
      gamma: 5.0624999999999998e-01
   C: 1.2500000000000000e+01
   term_criteria: { epsilon:1.1920928955078125e-07, iterations:1000 }
   var_count: 324
   class_count: 3
   class_labels: !!opencv-matrix
      rows: 3
      cols: 1
      dt: i
      data: [ 1, 2, 3 ]
   sv_total: 231
   support_vectors:
      - [ 4.38814193e-01, 5.02566278e-01, 1.20253041e-01, 3.25099379e-02,
          1.59414783e-01, 5.02566278e-01, 5.02237618e-01, 6.38855156e-03,
          6.37421235e-02, 4.58728284e-01, 4.58728284e-01, 9.92502347e-02,
          4.93652970e-02, 1.21571533e-01, 3.46968025e-01, 7.89776072e-02,
          4.58728284e-01, 4.58728284e-01, 1.29526451e-01, 1.22598492e-01,
          1.46070734e-01, 1.67996883e-01, 2.43665949e-01, 7.45179579e-02,
          3.96051496e-01, 5.87784469e-01, 5.87784469e-01, 2.09720254e-01,
          4.40154701e-01, 4.40154701e-01, 2.03052059e-01, 4.09359843e-01,
          4.40154701e-01, 4.01207209e-01, 1.89083125e-02, 1.67930927e-02,
          2.48895228e-01, 2.77015984e-01, 3.72732192e-01, 3.72732192e-01,
          3.72732192e-01, 3.72732192e-01, 3.72732192e-01, 3.72732192e-01,
          1.54963791e-01, 2.75348760e-02, 7.53236422e-03, 6.36922717e-02,
          4.66818094e-01, 4.66818094e-01, 3.15891236e-01, 4.66818094e-01,
          4.66818094e-01, 1.37847140e-01, 9.74234492e-02, 3.75499338e-01,
          4.48443174e-01, 4.48443174e-01, 4.48443174e-01, 4.48443174e-01,
          1.92467317e-01, 4.40001339e-02, 4.05567996e-02, 6.59149885e-02,
          3.63214403e-01, 4.69379872e-01, 3.52548420e-01, 1.95141479e-01,
          1.86172977e-01, 4.69379872e-01, 4.69379872e-01, 3.25421877e-02,
          3.69728655e-01, 1.46593852e-02, 2.14383118e-02, 3.94945592e-01,
          3.94945592e-01, 3.45426142e-01, 3.94945592e-01, 3.94945592e-01,
          3.39754850e-01, 9.74234492e-02, 3.75499338e-01, 4.48443174e-01,
          4.48443174e-01, 4.48443174e-01, 4.48443174e-01, 1.92467317e-01,
          4.40001339e-02, 4.05567996e-02, 6.59149885e-02, 3.63214403e-01,
          4.69379872e-01, 3.52548420e-01, 1.95141479e-01, 1.86172977e-01,
          4.69379872e-01, 4.69379872e-01, 3.25421877e-02, 3.69728655e-01,
          1.46593852e-02, 2.14383118e-02, 3.94945592e-01, 3.94945592e-01,
          3.45426142e-01, 3.94945592e-01, 3.94945592e-01, 3.39754850e-01,
          3.23866159e-01, 3.86594862e-01, 3.86594862e-01, 3.86594862e-01,
          3.86594862e-01, 1.48518398e-01, 2.31908977e-01, 3.86594862e-01,
          2.61019289e-01, 1.08548857e-01, 3.04806083e-01, 4.60825205e-01,
          4.60825205e-01, 3.58175814e-01, 2.41300948e-02, 3.38744670e-01,
          4.09962803e-01, 2.33019724e-01, 5.11398494e-01, 3.79140452e-02,
          3.73495952e-03, 4.04589660e-02, 5.11398494e-01, 1.49720833e-01,
          1.96094736e-01, 3.82556558e-01, 5.11398494e-01, 2.79452801e-01,
          9.06763002e-02, 2.39855528e-01, 1.21755362e-01, 4.02291417e-02,
          5.60688563e-02, 1.28683224e-01, 6.37824178e-01, 6.37824178e-01,
          1.33415833e-01, 7.13421032e-02, 5.08638561e-01, 5.08638561e-01,
          5.08638561e-01, 1.89677909e-01, 5.00068553e-02, 1.63667291e-01,
          3.61421764e-01, 1.57598019e-01, 1.56146446e-02, 5.13339881e-03,
          1.24917485e-01, 7.97651470e-01, 5.42637110e-01, 6.42821193e-02,
          1.28138065e-02, 1.27783448e-01, 1.29526451e-01, 1.22598492e-01,
          1.46070734e-01, 1.67996883e-01, 2.43665949e-01, 7.45179579e-02,
          3.96051496e-01, 5.87784469e-01, 5.87784469e-01, 2.73057491e-01,
          2.09729716e-01, 1.97096214e-01, 4.35448974e-01, 4.35448974e-01,
          4.35448974e-01, 4.35448974e-01, 2.64946193e-01, 9.79620144e-02,
          2.72543263e-02, 1.67531483e-02, 2.72726744e-01, 6.44442618e-01,
          6.44442618e-01, 2.63594419e-01, 1.31773561e-01, 1.75007861e-02,
          1.99361444e-02, 2.75348760e-02, 7.53236422e-03, 6.36922717e-02,
          4.66818094e-01, 4.66818094e-01, 3.15891236e-01, 4.66818094e-01,
          4.66818094e-01, 1.37847140e-01, 4.12656039e-01, 2.18458876e-01,
          8.66397619e-02, 2.30510384e-01, 4.12656039e-01, 4.12656039e-01,
          4.12656039e-01, 4.12656039e-01, 1.89965546e-01, 3.87787908e-01,
          2.05091789e-01, 1.75950557e-01, 3.87787908e-01, 3.87787908e-01,
          3.87787908e-01, 3.87787908e-01, 1.44319177e-01, 3.87787908e-01,
          3.69728655e-01, 1.46593852e-02, 2.14383118e-02, 3.94945592e-01,
          3.94945592e-01, 3.45426142e-01, 3.94945592e-01, 3.94945592e-01,
          3.39754850e-01, 4.57534373e-01, 1.30006894e-01, 3.39711793e-02,
          2.54100680e-01, 4.57534373e-01, 4.21586335e-01, 3.17603797e-01,
          7.86544085e-02, 4.57534373e-01, 5.26667774e-01, 2.70291924e-01,
          4.05376516e-02, 6.76699802e-02, 2.70091861e-01, 4.07410175e-01,
          2.87921369e-01, 1.97156921e-01, 5.26667774e-01, 3.69728655e-01,
          1.46593852e-02, 2.14383118e-02, 3.94945592e-01, 3.94945592e-01,
          3.45426142e-01, 3.94945592e-01, 3.94945592e-01, 3.39754850e-01,
          4.57534373e-01, 1.30006894e-01, 3.39711793e-02, 2.54100680e-01,
          4.57534373e-01, 4.21586335e-01, 3.17603797e-01, 7.86544085e-02,
          4.57534373e-01, 5.26667774e-01, 2.70291924e-01, 4.05376516e-02,
          6.76699802e-02, 2.70091861e-01, 4.07410175e-01, 2.87921369e-01,
          1.97156921e-01, 5.26667774e-01, 5.11398494e-01, 3.79140452e-02,
          3.73495952e-03, 4.04589660e-02, 5.11398494e-01, 1.49720833e-01,
          1.96094736e-01, 3.82556558e-01, 5.11398494e-01, 5.55877388e-01,
          4.73855361e-02, 2.12664669e-03, 4.26703095e-02, 5.55877388e-01,
          2.51726538e-01, 3.62886908e-03, 1.68620652e-04, 5.55877388e-01,
          4.79779780e-01, 6.15538657e-02, 1.40167875e-02, 2.37299651e-02,
          4.79779780e-01, 3.43739063e-01, 2.98773319e-01, 3.04420173e-01,
          4.79779780e-01, 1.57598019e-01, 1.56146446e-02, 5.13339881e-03,
          1.24917485e-01, 7.97651470e-01, 5.42637110e-01, 6.42821193e-02,
          1.28138065e-02, 1.27783448e-01, 2.22024575e-01, 8.00730214e-02,
          7.76147004e-03, 2.01268628e-01, 7.24739254e-01, 6.04643524e-01,
          1.36363944e-02, 2.12643691e-03, 7.38836974e-02, 5.04670322e-01,
          5.04670322e-01, 5.21030352e-02, 8.91597942e-02, 5.04670322e-01,
          4.59259361e-01, 8.72221142e-02, 2.18149032e-02, 3.48779447e-02 ]
      - [ 4.20752525e-01, 4.20752525e-01, 3.25740159e-01, 1.35098249e-01,
          2.66113698e-01, 4.20752525e-01, 4.20752525e-01, 1.74356908e-01,
          2.49180868e-01, 4.74969476e-01, 4.74969476e-01, 2.09189951e-01,
          1.31054208e-01, 3.96455616e-01, 4.74969476e-01, 2.19024390e-01,
          9.99305025e-02, 2.05906719e-01, 4.49246883e-01, 3.90285105e-01,
          5.72679825e-02, 1.04577146e-01, 1.43383026e-01, 3.35312821e-02,
          4.49246883e-01, 4.49246883e-01, 4.49246883e-01, 3.42809588e-01,
          3.42809588e-01, 3.42809588e-01, 3.10746908e-01, 3.42809588e-01,
          3.42809588e-01, 3.42809588e-01, 2.78176785e-01, 3.42809588e-01,
          3.88286710e-01, 3.88286710e-01, 3.88286710e-01, 3.88286710e-01,
          3.88286710e-01, 3.88286710e-01, 1.84228539e-01, 2.01477692e-01,
          1.30338773e-01, 1.82170942e-01, 3.59388083e-01, 3.59388083e-01,
          3.59388083e-01, 3.59388083e-01, 3.59388083e-01, 3.59388083e-01,
          3.59388083e-01, 2.43114293e-01, 4.09174591e-01, 4.09174591e-01,
          4.09174591e-01, 4.09174591e-01, 1.39979199e-01, 6.87541440e-02,
          9.64664593e-02, 3.53788316e-01, 4.09174591e-01, 4.28726763e-01,
          4.28726763e-01, 3.90935957e-01, 8.24981034e-02, 2.49986082e-01,
          2.56559342e-01, 4.28726763e-01, 3.57537150e-01, 1.68855280e-01,
          2.52156496e-01, 2.23093674e-01, 3.64218652e-01, 3.64218652e-01,
          3.64218652e-01, 3.64218652e-01, 3.64218652e-01, 3.64218652e-01,
          2.95086741e-01, 4.09174591e-01, 4.09174591e-01, 4.09174591e-01,
          4.09174591e-01, 1.39979199e-01, 6.87541440e-02, 9.64664593e-02,
          3.53788316e-01, 4.09174591e-01, 4.28726763e-01, 4.28726763e-01,
          3.90935957e-01, 8.24981034e-02, 2.49986082e-01, 2.56559342e-01,
          4.28726763e-01, 3.57537150e-01, 1.68855280e-01, 2.52156496e-01,
          2.23093674e-01, 3.64218652e-01, 3.64218652e-01, 3.64218652e-01,
          3.64218652e-01, 3.64218652e-01, 3.64218652e-01, 2.95086741e-01,
          2.89021969e-01, 4.49965924e-01, 4.49965924e-01, 4.49965924e-01,
          4.24105413e-02, 5.89067722e-03, 7.90201724e-02, 3.06621730e-01,
          4.49965924e-01, 2.92048156e-01, 3.69954377e-01, 3.69954377e-01,
          3.69954377e-01, 2.63347298e-01, 1.43047869e-01, 3.69954377e-01,
          3.69954377e-01, 3.69954377e-01, 4.47175175e-01, 9.62018445e-02,
          2.71927804e-01, 3.24683607e-01, 1.59425616e-01, 1.41484395e-01,
          4.01973814e-01, 4.47175175e-01, 4.47175175e-01, 1.37629285e-01,
          1.40010610e-01, 3.14529151e-01, 4.09725159e-01, 1.32194817e-01,
          2.44850982e-02, 6.99808970e-02, 5.77025831e-01, 5.77025831e-01,
          1.56762809e-01, 4.43883501e-02, 3.88901085e-01, 4.61821556e-01,
          4.61821556e-01, 1.13061816e-01, 1.12365372e-01, 4.55342352e-01,
          3.97862166e-01, 1.97274715e-01, 9.99142155e-02, 2.20864490e-01,
          4.94209439e-01, 4.94209439e-01, 5.08801043e-02, 4.20301519e-02,
          4.00372803e-01, 4.94209439e-01, 4.49246883e-01, 3.90285105e-01,
          5.72679825e-02, 1.04577146e-01, 1.43383026e-01, 3.35312821e-02,
          4.49246883e-01, 4.49246883e-01, 4.49246883e-01, 2.34790668e-01,
          1.27299771e-01, 1.27739534e-01, 2.36119166e-01, 2.78109431e-01,
          9.46427509e-02, 5.05058467e-01, 5.05058467e-01, 5.05058467e-01,
          1.21970542e-01, 9.71267447e-02, 3.41832191e-01, 5.15847147e-01,
          5.15847147e-01, 8.85718092e-02, 1.26438051e-01, 2.71679133e-01,
          4.73128855e-01, 1.82170942e-01, 3.59388083e-01, 3.59388083e-01,
          3.59388083e-01, 3.59388083e-01, 3.59388083e-01, 3.59388083e-01,
          3.59388083e-01, 2.43114293e-01, 2.03776196e-01, 2.21284360e-01,
          8.01125243e-02, 1.75783247e-01, 9.43697765e-02, 4.78116989e-01,
          4.78116989e-01, 4.78116989e-01, 4.15598422e-01, 4.52669382e-01,
          4.52669382e-01, 1.86202005e-01, 3.02499324e-01, 1.32731616e-01,
          1.08552583e-01, 1.42343625e-01, 4.52669382e-01, 4.52669382e-01,
          2.52156496e-01, 2.23093674e-01, 3.64218652e-01, 3.64218652e-01,
          3.64218652e-01, 3.64218652e-01, 3.64218652e-01, 3.64218652e-01,
          2.95086741e-01, 3.47618967e-01, 3.47618967e-01, 3.47618967e-01,
          3.47618967e-01, 2.50087708e-01, 3.47618967e-01, 3.47618967e-01,
          3.47618967e-01, 2.96833843e-01, 3.41698319e-01, 3.41698319e-01,
          2.95547098e-01, 3.03205729e-01, 3.41698319e-01, 3.41698319e-01,
          3.41698319e-01, 3.41698319e-01, 3.41698319e-01, 2.52156496e-01,
          2.23093674e-01, 3.64218652e-01, 3.64218652e-01, 3.64218652e-01,
          3.64218652e-01, 3.64218652e-01, 3.64218652e-01, 2.95086741e-01,
          3.47618967e-01, 3.47618967e-01, 3.47618967e-01, 3.47618967e-01,
          2.50087708e-01, 3.47618967e-01, 3.47618967e-01, 3.47618967e-01,
          2.96833843e-01, 3.41698319e-01, 3.41698319e-01, 2.95547098e-01,
          3.03205729e-01, 3.41698319e-01, 3.41698319e-01, 3.41698319e-01,
          3.41698319e-01, 3.41698319e-01, 4.47175175e-01, 9.62018445e-02,
          2.71927804e-01, 3.24683607e-01, 1.59425616e-01, 1.41484395e-01,
          4.01973814e-01, 4.47175175e-01, 4.47175175e-01, 4.16478395e-01,
          3.44341516e-01, 3.60270113e-01, 1.92892373e-01, 2.20353588e-01,
          1.09042235e-01, 3.59802425e-01, 4.16478395e-01, 4.16478395e-01,
          3.52131903e-01, 3.52131903e-01, 3.52131903e-01, 2.47414231e-01,
          3.12842071e-01, 3.05641234e-01, 3.52131903e-01, 3.52131903e-01,
          3.52131903e-01, 1.97274715e-01, 9.99142155e-02, 2.20864490e-01,
          4.94209439e-01, 4.94209439e-01, 5.08801043e-02, 4.20301519e-02,
          4.00372803e-01, 4.94209439e-01, 3.37316453e-01, 9.02467817e-02,
          1.33848831e-01, 4.61434126e-01, 4.61434126e-01, 1.46117494e-01,
          9.31522846e-02, 4.32153374e-01, 4.61434126e-01, 3.97729844e-01,
          3.97729844e-01, 8.36750418e-02, 1.57438442e-01, 2.03380004e-01,
          3.63221258e-01, 3.97729844e-01, 3.97729844e-01, 3.97729844e-01 ]
      - [ 5.03735662e-01, 5.22794664e-01, 7.91925713e-02, 4.26098108e-02,
          1.74657643e-01, 5.22794664e-01, 3.93197954e-01, 2.55624135e-03,
          3.46026793e-02, 3.48841637e-01, 3.73446792e-01, 3.73446792e-01,
          3.73446792e-01, 3.73446792e-01, 3.73446792e-01, 2.90746778e-01,
          2.38877088e-01, 1.88865051e-01, 3.50177228e-01, 1.77363351e-01,
          3.50177228e-01, 3.39732409e-01, 3.50177228e-01, 3.37462693e-01,
          3.50177228e-01, 3.50177228e-01, 3.50177228e-01, 3.85651618e-01,
          2.89760351e-01, 1.84521794e-01, 2.75469702e-02, 3.52309018e-01,
          4.96873051e-01, 4.96873051e-01, 5.50657474e-02, 3.26531291e-01,
          3.59096199e-01, 3.59096199e-01, 3.59096199e-01, 3.59096199e-01,
          3.13448280e-01, 1.52546152e-01, 3.59096199e-01, 3.18106562e-01,
          3.59096199e-01, 3.76978248e-01, 7.40866661e-02, 2.34402105e-01,
          3.76978248e-01, 3.76978248e-01, 3.76978248e-01, 3.76978248e-01,
          2.88313836e-01, 3.76978248e-01, 4.23645228e-01, 2.53072321e-01,
          1.76113382e-01, 4.23645228e-01, 4.23645228e-01, 4.23645228e-01,
          4.17206362e-02, 3.98710147e-02, 4.23645228e-01, 3.98061752e-01,
          3.98061752e-01, 3.98061752e-01, 2.60554224e-01, 3.98061752e-01,
          3.98061752e-01, 2.77393401e-01, 8.85526463e-02, 2.26009563e-01,
          3.84057134e-01, 3.12398612e-01, 1.15125433e-01, 2.42291793e-01,
          3.84057134e-01, 3.84057134e-01, 2.98515499e-01, 3.84057134e-01,
          3.84057134e-01, 4.23645228e-01, 2.53072321e-01, 1.76113382e-01,
          4.23645228e-01, 4.23645228e-01, 4.23645228e-01, 4.17206362e-02,
          3.98710147e-02, 4.23645228e-01, 3.98061752e-01, 3.98061752e-01,
          3.98061752e-01, 2.60554224e-01, 3.98061752e-01, 3.98061752e-01,
          2.77393401e-01, 8.85526463e-02, 2.26009563e-01, 3.84057134e-01,
          3.12398612e-01, 1.15125433e-01, 2.42291793e-01, 3.84057134e-01,
          3.84057134e-01, 2.98515499e-01, 3.84057134e-01, 3.84057134e-01,
          3.63882512e-01, 3.63882512e-01, 1.72235385e-01, 3.63882512e-01,
          3.63882512e-01, 3.63882512e-01, 1.99564710e-01, 3.63882512e-01,
          3.63882512e-01, 3.99259806e-01, 3.99259806e-01, 3.99259806e-01,
          3.99259806e-01, 2.22946972e-01, 2.42251590e-01, 2.29456693e-01,
          3.77137274e-01, 2.34742001e-01, 3.44636649e-01, 3.44636649e-01,
          2.15316951e-01, 3.44636649e-01, 3.44636649e-01, 3.44636649e-01,
          3.44636649e-01, 3.44636649e-01, 3.44636649e-01, 9.21720639e-02,
          9.38644335e-02, 2.03353614e-01, 5.48696816e-01, 1.65062904e-01,
          6.36749193e-02, 3.68332118e-02, 5.48696816e-01, 5.48696816e-01,
          4.03934568e-01, 4.03934568e-01, 4.03934568e-01, 4.03934568e-01,
          1.57211989e-01, 2.01456696e-01, 2.38906235e-01, 3.22279960e-01,
          3.42156708e-01, 3.52171957e-01, 3.08240354e-01, 2.88018048e-01,
          3.52171957e-01, 3.52171957e-01, 3.52171957e-01, 3.52171957e-01,
          2.72698671e-01, 3.52171957e-01, 3.50177228e-01, 1.77363351e-01,
          3.50177228e-01, 3.39732409e-01, 3.50177228e-01, 3.37462693e-01,
          3.50177228e-01, 3.50177228e-01, 3.50177228e-01, 1.24369785e-01,
          3.37581299e-02, 1.97186619e-01, 4.25464541e-01, 4.25464541e-01,
          4.25464541e-01, 4.25464541e-01, 4.25464541e-01, 1.87508896e-01,
          3.51142175e-02, 3.09097748e-02, 1.65094912e-01, 5.42133212e-01,
          3.32688242e-01, 5.82698174e-02, 1.60538815e-02, 5.42133212e-01,
          5.12825370e-01, 3.76978248e-01, 7.40866661e-02, 2.34402105e-01,
          3.76978248e-01, 3.76978248e-01, 3.76978248e-01, 3.76978248e-01,
          2.88313836e-01, 3.76978248e-01, 4.06210959e-01, 4.12262045e-02,
          4.94644418e-02, 4.18537147e-02, 4.06210959e-01, 4.06210959e-01,
          4.06210959e-01, 4.06210959e-01, 4.06210959e-01, 4.01136816e-01,
          2.15579361e-01, 4.62044001e-01, 4.62044001e-01, 4.62044001e-01,
          1.59675464e-01, 3.28154042e-02, 2.23703340e-01, 2.66325623e-01,
          3.84057134e-01, 3.12398612e-01, 1.15125433e-01, 2.42291793e-01,
          3.84057134e-01, 3.84057134e-01, 2.98515499e-01, 3.84057134e-01,
          3.84057134e-01, 1.92082971e-01, 6.24132156e-02, 8.06103721e-02,
          1.80701897e-01, 4.60871935e-01, 2.56597847e-01, 4.60871935e-01,
          4.60871935e-01, 4.60871935e-01, 3.54771823e-01, 2.46731907e-01,
          4.16662455e-01, 1.33352309e-01, 4.16662455e-01, 4.16662455e-01,
          2.74709404e-01, 1.46354139e-01, 4.16662455e-01, 3.84057134e-01,
          3.12398612e-01, 1.15125433e-01, 2.42291793e-01, 3.84057134e-01,
          3.84057134e-01, 2.98515499e-01, 3.84057134e-01, 3.84057134e-01,
          1.92082971e-01, 6.24132156e-02, 8.06103721e-02, 1.80701897e-01,
          4.60871935e-01, 2.56597847e-01, 4.60871935e-01, 4.60871935e-01,
          4.60871935e-01, 3.54771823e-01, 2.46731907e-01, 4.16662455e-01,
          1.33352309e-01, 4.16662455e-01, 4.16662455e-01, 2.74709404e-01,
          1.46354139e-01, 4.16662455e-01, 3.44636649e-01, 3.44636649e-01,
          2.15316951e-01, 3.44636649e-01, 3.44636649e-01, 3.44636649e-01,
          3.44636649e-01, 3.44636649e-01, 3.44636649e-01, 2.06818193e-01,
          2.64962792e-01, 1.81144893e-01, 2.02306062e-01, 1.49143398e-01,
          4.70045418e-01, 4.70045418e-01, 4.70045418e-01, 3.51444274e-01,
          4.23977345e-01, 4.23977345e-01, 4.23977345e-01, 1.55992687e-01,
          9.27703977e-02, 2.05317840e-01, 4.13384408e-01, 2.91238278e-01,
          3.54531437e-01, 3.52171957e-01, 3.08240354e-01, 2.88018048e-01,
          3.52171957e-01, 3.52171957e-01, 3.52171957e-01, 3.52171957e-01,
          2.72698671e-01, 3.52171957e-01, 3.85317922e-01, 3.09639782e-01,
          3.90011333e-02, 8.90698582e-02, 3.85317922e-01, 3.85317922e-01,
          3.85317922e-01, 3.85317922e-01, 3.85317922e-01, 5.55979669e-01,
          5.55979669e-01, 9.02734920e-02, 1.01075418e-01, 7.45863393e-02,
          5.55979669e-01, 1.93258226e-01, 3.29367444e-02, 6.88880906e-02 ]
      - [ 4.44335669e-01, 4.44335669e-01, 4.21157032e-02, 0.,
          2.27332041e-02, 4.44335669e-01, 4.44335669e-01, 7.81035721e-02,
          4.44335669e-01, 4.46130753e-01, 4.46130753e-01, 2.83195172e-02,
          8.62696394e-03, 1.24584541e-01, 4.46130753e-01, 3.54508430e-01,
          2.39456013e-01, 4.46130753e-01, 2.74994463e-01, 1.59049124e-01,
          5.06486446e-02, 6.84214607e-02, 4.09615666e-01, 3.55652064e-01,
          1.27612591e-01, 5.36617756e-01, 5.36617756e-01, 3.04508120e-01,
          4.36035365e-01, 4.36035365e-01, 6.31723329e-02, 5.15449606e-02,
          4.36035365e-01, 4.36035365e-01, 3.52962285e-01, 1.05745107e-01,
          4.06220198e-01, 4.06220198e-01, 4.06220198e-01, 1.57050371e-01,
          4.06220198e-01, 4.06220198e-01, 2.47980744e-01, 1.93617314e-01,
          2.17303067e-01, 1.02773957e-01, 1.00575626e-01, 8.36200118e-02,
          3.29501361e-01, 4.47330058e-01, 2.42638499e-01, 4.47330058e-01,
          4.47330058e-01, 4.47330058e-01, 2.62563050e-01, 3.50851148e-01,
          3.99209648e-01, 2.79467523e-01, 2.67904580e-01, 3.99209648e-01,
          3.99209648e-01, 3.99209648e-01, 1.28948078e-01, 1.25369206e-01,
          4.43566859e-01, 4.43566859e-01, 3.31238776e-01, 2.72125274e-01,
          4.43566859e-01, 2.81504929e-01, 3.40242147e-01, 1.04000129e-01,
          1.46917388e-01, 2.21657947e-01, 2.39492103e-01, 3.72695416e-01,
          2.94117481e-01, 3.87064636e-01, 4.27073628e-01, 4.27073628e-01,
          3.57282341e-01, 2.62563050e-01, 3.50851148e-01, 3.99209648e-01,
          2.79467523e-01, 2.67904580e-01, 3.99209648e-01, 3.99209648e-01,
          3.99209648e-01, 1.28948078e-01, 1.25369206e-01, 4.43566859e-01,
          4.43566859e-01, 3.31238776e-01, 2.72125274e-01, 4.43566859e-01,
          2.81504929e-01, 3.40242147e-01, 1.04000129e-01, 1.46917388e-01,
          2.21657947e-01, 2.39492103e-01, 3.72695416e-01, 2.94117481e-01,
          3.87064636e-01, 4.27073628e-01, 4.27073628e-01, 3.57282341e-01,
          3.98916483e-01, 1.61741391e-01, 2.61596173e-01, 1.42334580e-01,
          2.54571080e-01, 4.93697450e-02, 4.98774618e-01, 4.98774618e-01,
          3.95267099e-01, 3.51889938e-01, 4.87791866e-01, 4.87791866e-01,
          4.87791866e-01, 2.43070275e-01, 1.11469433e-01, 8.76076072e-02,
          1.85164765e-01, 2.09783405e-01, 3.80431414e-01, 1.39983326e-01,
          2.79703230e-01, 2.46127874e-01, 3.80431414e-01, 3.37861925e-01,
          3.80431414e-01, 3.80431414e-01, 3.80431414e-01, 1.79032594e-01,
          1.74605340e-01, 4.95388240e-01, 1.26445368e-01, 7.57711232e-02,
          1.19738527e-01, 4.00271207e-01, 4.95388240e-01, 4.95388240e-01,
          3.61560434e-01, 1.73274264e-01, 4.06040877e-01, 4.06040877e-01,
          4.06040877e-01, 8.35946277e-02, 6.21265545e-02, 4.06040877e-01,
          4.06040877e-01, 2.30279803e-01, 4.66183610e-02, 1.38807908e-01,
          5.03341913e-01, 5.03341913e-01, 5.03341913e-01, 1.30091295e-01,
          1.58973366e-01, 3.43871951e-01, 2.74994463e-01, 1.59049124e-01,
          5.06486446e-02, 6.84214607e-02, 4.09615666e-01, 3.55652064e-01,
          1.27612591e-01, 5.36617756e-01, 5.36617756e-01, 3.26080859e-01,
          3.34028274e-01, 3.77389967e-01, 3.77389967e-01, 3.77389967e-01,
          2.39189848e-01, 9.48602855e-02, 3.77389967e-01, 3.77389967e-01,
          2.71237463e-01, 8.12503248e-02, 4.92164135e-01, 4.92164135e-01,
          4.92164135e-01, 8.07158351e-02, 4.57715131e-02, 1.48440138e-01,
          3.96978408e-01, 1.02773957e-01, 1.00575626e-01, 8.36200118e-02,
          3.29501361e-01, 4.47330058e-01, 2.42638499e-01, 4.47330058e-01,
          4.47330058e-01, 4.47330058e-01, 4.35111046e-01, 1.72650769e-01,
          1.65048212e-01, 3.00778985e-01, 2.26159856e-01, 1.73853189e-01,
          4.38712358e-01, 4.38712358e-01, 4.38712358e-01, 3.55424613e-01,
          2.74137110e-01, 3.55424613e-01, 3.55424613e-01, 3.55424613e-01,
          3.18649650e-01, 2.48596326e-01, 3.55424613e-01, 3.55424613e-01,
          1.46917388e-01, 2.21657947e-01, 2.39492103e-01, 3.72695416e-01,
          2.94117481e-01, 3.87064636e-01, 4.27073628e-01, 4.27073628e-01,
          3.57282341e-01, 4.14508879e-01, 1.28917351e-01, 1.44697711e-01,
          3.58590007e-01, 3.10249656e-01, 3.12774688e-01, 4.14508879e-01,
          3.46669257e-01, 4.14508879e-01, 4.95502204e-01, 2.53379494e-01,
          2.14954033e-01, 1.82386279e-01, 1.35914370e-01, 2.85097361e-01,
          1.22717172e-01, 4.95502204e-01, 4.95502204e-01, 1.46917388e-01,
          2.21657947e-01, 2.39492103e-01, 3.72695416e-01, 2.94117481e-01,
          3.87064636e-01, 4.27073628e-01, 4.27073628e-01, 3.57282341e-01,
          4.14508879e-01, 1.28917351e-01, 1.44697711e-01, 3.58590007e-01,
          3.10249656e-01, 3.12774688e-01, 4.14508879e-01, 3.46669257e-01,
          4.14508879e-01, 4.95502204e-01, 2.53379494e-01, 2.14954033e-01,
          1.82386279e-01, 1.35914370e-01, 2.85097361e-01, 1.22717172e-01,
          4.95502204e-01, 4.95502204e-01, 3.80431414e-01, 1.39983326e-01,
          2.79703230e-01, 2.46127874e-01, 3.80431414e-01, 3.37861925e-01,
          3.80431414e-01, 3.80431414e-01, 3.80431414e-01, 5.29456794e-01,
          2.08492473e-01, 1.82170179e-02, 5.88355139e-02, 5.29456794e-01,
          3.20775807e-01, 3.76526043e-02, 4.64930199e-02, 5.29456794e-01,
          4.66957062e-01, 6.06638044e-02, 1.50843477e-02, 2.65643634e-02,
          4.66957062e-01, 4.66957062e-01, 2.66063720e-01, 2.18488321e-01,
          4.66957062e-01, 2.30279803e-01, 4.66183610e-02, 1.38807908e-01,
          5.03341913e-01, 5.03341913e-01, 5.03341913e-01, 1.30091295e-01,
          1.58973366e-01, 3.43871951e-01, 5.03315032e-01, 9.65821072e-02,
          1.70386713e-02, 2.71873083e-02, 5.03315032e-01, 5.03315032e-01,
          1.26228258e-01, 2.24793673e-01, 3.97708297e-01, 4.99705851e-01,
          4.99705851e-01, 5.83136640e-02, 5.02899885e-02, 4.99705851e-01,
          4.57363933e-01, 5.62810861e-02, 7.44002014e-02, 1.48584023e-01 ]
      - [ 4.10069466e-01, 4.10069466e-01, 2.82263070e-01, 1.34640038e-01,
          3.63419563e-01, 4.10069466e-01, 4.10069466e-01, 1.94230035e-01,
          2.35957935e-01, 4.52582926e-01, 4.52582926e-01, 9.85743254e-02,
          5.37871644e-02, 3.59980136e-01, 4.52582926e-01, 8.00489485e-02,
          1.65983975e-01, 4.52582926e-01, 3.86289388e-01, 1.62420094e-01,
          2.59556938e-02, 9.46934242e-03, 1.24717653e-01, 6.75751641e-02,
          3.87102365e-01, 5.69202840e-01, 5.69202840e-01, 3.51458043e-01,
          3.77519846e-01, 3.77519846e-01, 3.59497577e-01, 3.77519846e-01,
          3.77519846e-01, 2.53733128e-01, 1.72851622e-01, 2.81289786e-01,
          2.85590351e-01, 3.72745126e-01, 3.72745126e-01, 3.72745126e-01,
          3.72745126e-01, 3.72745126e-01, 2.80170649e-01, 3.49027902e-01,
          1.40369028e-01, 2.43639782e-01, 1.60256401e-01, 3.17682475e-01,
          3.78985465e-01, 3.08878452e-01, 3.78985465e-01, 3.78985465e-01,
          3.78985465e-01, 3.74597609e-01, 3.93484563e-01, 3.93484563e-01,
          3.93484563e-01, 3.93484563e-01, 3.82385790e-01, 8.78650099e-02,
          6.02296591e-02, 2.86738753e-01, 3.70084643e-01, 3.73969346e-01,
          3.73969346e-01, 3.73969346e-01, 1.69181913e-01, 3.25194687e-01,
          3.73969346e-01, 3.73969346e-01, 3.73969346e-01, 1.50901601e-01,
          2.72282392e-01, 3.51605713e-01, 3.46069962e-01, 3.73751074e-01,
          2.79975742e-01, 3.73751074e-01, 3.73751074e-01, 3.73751074e-01,
          2.03939751e-01, 3.93484563e-01, 3.93484563e-01, 3.93484563e-01,
          3.93484563e-01, 3.82385790e-01, 8.78650099e-02, 6.02296591e-02,
          2.86738753e-01, 3.70084643e-01, 3.73969346e-01, 3.73969346e-01,
          3.73969346e-01, 1.69181913e-01, 3.25194687e-01, 3.73969346e-01,
          3.73969346e-01, 3.73969346e-01, 1.50901601e-01, 2.72282392e-01,
          3.51605713e-01, 3.46069962e-01, 3.73751074e-01, 2.79975742e-01,
          3.73751074e-01, 3.73751074e-01, 3.73751074e-01, 2.03939751e-01,
          4.15804684e-01, 4.18533951e-01, 4.18533951e-01, 4.18533951e-01,
          1.05482586e-01, 3.35129653e-03, 2.87074707e-02, 3.32085818e-01,
          4.18533951e-01, 3.56359154e-01, 3.56359154e-01, 3.56359154e-01,
          3.56359154e-01, 2.70407021e-01, 1.85409814e-01, 3.56359154e-01,
          3.56359154e-01, 3.56359154e-01, 4.40428257e-01, 2.42244780e-01,
          4.95175719e-02, 2.87718982e-01, 2.53762513e-01, 1.16677456e-01,
          4.37885344e-01, 4.40428257e-01, 4.40428257e-01, 2.33909339e-01,
          2.26201668e-01, 3.34410161e-01, 5.04752517e-01, 9.63908657e-02,
          1.00442600e-02, 5.94183691e-02, 5.04752517e-01, 5.04752517e-01,
          1.41057581e-01, 1.29198551e-01, 2.66767949e-01, 5.28192878e-01,
          5.28192878e-01, 1.90951049e-01, 1.43744528e-01, 3.65287274e-01,
          3.72069329e-01, 3.29945415e-01, 3.13841440e-02, 6.17723018e-02,
          4.97330397e-01, 4.97330397e-01, 7.26537555e-02, 3.57448310e-02,
          3.68207991e-01, 4.94529694e-01, 3.86289388e-01, 1.62420094e-01,
          2.59556938e-02, 9.46934242e-03, 1.24717653e-01, 6.75751641e-02,
          3.87102365e-01, 5.69202840e-01, 5.69202840e-01, 3.90901446e-01,
          1.58052608e-01, 2.01673850e-01, 3.90901446e-01, 3.90901446e-01,
          2.10539088e-01, 3.49421561e-01, 3.90901446e-01, 3.90901446e-01,
          2.53257036e-01, 5.32431863e-02, 3.61574650e-01, 5.54005563e-01,
          5.54005563e-01, 1.72049403e-01, 1.65773407e-01, 2.88418323e-01,
          2.06509799e-01, 2.43639782e-01, 1.60256401e-01, 3.17682475e-01,
          3.78985465e-01, 3.08878452e-01, 3.78985465e-01, 3.78985465e-01,
          3.78985465e-01, 3.74597609e-01, 4.34980959e-01, 2.17936143e-01,
          6.61527961e-02, 7.56787956e-02, 1.75685897e-01, 3.87757570e-01,
          4.34980959e-01, 4.34980959e-01, 4.34980959e-01, 4.10912603e-01,
          3.09835225e-01, 3.64149034e-01, 4.10912603e-01, 2.79138267e-01,
          8.39430988e-02, 8.32548290e-02, 4.10912603e-01, 4.10912603e-01,
          2.72282392e-01, 3.51605713e-01, 3.46069962e-01, 3.73751074e-01,
          2.79975742e-01, 3.73751074e-01, 3.73751074e-01, 3.73751074e-01,
          2.03939751e-01, 3.49212319e-01, 3.49212319e-01, 1.71214908e-01,
          3.49212319e-01, 3.49212319e-01, 3.36974323e-01, 3.49212319e-01,
          3.49212319e-01, 3.49212319e-01, 3.75119090e-01, 3.75119090e-01,
          1.66251495e-01, 2.28960246e-01, 3.75119090e-01, 3.75119090e-01,
          2.68149287e-01, 3.75119090e-01, 3.75119090e-01, 2.72282392e-01,
          3.51605713e-01, 3.46069962e-01, 3.73751074e-01, 2.79975742e-01,
          3.73751074e-01, 3.73751074e-01, 3.73751074e-01, 2.03939751e-01,
          3.49212319e-01, 3.49212319e-01, 1.71214908e-01, 3.49212319e-01,
          3.49212319e-01, 3.36974323e-01, 3.49212319e-01, 3.49212319e-01,
          3.49212319e-01, 3.75119090e-01, 3.75119090e-01, 1.66251495e-01,
          2.28960246e-01, 3.75119090e-01, 3.75119090e-01, 2.68149287e-01,
          3.75119090e-01, 3.75119090e-01, 4.40428257e-01, 2.42244780e-01,
          4.95175719e-02, 2.87718982e-01, 2.53762513e-01, 1.16677456e-01,
          4.37885344e-01, 4.40428257e-01, 4.40428257e-01, 4.54078168e-01,
          3.55003387e-01, 5.72174340e-02, 1.05240196e-01, 2.09782243e-01,
          7.63114616e-02, 4.32081848e-01, 4.54078168e-01, 4.54078168e-01,
          3.94174099e-01, 3.94174099e-01, 1.98741138e-01, 1.38370365e-01,
          3.15746039e-01, 2.46690288e-01, 3.94174099e-01, 3.94174099e-01,
          3.94174099e-01, 3.29945415e-01, 3.13841440e-02, 6.17723018e-02,
          4.97330397e-01, 4.97330397e-01, 7.26537555e-02, 3.57448310e-02,
          3.68207991e-01, 4.94529694e-01, 4.68997151e-01, 4.98641133e-02,
          6.89505488e-02, 4.68997151e-01, 4.68997151e-01, 1.23676851e-01,
          5.98337725e-02, 2.98940659e-01, 4.68997151e-01, 3.69825214e-01,
          3.69825214e-01, 6.90695643e-02, 2.24798232e-01, 3.69825214e-01,
          3.46952707e-01, 3.69825214e-01, 3.69825214e-01, 3.69825214e-01 ]
      - [ 5.92504621e-01, 1.55964881e-01, 8.13722759e-02, 1.35309398e-02,
          3.33045125e-01, 5.92504621e-01, 3.21882367e-01, 5.39626740e-02,
          2.08306342e-01, 4.75022167e-01, 2.79005855e-01, 8.58735293e-02,
          5.26772514e-02, 4.75022167e-01, 4.75022167e-01, 5.42929061e-02,
          4.15910445e-02, 4.75022167e-01, 5.22082806e-01, 3.51670504e-01,
          1.63810197e-02, 6.07572533e-02, 5.01653790e-01, 2.54009247e-01,
          2.66357493e-02, 7.15989769e-02, 5.22082806e-01, 4.20509428e-01,
          4.20509428e-01, 4.20509428e-01, 3.56325954e-01, 1.20112389e-01,
          4.20509428e-01, 3.66195589e-01, 8.45182911e-02, 7.64779225e-02,
          3.64046037e-01, 3.64046037e-01, 3.64046037e-01, 1.54607415e-01,
          3.59139055e-01, 3.14167470e-01, 3.64046037e-01, 3.12568426e-01,
          3.41994464e-01, 5.12000978e-01, 1.32067963e-01, 3.00105405e-03,
          7.59141743e-02, 5.12000978e-01, 5.12000978e-01, 1.98781863e-01,
          1.32230818e-01, 3.58104020e-01, 4.15724307e-01, 4.55644101e-01,
          4.55644101e-01, 4.55644101e-01, 5.52008562e-02, 9.08043757e-02,
          1.56119168e-01, 1.55226916e-01, 3.74200761e-01, 1.44543380e-01,
          2.30044797e-01, 4.69596773e-01, 4.69596773e-01, 3.61314677e-02,
          5.70144951e-02, 4.69596773e-01, 4.69596773e-01, 1.86696216e-01,
          4.35825795e-01, 4.35825795e-01, 3.74615416e-02, 9.41794179e-03,
          1.60790846e-01, 1.49384797e-01, 4.35825795e-01, 4.35825795e-01,
          4.31518674e-01, 4.15724307e-01, 4.55644101e-01, 4.55644101e-01,
          4.55644101e-01, 5.52008562e-02, 9.08043757e-02, 1.56119168e-01,
          1.55226916e-01, 3.74200761e-01, 1.44543380e-01, 2.30044797e-01,
          4.69596773e-01, 4.69596773e-01, 3.61314677e-02, 5.70144951e-02,
          4.69596773e-01, 4.69596773e-01, 1.86696216e-01, 4.35825795e-01,
          4.35825795e-01, 3.74615416e-02, 9.41794179e-03, 1.60790846e-01,
          1.49384797e-01, 4.35825795e-01, 4.35825795e-01, 4.31518674e-01,
          3.17958027e-01, 3.69110018e-01, 4.33217257e-01, 4.33217257e-01,
          6.03764094e-02, 8.78440868e-03, 6.24648295e-02, 4.33217257e-01,
          4.33217257e-01, 4.33248341e-01, 2.74426311e-01, 4.33248341e-01,
          4.33248341e-01, 3.39706331e-01, 2.28185635e-02, 9.18944478e-02,
          2.12556705e-01, 4.33248341e-01, 4.33626682e-01, 2.78074592e-01,
          6.21587038e-02, 7.26440400e-02, 5.57655841e-02, 4.57388639e-01,
          4.57388639e-01, 4.57388639e-01, 3.00349891e-01, 1.22684896e-01,
          6.60590231e-02, 4.23806548e-01, 4.70157474e-01, 1.22546203e-01,
          1.80463807e-03, 2.87310239e-02, 5.28582752e-01, 5.28582752e-01,
          3.16362083e-01, 9.38418414e-03, 8.78227279e-02, 4.91349071e-01,
          4.91349071e-01, 9.04709026e-02, 1.98258329e-02, 3.92882973e-01,
          4.91349071e-01, 4.08948958e-01, 1.25314007e-02, 1.32532828e-02,
          3.96615386e-01, 4.08948958e-01, 4.08948958e-01, 4.08948958e-01,
          4.56283987e-02, 4.08948958e-01, 5.22082806e-01, 3.51670504e-01,
          1.63810197e-02, 6.07572533e-02, 5.01653790e-01, 2.54009247e-01,
          2.66357493e-02, 7.15989769e-02, 5.22082806e-01, 4.91883516e-01,
          2.37729728e-01, 3.87921333e-02, 2.91606992e-01, 4.91883516e-01,
          3.43307853e-01, 4.27040644e-02, 8.06240961e-02, 4.91883516e-01,
          3.75429511e-01, 3.63293327e-02, 9.10945684e-02, 3.75429511e-01,
          3.75429511e-01, 3.75429511e-01, 3.75429511e-01, 3.75429511e-01,
          3.75429511e-01, 5.12000978e-01, 1.32067963e-01, 3.00105405e-03,
          7.59141743e-02, 5.12000978e-01, 5.12000978e-01, 1.98781863e-01,
          1.32230818e-01, 3.58104020e-01, 4.17329758e-01, 5.14864624e-02,
          2.02802308e-02, 1.95866764e-01, 6.12671912e-01, 6.12671912e-01,
          7.40472376e-02, 2.13316865e-02, 1.47040576e-01, 1.38070762e-01,
          3.31103019e-02, 1.11388728e-01, 2.46769860e-01, 5.15929401e-01,
          5.15929401e-01, 5.15929401e-01, 2.89776564e-01, 1.37348950e-01,
          4.35825795e-01, 4.35825795e-01, 3.74615416e-02, 9.41794179e-03,
          1.60790846e-01, 1.49384797e-01, 4.35825795e-01, 4.35825795e-01,
          4.31518674e-01, 3.95891100e-01, 2.57524729e-01, 1.20505460e-01,
          7.25799799e-02, 3.71330917e-01, 3.19558620e-01, 4.13532168e-01,
          4.13532168e-01, 4.13532168e-01, 4.17944431e-01, 2.39346400e-01,
          9.67822000e-02, 1.99526846e-01, 4.17944431e-01, 4.17944431e-01,
          4.17944431e-01, 1.38576701e-01, 4.14061159e-01, 4.35825795e-01,
          4.35825795e-01, 3.74615416e-02, 9.41794179e-03, 1.60790846e-01,
          1.49384797e-01, 4.35825795e-01, 4.35825795e-01, 4.31518674e-01,
          3.95891100e-01, 2.57524729e-01, 1.20505460e-01, 7.25799799e-02,
          3.71330917e-01, 3.19558620e-01, 4.13532168e-01, 4.13532168e-01,
          4.13532168e-01, 4.17944431e-01, 2.39346400e-01, 9.67822000e-02,
          1.99526846e-01, 4.17944431e-01, 4.17944431e-01, 4.17944431e-01,
          1.38576701e-01, 4.14061159e-01, 4.33626682e-01, 2.78074592e-01,
          6.21587038e-02, 7.26440400e-02, 5.57655841e-02, 4.57388639e-01,
          4.57388639e-01, 4.57388639e-01, 3.00349891e-01, 1.39752805e-01,
          6.33793250e-02, 2.74053328e-02, 3.22031677e-02, 1.45011604e-01,
          5.33863187e-01, 5.33863187e-01, 5.33863187e-01, 3.05409014e-01,
          5.52669287e-01, 5.52669287e-01, 1.27957255e-01, 1.69519573e-01,
          2.30367362e-01, 3.72502655e-01, 2.46471629e-01, 1.20644636e-01,
          2.67120689e-01, 4.08948958e-01, 1.25314007e-02, 1.32532828e-02,
          3.96615386e-01, 4.08948958e-01, 4.08948958e-01, 4.08948958e-01,
          4.56283987e-02, 4.08948958e-01, 4.32473719e-01, 3.35276514e-01,
          4.10557985e-02, 1.91842288e-01, 4.03222024e-01, 4.32473719e-01,
          3.31703812e-01, 1.05188563e-01, 4.32473719e-01, 4.78684396e-01,
          4.78684396e-01, 6.37262315e-03, 1.30541250e-01, 4.78684396e-01,
          4.78684396e-01, 1.82155207e-01, 1.01660322e-02, 1.68221414e-01 ]
      - [ 5.21627307e-01, 2.18609776e-02, 4.20782827e-02, 7.53423572e-02,
          1.91957653e-01, 6.02222204e-01, 4.60979521e-01, 2.78606303e-02,
          3.18071067e-01, 3.93648744e-01, 1.52741354e-02, 4.56687286e-02,
          1.08429454e-01, 6.08362436e-01, 6.08362436e-01, 1.14573628e-01,
          1.60280373e-02, 2.67014384e-01, 4.74891633e-01, 5.24913520e-02,
          6.64526373e-02, 2.71458894e-01, 4.74891633e-01, 4.74891633e-01,
          9.18642059e-02, 6.21951930e-02, 4.74891633e-01, 3.19103926e-01,
          2.62229890e-01, 1.66958153e-01, 4.18339819e-02, 1.04391739e-01,
          5.76654375e-01, 5.76654375e-01, 2.07038730e-01, 2.74229020e-01,
          5.00212610e-01, 5.00212610e-01, 4.55160677e-01, 2.84428485e-02,
          1.03469215e-01, 1.51782885e-01, 4.55651730e-02, 2.37886366e-02,
          5.00212610e-01, 5.66156924e-01, 3.42521407e-02, 1.35326227e-02,
          8.14483538e-02, 5.66156924e-01, 1.48852408e-01, 4.92930077e-02,
          1.29788537e-02, 5.66156924e-01, 4.04654264e-01, 3.20729524e-01,
          4.04654264e-01, 7.29213282e-02, 1.69979200e-01, 3.65953892e-01,
          4.04654264e-01, 4.04654264e-01, 2.64531851e-01, 2.68303961e-01,
          4.87878531e-01, 4.87878531e-01, 1.42307982e-01, 1.05710156e-01,
          1.35998845e-01, 4.87878531e-01, 3.86682957e-01, 9.80734304e-02,
          2.44351625e-01, 3.67535427e-02, 5.16829006e-02, 1.73728243e-01,
          4.42192078e-01, 4.42192078e-01, 4.42192078e-01, 4.42192078e-01,
          3.45740229e-01, 4.04654264e-01, 3.20729524e-01, 4.04654264e-01,
          7.29213282e-02, 1.69979200e-01, 3.65953892e-01, 4.04654264e-01,
          4.04654264e-01, 2.64531851e-01, 2.68303961e-01, 4.87878531e-01,
          4.87878531e-01, 1.42307982e-01, 1.05710156e-01, 1.35998845e-01,
          4.87878531e-01, 3.86682957e-01, 9.80734304e-02, 2.44351625e-01,
          3.67535427e-02, 5.16829006e-02, 1.73728243e-01, 4.42192078e-01,
          4.42192078e-01, 4.42192078e-01, 4.42192078e-01, 3.45740229e-01,
          4.04107660e-01, 4.04107660e-01, 4.04107660e-01, 3.23635451e-02,
          9.89379138e-02, 7.28620365e-02, 4.04107660e-01, 4.04107660e-01,
          4.04107660e-01, 3.90243441e-01, 4.44132328e-01, 4.44132328e-01,
          4.62965667e-02, 8.33590236e-03, 1.69180408e-02, 2.89360493e-01,
          4.44132328e-01, 4.06552047e-01, 4.44098800e-01, 4.44098800e-01,
          8.51865783e-02, 7.69542716e-03, 3.01365685e-02, 3.49443741e-02,
          4.44098800e-01, 4.44098800e-01, 4.44098800e-01, 7.36081675e-02,
          3.53779316e-01, 4.62675184e-01, 4.62675184e-01, 1.73781831e-02,
          2.02010516e-02, 8.84153470e-02, 4.62675184e-01, 4.62675184e-01,
          3.54167312e-01, 3.68312418e-01, 4.31782246e-01, 4.31782246e-01,
          8.21005777e-02, 1.09281115e-01, 8.37589949e-02, 3.86771262e-01,
          4.31782246e-01, 2.56977677e-01, 2.17104107e-01, 3.49792466e-02,
          8.62479731e-02, 3.66978608e-02, 5.53048909e-01, 5.53048909e-01,
          4.38375533e-01, 2.59609789e-01, 4.74891633e-01, 5.24913520e-02,
          6.64526373e-02, 2.71458894e-01, 4.74891633e-01, 4.74891633e-01,
          9.18642059e-02, 6.21951930e-02, 4.74891633e-01, 4.85258877e-01,
          8.60910788e-02, 5.34635969e-02, 4.85258877e-01, 4.85258877e-01,
          1.37176841e-01, 1.21876642e-01, 9.64740440e-02, 4.85258877e-01,
          4.67065573e-01, 4.97693568e-02, 2.27087483e-01, 5.34063995e-01,
          4.84461755e-01, 2.55105365e-02, 2.58145854e-02, 2.78600827e-02,
          4.47716147e-01, 5.66156924e-01, 3.42521407e-02, 1.35326227e-02,
          8.14483538e-02, 5.66156924e-01, 1.48852408e-01, 4.92930077e-02,
          1.29788537e-02, 5.66156924e-01, 5.56215763e-01, 1.04765385e-01,
          1.02874143e-02, 3.77773680e-02, 5.56215763e-01, 2.30692700e-01,
          1.40314465e-02, 1.98171623e-02, 5.56215763e-01, 4.41400498e-01,
          1.02590742e-02, 1.03326447e-01, 3.44621986e-01, 4.41400498e-01,
          2.17591718e-01, 3.83212954e-01, 2.95539439e-01, 4.41400498e-01,
          2.44351625e-01, 3.67535427e-02, 5.16829006e-02, 1.73728243e-01,
          4.42192078e-01, 4.42192078e-01, 4.42192078e-01, 4.42192078e-01,
          3.45740229e-01, 2.53479451e-01, 6.98536728e-03, 2.23703822e-03,
          2.60012656e-01, 6.28755033e-01, 6.28755033e-01, 2.23849323e-02,
          6.28504623e-03, 2.65713900e-01, 2.60548413e-01, 5.76184550e-03,
          3.14258388e-03, 1.06274225e-01, 6.14710629e-01, 6.14710629e-01,
          2.99421996e-01, 8.74129012e-02, 2.48206869e-01, 2.44351625e-01,
          3.67535427e-02, 5.16829006e-02, 1.73728243e-01, 4.42192078e-01,
          4.42192078e-01, 4.42192078e-01, 4.42192078e-01, 3.45740229e-01,
          2.53479451e-01, 6.98536728e-03, 2.23703822e-03, 2.60012656e-01,
          6.28755033e-01, 6.28755033e-01, 2.23849323e-02, 6.28504623e-03,
          2.65713900e-01, 2.60548413e-01, 5.76184550e-03, 3.14258388e-03,
          1.06274225e-01, 6.14710629e-01, 6.14710629e-01, 2.99421996e-01,
          8.74129012e-02, 2.48206869e-01, 4.44098800e-01, 4.44098800e-01,
          8.51865783e-02, 7.69542716e-03, 3.01365685e-02, 3.49443741e-02,
          4.44098800e-01, 4.44098800e-01, 4.44098800e-01, 4.62233841e-01,
          1.98336780e-01, 4.35920712e-03, 3.75507064e-02, 2.80456454e-01,
          1.46013886e-01, 4.62233841e-01, 4.62233841e-01, 4.62233841e-01,
          5.51384985e-01, 3.47622037e-02, 1.58212446e-02, 8.15908238e-02,
          3.23704332e-01, 4.08462018e-01, 2.02453032e-01, 2.56348014e-01,
          5.51384985e-01, 2.56977677e-01, 2.17104107e-01, 3.49792466e-02,
          8.62479731e-02, 3.66978608e-02, 5.53048909e-01, 5.53048909e-01,
          4.38375533e-01, 2.59609789e-01, 2.64607519e-01, 1.50702730e-01,
          2.52879355e-02, 5.58203086e-02, 3.73722583e-01, 4.77560282e-01,
          4.77560282e-01, 4.77560282e-01, 2.73653448e-01, 5.06856501e-01,
          5.06856501e-01, 1.40409172e-01, 7.45346099e-02, 3.16265285e-01,
          2.31079817e-01, 1.34033814e-01, 3.41050595e-01, 4.10071284e-01 ]
      - [ 4.97591943e-01, 3.84738088e-01, 1.87631056e-01, 1.01102129e-01,
          4.97591943e-01, 4.97591943e-01, 1.41556218e-01, 6.93663731e-02,
          1.84219524e-01, 6.00133538e-01, 3.46991152e-01, 1.92017242e-01,
          1.46338791e-01, 2.03766823e-01, 1.79124802e-01, 1.15237318e-01,
          9.00686309e-02, 6.00133538e-01, 6.48963034e-01, 1.27458051e-01,
          2.05318615e-01, 1.55542672e-01, 9.50518176e-02, 8.85059983e-02,
          1.55893922e-01, 1.65677279e-01, 6.48963034e-01, 5.59139132e-01,
          5.59139132e-01, 5.59139132e-01, 1.66329116e-01, 1.13689460e-01,
          2.82177459e-02, 1.13531556e-02, 1.73898339e-02, 1.21196680e-01,
          3.91500443e-01, 3.91500443e-01, 3.91500443e-01, 1.25533745e-01,
          3.91500443e-01, 2.12451518e-01, 3.91500443e-01, 1.24735847e-01,
          3.91500443e-01, 5.16925037e-01, 6.03950629e-03, 2.75178184e-03,
          4.25140142e-01, 5.16925037e-01, 9.26914811e-02, 5.98020963e-02,
          1.57089829e-02, 5.16925037e-01, 4.02644277e-01, 5.44613063e-01,
          5.44613063e-01, 1.95138641e-02, 4.80958261e-03, 1.56033505e-03,
          1.35350479e-02, 2.24343181e-01, 4.33950067e-01, 9.88464803e-02,
          3.69351476e-01, 5.02425134e-01, 5.59221953e-02, 2.24060684e-01,
          1.70802474e-01, 5.02425134e-01, 5.02425134e-01, 9.48359966e-02,
          2.50570446e-01, 5.85522577e-02, 1.47816753e-02, 4.71164614e-01,
          4.71164614e-01, 2.10969478e-01, 4.71164614e-01, 2.60682940e-01,
          3.87826711e-01, 4.02644277e-01, 5.44613063e-01, 5.44613063e-01,
          1.95138641e-02, 4.80958261e-03, 1.56033505e-03, 1.35350479e-02,
          2.24343181e-01, 4.33950067e-01, 9.88464803e-02, 3.69351476e-01,
          5.02425134e-01, 5.59221953e-02, 2.24060684e-01, 1.70802474e-01,
          5.02425134e-01, 5.02425134e-01, 9.48359966e-02, 2.50570446e-01,
          5.85522577e-02, 1.47816753e-02, 4.71164614e-01, 4.71164614e-01,
          2.10969478e-01, 4.71164614e-01, 2.60682940e-01, 3.87826711e-01,
          3.91538560e-01, 4.21022505e-01, 4.21022505e-01, 3.65146190e-01,
          5.21178590e-03, 3.49451392e-03, 8.98985937e-03, 4.21022505e-01,
          4.21022505e-01, 4.25450414e-01, 4.25450414e-01, 2.69212127e-01,
          1.28086107e-02, 2.13927068e-02, 1.32712767e-01, 4.25450414e-01,
          4.25450414e-01, 4.25450414e-01, 4.71534401e-01, 1.89329088e-01,
          3.76132270e-03, 4.29572724e-02, 6.95796087e-02, 2.51724452e-01,
          4.71534401e-01, 4.71534401e-01, 4.71534401e-01, 7.73869902e-02,
          6.61597550e-02, 4.93108273e-01, 4.93108273e-01, 9.33548436e-02,
          5.79934008e-02, 2.77913525e-03, 4.93108273e-01, 4.93108273e-01,
          1.09182425e-01, 3.70184742e-02, 1.00432679e-01, 4.48497862e-01,
          5.15028954e-01, 5.92692316e-01, 2.57776260e-01, 1.24768376e-01,
          2.66456157e-01, 7.77795464e-02, 2.84182802e-02, 2.52801999e-02,
          7.59244934e-02, 3.61516029e-01, 5.49797058e-01, 5.49797058e-01,
          3.89747739e-01, 3.06753665e-01, 6.48963034e-01, 1.27458051e-01,
          2.05318615e-01, 1.55542672e-01, 9.50518176e-02, 8.85059983e-02,
          1.55893922e-01, 1.65677279e-01, 6.48963034e-01, 4.90428776e-01,
          1.52599886e-01, 2.25142643e-01, 4.90428776e-01, 3.37943643e-01,
          1.17603987e-01, 1.35805741e-01, 2.30401546e-01, 4.90428776e-01,
          3.52432758e-01, 3.59002389e-02, 3.40141028e-01, 5.76406956e-01,
          2.86682367e-01, 1.31414523e-02, 3.53569873e-02, 7.03647733e-02,
          5.76406956e-01, 5.16925037e-01, 6.03950629e-03, 2.75178184e-03,
          4.25140142e-01, 5.16925037e-01, 9.26914811e-02, 5.98020963e-02,
          1.57089829e-02, 5.16925037e-01, 5.52065432e-01, 8.40075687e-03,
          1.13018486e-03, 2.81230778e-01, 5.52065432e-01, 1.68746226e-02,
          1.03965988e-02, 2.45522447e-02, 5.52065432e-01, 5.04746020e-01,
          1.26184551e-02, 9.71230790e-02, 3.79457086e-01, 5.04746020e-01,
          8.44958127e-02, 1.89250365e-01, 1.84711412e-01, 5.04746020e-01,
          2.50570446e-01, 5.85522577e-02, 1.47816753e-02, 4.71164614e-01,
          4.71164614e-01, 2.10969478e-01, 4.71164614e-01, 2.60682940e-01,
          3.87826711e-01, 6.93923235e-02, 5.71937626e-03, 2.17142534e-02,
          6.87720478e-01, 6.87720478e-01, 1.08112909e-01, 3.96484509e-02,
          4.71707806e-02, 1.62513793e-01, 6.64634779e-02, 2.43978063e-03,
          1.87771264e-02, 5.58746874e-01, 5.58746874e-01, 5.28164804e-01,
          2.38810942e-01, 4.76802289e-02, 1.64274633e-01, 2.50570446e-01,
          5.85522577e-02, 1.47816753e-02, 4.71164614e-01, 4.71164614e-01,
          2.10969478e-01, 4.71164614e-01, 2.60682940e-01, 3.87826711e-01,
          6.93923235e-02, 5.71937626e-03, 2.17142534e-02, 6.87720478e-01,
          6.87720478e-01, 1.08112909e-01, 3.96484509e-02, 4.71707806e-02,
          1.62513793e-01, 6.64634779e-02, 2.43978063e-03, 1.87771264e-02,
          5.58746874e-01, 5.58746874e-01, 5.28164804e-01, 2.38810942e-01,
          4.76802289e-02, 1.64274633e-01, 4.71534401e-01, 1.89329088e-01,
          3.76132270e-03, 4.29572724e-02, 6.95796087e-02, 2.51724452e-01,
          4.71534401e-01, 4.71534401e-01, 4.71534401e-01, 4.74859297e-01,
          1.43111780e-01, 2.11531576e-02, 1.72786862e-01, 4.74859297e-01,
          1.10072225e-01, 2.75476336e-01, 4.24259573e-01, 4.74859297e-01,
          5.37477076e-01, 1.49776399e-01, 6.26164451e-02, 1.91019431e-01,
          5.37477076e-01, 2.28540078e-01, 3.55087221e-02, 1.07953750e-01,
          5.37477076e-01, 7.77795464e-02, 2.84182802e-02, 2.52801999e-02,
          7.59244934e-02, 3.61516029e-01, 5.49797058e-01, 5.49797058e-01,
          3.89747739e-01, 3.06753665e-01, 3.99415731e-01, 3.99415731e-01,
          9.94255617e-02, 3.84914607e-01, 3.99415731e-01, 2.63914585e-01,
          2.28522837e-01, 2.79212981e-01, 3.99415731e-01, 6.26031101e-01,
          6.26031101e-01, 1.54302806e-01, 1.34708226e-01, 1.62293985e-01,
          8.26091468e-02, 1.87307876e-02, 1.22793511e-01, 3.45501721e-01 ]
      - [ 5.05818069e-01, 5.05818069e-01, 9.98368189e-02, 3.69436890e-02,
          1.91174269e-01, 5.05818069e-01, 2.33092919e-01, 5.36934249e-02,
          3.49710375e-01, 2.80445516e-01, 1.83645919e-01, 6.59057945e-02,
          3.10190264e-02, 4.02874619e-01, 4.87531096e-01, 4.56248857e-02,
          4.87531096e-01, 4.87531096e-01, 3.04379016e-01, 1.96061522e-01,
          1.16314493e-01, 2.34303892e-01, 4.26291555e-01, 4.26291555e-01,
          2.63305068e-01, 4.26291555e-01, 4.26291555e-01, 1.76923066e-01,
          4.92966384e-01, 4.92966384e-01, 8.07490945e-02, 9.71831232e-02,
          4.92966384e-01, 4.62164134e-01, 1.21926861e-02, 7.08359554e-02,
          2.01093435e-01, 2.60496229e-01, 1.24361694e-01, 1.79252565e-01,
          4.41504240e-01, 3.53824794e-01, 3.60174358e-01, 4.41504240e-01,
          4.41504240e-01, 3.50930430e-02, 1.10939275e-02, 1.22865476e-02,
          2.13862076e-01, 4.58470196e-01, 2.05733746e-01, 4.94782925e-01,
          4.94782925e-01, 4.53513175e-01, 2.74780784e-02, 3.35652947e-01,
          4.20051903e-01, 4.20051903e-01, 4.20051903e-01, 4.20051903e-01,
          4.20051903e-01, 1.28592309e-02, 1.58823084e-03, 4.07371186e-02,
          1.80315465e-01, 4.02907223e-01, 4.02907223e-01, 4.02907223e-01,
          3.78844708e-01, 4.02907223e-01, 4.02907223e-01, 8.12845901e-02,
          1.13370560e-01, 4.93148528e-02, 3.40193547e-02, 4.59287643e-01,
          4.59287643e-01, 3.61697376e-01, 4.59287643e-01, 4.59287643e-01,
          6.60664588e-02, 2.74780784e-02, 3.35652947e-01, 4.20051903e-01,
          4.20051903e-01, 4.20051903e-01, 4.20051903e-01, 4.20051903e-01,
          1.28592309e-02, 1.58823084e-03, 4.07371186e-02, 1.80315465e-01,
          4.02907223e-01, 4.02907223e-01, 4.02907223e-01, 3.78844708e-01,
          4.02907223e-01, 4.02907223e-01, 8.12845901e-02, 1.13370560e-01,
          4.93148528e-02, 3.40193547e-02, 4.59287643e-01, 4.59287643e-01,
          3.61697376e-01, 4.59287643e-01, 4.59287643e-01, 6.60664588e-02,
          2.57314801e-01, 2.75885642e-01, 3.98599535e-01, 3.98599535e-01,
          3.98599535e-01, 3.98599535e-01, 3.98599535e-01, 2.39037141e-01,
          4.63418551e-02, 3.66998687e-02, 1.57838613e-01, 5.15480101e-01,
          5.15480101e-01, 1.01372086e-01, 1.12556472e-01, 3.78318787e-01,
          5.15480101e-01, 7.32284114e-02, 4.81097072e-01, 7.78156668e-02,
          1.18516915e-01, 6.61671832e-02, 1.52648911e-01, 1.46954820e-01,
          4.81097072e-01, 4.81097072e-01, 4.81097072e-01, 2.87285715e-01,
          2.55462021e-01, 1.11183055e-01, 1.05262578e-01, 4.77304429e-01,
          2.09681273e-01, 3.10760468e-01, 4.77304429e-01, 4.77304429e-01,
          1.72813520e-01, 1.70488641e-01, 5.48425674e-01, 5.48425674e-01,
          5.48425674e-01, 1.36858493e-01, 2.36737728e-02, 6.44253269e-02,
          9.91907939e-02, 3.19140822e-01, 2.53856108e-02, 1.73265100e-01,
          3.90168399e-01, 5.78113079e-01, 5.78113079e-01, 1.79090351e-02,
          6.96020797e-02, 1.89433545e-01, 3.04379016e-01, 1.96061522e-01,
          1.16314493e-01, 2.34303892e-01, 4.26291555e-01, 4.26291555e-01,
          2.63305068e-01, 4.26291555e-01, 4.26291555e-01, 7.94454664e-02,
          6.46325499e-02, 1.39458328e-01, 4.19914991e-01, 5.01449823e-01,
          5.01449823e-01, 5.01449823e-01, 1.70768678e-01, 7.21654221e-02,
          5.34734167e-02, 5.42548560e-02, 2.12883174e-01, 6.44254208e-01,
          6.44254208e-01, 2.98008382e-01, 1.38791293e-01, 6.07541129e-02,
          2.35701911e-02, 3.50930430e-02, 1.10939275e-02, 1.22865476e-02,
          2.13862076e-01, 4.58470196e-01, 2.05733746e-01, 4.94782925e-01,
          4.94782925e-01, 4.53513175e-01, 4.17320490e-01, 1.21220693e-01,
          2.21642956e-01, 1.44814670e-01, 4.17320490e-01, 4.17320490e-01,
          4.17320490e-01, 3.78271133e-01, 2.67067760e-01, 4.17682469e-01,
          3.61502200e-01, 1.81866273e-01, 1.71433076e-01, 4.17682469e-01,
          4.17682469e-01, 4.17682469e-01, 1.58933327e-01, 2.82107472e-01,
          1.13370560e-01, 4.93148528e-02, 3.40193547e-02, 4.59287643e-01,
          4.59287643e-01, 3.61697376e-01, 4.59287643e-01, 4.59287643e-01,
          6.60664588e-02, 4.25184309e-01, 4.25184309e-01, 1.97981179e-01,
          1.84274226e-01, 3.72503102e-01, 4.25184309e-01, 4.25184309e-01,
          1.44371659e-01, 1.99676350e-01, 5.70134044e-01, 4.53322887e-01,
          1.37349620e-01, 4.24773209e-02, 1.83949277e-01, 2.69586593e-01,
          2.43472263e-01, 1.03532702e-01, 5.16305208e-01, 1.13370560e-01,
          4.93148528e-02, 3.40193547e-02, 4.59287643e-01, 4.59287643e-01,
          3.61697376e-01, 4.59287643e-01, 4.59287643e-01, 6.60664588e-02,
          4.25184309e-01, 4.25184309e-01, 1.97981179e-01, 1.84274226e-01,
          3.72503102e-01, 4.25184309e-01, 4.25184309e-01, 1.44371659e-01,
          1.99676350e-01, 5.70134044e-01, 4.53322887e-01, 1.37349620e-01,
          4.24773209e-02, 1.83949277e-01, 2.69586593e-01, 2.43472263e-01,
          1.03532702e-01, 5.16305208e-01, 4.81097072e-01, 7.78156668e-02,
          1.18516915e-01, 6.61671832e-02, 1.52648911e-01, 1.46954820e-01,
          4.81097072e-01, 4.81097072e-01, 4.81097072e-01, 4.97208744e-01,
          4.97208744e-01, 9.34176799e-03, 1.49254967e-02, 3.93896550e-01,
          4.69565630e-01, 1.56140290e-02, 1.36832683e-03, 3.52702320e-01,
          5.23662925e-01, 2.41566420e-01, 3.07629211e-03, 9.17393155e-03,
          5.23662925e-01, 5.23662925e-01, 1.02380291e-02, 1.68824978e-02,
          3.36546928e-01, 3.19140822e-01, 2.53856108e-02, 1.73265100e-01,
          3.90168399e-01, 5.78113079e-01, 5.78113079e-01, 1.79090351e-02,
          6.96020797e-02, 1.89433545e-01, 2.49538034e-01, 5.86017855e-02,
          1.98741183e-02, 4.42769378e-02, 6.79264247e-01, 6.79264247e-01,
          8.20734166e-03, 7.79140275e-04, 4.78763394e-02, 2.94912666e-01,
          4.16943371e-01, 4.39085923e-02, 6.86790869e-02, 6.00830793e-01,
          6.00830793e-01, 6.70305118e-02, 6.27742428e-03, 3.58354417e-03 ]
      - [ 4.90227222e-01, 4.90227222e-01, 2.26974905e-01, 3.80603187e-02,
          1.12392299e-01, 4.90227222e-01, 4.50959474e-01, 4.42388654e-02,
          5.67073338e-02, 4.48403984e-01, 4.48403984e-01, 1.17532618e-01,
          7.82032982e-02, 1.92176297e-01, 3.51658434e-01, 1.03593029e-01,
          4.48403984e-01, 4.48403984e-01, 2.31459260e-01, 6.01685569e-02,
          4.73213270e-02, 2.30952129e-02, 6.11389726e-02, 7.83822760e-02,
          3.22240502e-01, 6.40281320e-01, 6.40281320e-01, 2.64347047e-01,
          4.17126566e-01, 4.17126566e-01, 3.79454106e-01, 4.17126566e-01,
          4.17126566e-01, 2.41609409e-01, 9.90159884e-02, 1.33456856e-01,
          3.43551755e-01, 3.43551755e-01, 3.43551755e-01, 3.43551755e-01,
          3.43551755e-01, 3.43551755e-01, 3.43551755e-01, 3.43551755e-01,
          2.28790402e-01, 1.76953271e-01, 1.02473266e-01, 6.18274026e-02,
          4.14083242e-01, 4.64187801e-01, 1.95872054e-01, 4.79797810e-01,
          4.79797810e-01, 2.52703249e-01, 3.63991141e-01, 4.88972902e-01,
          4.88972902e-01, 4.14387554e-01, 3.25996280e-01, 9.73139107e-02,
          7.83938989e-02, 1.62787959e-01, 2.53636539e-01, 2.54189372e-01,
          4.37535733e-01, 4.37535733e-01, 1.66309744e-01, 2.03682244e-01,
          2.15690389e-01, 4.37535733e-01, 4.37535733e-01, 2.22709313e-01,
          3.72491091e-01, 3.72491091e-01, 1.25483602e-01, 3.65729123e-01,
          3.72491091e-01, 1.19485945e-01, 3.72491091e-01, 3.72491091e-01,
          3.72491091e-01, 3.63991141e-01, 4.88972902e-01, 4.88972902e-01,
          4.14387554e-01, 3.25996280e-01, 9.73139107e-02, 7.83938989e-02,
          1.62787959e-01, 2.53636539e-01, 2.54189372e-01, 4.37535733e-01,
          4.37535733e-01, 1.66309744e-01, 2.03682244e-01, 2.15690389e-01,
          4.37535733e-01, 4.37535733e-01, 2.22709313e-01, 3.72491091e-01,
          3.72491091e-01, 1.25483602e-01, 3.65729123e-01, 3.72491091e-01,
          1.19485945e-01, 3.72491091e-01, 3.72491091e-01, 3.72491091e-01,
          3.08338463e-01, 4.17945117e-01, 4.17945117e-01, 4.17945117e-01,
          1.81187242e-01, 4.22066962e-03, 1.34867117e-01, 3.88592511e-01,
          4.17945117e-01, 3.57776850e-01, 3.26221973e-01, 3.57776850e-01,
          3.57776850e-01, 3.57776850e-01, 5.23822978e-02, 3.45304281e-01,
          3.57776850e-01, 3.57776850e-01, 5.00997365e-01, 7.53623396e-02,
          6.16808198e-02, 3.08784723e-01, 5.00997365e-01, 6.16353340e-02,
          8.61926824e-02, 3.54881644e-01, 5.00997365e-01, 2.39431903e-01,
          1.48791239e-01, 2.19552889e-01, 2.98318774e-01, 1.46013170e-01,
          1.10831838e-02, 8.92470852e-02, 6.11482978e-01, 6.11482978e-01,
          2.53484845e-01, 1.87539831e-01, 2.67372310e-01, 4.94728893e-01,
          4.94728893e-01, 6.76654950e-02, 1.13492901e-03, 2.92053431e-01,
          4.94728893e-01, 1.98870271e-01, 1.00794576e-01, 1.62760139e-01,
          5.52404165e-01, 5.52404165e-01, 2.50223372e-02, 4.25726641e-03,
          2.51783669e-01, 4.93906826e-01, 2.31459260e-01, 6.01685569e-02,
          4.73213270e-02, 2.30952129e-02, 6.11389726e-02, 7.83822760e-02,
          3.22240502e-01, 6.40281320e-01, 6.40281320e-01, 3.93955976e-01,
          3.05777282e-01, 3.93955976e-01, 3.93955976e-01, 3.31333786e-01,
          8.22923928e-02, 1.00019179e-01, 3.93955976e-01, 3.93955976e-01,
          1.81178555e-01, 1.43325001e-01, 5.94071865e-01, 5.94071865e-01,
          2.17165649e-01, 7.48285698e-03, 1.70178078e-02, 2.14804918e-01,
          3.75779241e-01, 1.76953271e-01, 1.02473266e-01, 6.18274026e-02,
          4.14083242e-01, 4.64187801e-01, 1.95872054e-01, 4.79797810e-01,
          4.79797810e-01, 2.52703249e-01, 4.24923182e-01, 2.52955914e-01,
          4.24923182e-01, 2.36720219e-01, 1.29020378e-01, 1.01471663e-01,
          3.55739415e-01, 4.24923182e-01, 4.24923182e-01, 4.23044503e-01,
          4.23044503e-01, 4.23044503e-01, 4.23044503e-01, 9.45599750e-02,
          1.01019643e-01, 7.10645989e-02, 2.77027309e-01, 4.23044503e-01,
          3.72491091e-01, 3.72491091e-01, 1.25483602e-01, 3.65729123e-01,
          3.72491091e-01, 1.19485945e-01, 3.72491091e-01, 3.72491091e-01,
          3.72491091e-01, 3.95633548e-01, 3.95633548e-01, 2.15083957e-01,
          2.42112949e-01, 3.95633548e-01, 2.07917318e-01, 3.68324459e-01,
          2.93550462e-01, 3.95633548e-01, 3.61914605e-01, 3.61914605e-01,
          3.61914605e-01, 3.61914605e-01, 2.08894029e-01, 2.73071676e-01,
          3.61914605e-01, 3.03786397e-01, 3.61914605e-01, 3.72491091e-01,
          3.72491091e-01, 1.25483602e-01, 3.65729123e-01, 3.72491091e-01,
          1.19485945e-01, 3.72491091e-01, 3.72491091e-01, 3.72491091e-01,
          3.95633548e-01, 3.95633548e-01, 2.15083957e-01, 2.42112949e-01,
          3.95633548e-01, 2.07917318e-01, 3.68324459e-01, 2.93550462e-01,
          3.95633548e-01, 3.61914605e-01, 3.61914605e-01, 3.61914605e-01,
          3.61914605e-01, 2.08894029e-01, 2.73071676e-01, 3.61914605e-01,
          3.03786397e-01, 3.61914605e-01, 5.00997365e-01, 7.53623396e-02,
          6.16808198e-02, 3.08784723e-01, 5.00997365e-01, 6.16353340e-02,
          8.61926824e-02, 3.54881644e-01, 5.00997365e-01, 6.21335208e-01,
          1.46064267e-01, 3.50162797e-02, 1.08917572e-01, 3.13889652e-01,
          1.02557041e-01, 1.19642608e-01, 2.52781510e-01, 6.21335208e-01,
          4.03702259e-01, 4.03702259e-01, 4.03702259e-01, 9.59947705e-02,
          6.80673420e-02, 6.53128326e-02, 4.03702259e-01, 4.03702259e-01,
          4.03702259e-01, 1.98870271e-01, 1.00794576e-01, 1.62760139e-01,
          5.52404165e-01, 5.52404165e-01, 2.50223372e-02, 4.25726641e-03,
          2.51783669e-01, 4.93906826e-01, 3.70343328e-01, 1.55910283e-01,
          3.90521809e-02, 5.09776592e-01, 5.09776592e-01, 9.82030109e-02,
          6.51923195e-02, 1.98215455e-01, 5.08914292e-01, 3.99006605e-01,
          3.99006605e-01, 1.39237583e-01, 2.04557344e-01, 3.99006605e-01,
          2.19653875e-01, 3.99006605e-01, 3.99006605e-01, 3.00838858e-01 ]
      - [ 4.04745996e-01, 5.09739339e-01, 7.99854621e-02, 3.41648161e-02,
          4.60282177e-01, 5.09739339e-01, 2.42997691e-01, 4.61133420e-02,
          1.75563514e-01, 3.69094074e-01, 3.64346296e-01, 3.45608369e-02,
          9.61342547e-03, 4.24639910e-01, 4.24639910e-01, 6.49329275e-02,
          4.24639910e-01, 4.24639910e-01, 3.83822054e-01, 3.38284999e-01,
          5.28664663e-02, 2.25437388e-01, 4.06335026e-01, 4.06335026e-01,
          1.41898319e-01, 4.06335026e-01, 4.06335026e-01, 3.48979264e-01,
          4.74785864e-01, 4.74785864e-01, 1.22677721e-01, 2.07934588e-01,
          4.74785864e-01, 3.72425646e-01, 1.12707699e-02, 9.58837569e-03,
          1.79919153e-01, 3.03431064e-01, 1.78535029e-01, 3.74153703e-01,
          3.74153703e-01, 3.74153703e-01, 3.74153703e-01, 3.74153703e-01,
          3.74153703e-01, 1.32892234e-02, 1.95789747e-02, 1.21858558e-02,
          3.31880689e-01, 4.44494635e-01, 2.77980506e-01, 5.14401972e-01,
          5.14401972e-01, 2.82740295e-01, 4.36945260e-02, 4.41906780e-01,
          4.41906780e-01, 4.36214626e-01, 4.41906780e-01, 4.41906780e-01,
          1.48628697e-01, 9.76993982e-03, 8.99933930e-03, 1.98710766e-02,
          2.66058952e-01, 4.34234828e-01, 4.14079517e-01, 3.26651633e-01,
          2.83576399e-01, 4.34234828e-01, 4.34234828e-01, 1.48909399e-02,
          2.69458026e-01, 4.21326347e-02, 3.85564007e-02, 4.19475466e-01,
          4.19475466e-01, 4.19475466e-01, 4.19475466e-01, 4.19475466e-01,
          2.00354874e-01, 4.36945260e-02, 4.41906780e-01, 4.41906780e-01,
          4.36214626e-01, 4.41906780e-01, 4.41906780e-01, 1.48628697e-01,
          9.76993982e-03, 8.99933930e-03, 1.98710766e-02, 2.66058952e-01,
          4.34234828e-01, 4.14079517e-01, 3.26651633e-01, 2.83576399e-01,
          4.34234828e-01, 4.34234828e-01, 1.48909399e-02, 2.69458026e-01,
          4.21326347e-02, 3.85564007e-02, 4.19475466e-01, 4.19475466e-01,
          4.19475466e-01, 4.19475466e-01, 4.19475466e-01, 2.00354874e-01,
          1.55569196e-01, 3.39734197e-01, 4.91874844e-01, 4.91874844e-01,
          4.91874844e-01, 2.02003449e-01, 1.12870328e-01, 2.27278724e-01,
          1.56342432e-01, 1.89027637e-01, 1.78618118e-01, 4.40254420e-01,
          4.21021670e-01, 2.20838428e-01, 7.31761828e-02, 4.40254420e-01,
          4.40254420e-01, 3.39280069e-01, 5.11977255e-01, 1.00977942e-01,
          1.23772603e-02, 2.35036798e-02, 5.11977255e-01, 1.87441856e-01,
          2.72654444e-01, 2.96896517e-01, 5.11977255e-01, 2.37940952e-01,
          1.34066895e-01, 4.71202016e-01, 3.55378538e-01, 7.43163675e-02,
          5.48790544e-02, 1.30905852e-01, 5.22587240e-01, 5.22587240e-01,
          9.41057503e-02, 8.79902765e-02, 5.35217822e-01, 5.35217822e-01,
          5.35217822e-01, 2.90285647e-01, 4.72991057e-02, 7.06987754e-02,
          1.64866924e-01, 2.62993008e-01, 2.52716877e-02, 5.25833014e-03,
          7.91930631e-02, 6.69719875e-01, 6.69719875e-01, 1.27639640e-02,
          2.02623699e-02, 1.39957294e-01, 3.83822054e-01, 3.38284999e-01,
          5.28664663e-02, 2.25437388e-01, 4.06335026e-01, 4.06335026e-01,
          1.41898319e-01, 4.06335026e-01, 4.06335026e-01, 1.65538982e-01,
          2.93584205e-02, 1.07077071e-02, 5.80791831e-01, 5.80791831e-01,
          4.55558479e-01, 2.83335477e-01, 4.07281779e-02, 4.13670242e-02,
          2.89846561e-03, 5.06804930e-03, 2.31842265e-01, 7.09782958e-01,
          6.51939809e-01, 7.03807175e-02, 6.48845956e-02, 3.15052085e-02,
          1.25110317e-02, 1.32892234e-02, 1.95789747e-02, 1.21858558e-02,
          3.31880689e-01, 4.44494635e-01, 2.77980506e-01, 5.14401972e-01,
          5.14401972e-01, 2.82740295e-01, 3.46931100e-01, 1.93363190e-01,
          7.76921362e-02, 1.24682099e-01, 4.62090701e-01, 4.62090701e-01,
          4.62090701e-01, 3.64784420e-01, 2.05915511e-01, 2.04743952e-01,
          7.33901113e-02, 5.08126497e-01, 5.08126497e-01, 3.47527117e-01,
          5.08126497e-01, 1.71241626e-01, 8.35159048e-02, 1.26363173e-01,
          2.69458026e-01, 4.21326347e-02, 3.85564007e-02, 4.19475466e-01,
          4.19475466e-01, 4.19475466e-01, 4.19475466e-01, 4.19475466e-01,
          2.00354874e-01, 4.12201792e-01, 1.34411916e-01, 2.13660538e-01,
          3.88619453e-01, 3.98381770e-01, 3.24401170e-01, 4.12201792e-01,
          8.63983855e-02, 4.12201792e-01, 4.11124796e-01, 2.38758236e-01,
          4.11124796e-01, 2.38355935e-01, 2.51054883e-01, 2.25288555e-01,
          3.33301008e-01, 3.87466371e-01, 4.11124796e-01, 2.69458026e-01,
          4.21326347e-02, 3.85564007e-02, 4.19475466e-01, 4.19475466e-01,
          4.19475466e-01, 4.19475466e-01, 4.19475466e-01, 2.00354874e-01,
          4.12201792e-01, 1.34411916e-01, 2.13660538e-01, 3.88619453e-01,
          3.98381770e-01, 3.24401170e-01, 4.12201792e-01, 8.63983855e-02,
          4.12201792e-01, 4.11124796e-01, 2.38758236e-01, 4.11124796e-01,
          2.38355935e-01, 2.51054883e-01, 2.25288555e-01, 3.33301008e-01,
          3.87466371e-01, 4.11124796e-01, 5.11977255e-01, 1.00977942e-01,
          1.23772603e-02, 2.35036798e-02, 5.11977255e-01, 1.87441856e-01,
          2.72654444e-01, 2.96896517e-01, 5.11977255e-01, 5.48653960e-01,
          4.86970954e-02, 6.31170906e-03, 5.15058674e-02, 5.48653960e-01,
          2.91624814e-01, 3.50413807e-02, 1.09756496e-02, 5.48653960e-01,
          3.97394210e-01, 1.90878376e-01, 1.06273353e-01, 2.77233664e-02,
          3.97394210e-01, 3.97394210e-01, 3.97394210e-01, 3.97394210e-01,
          3.97394210e-01, 2.62993008e-01, 2.52716877e-02, 5.25833014e-03,
          7.91930631e-02, 6.69719875e-01, 6.69719875e-01, 1.27639640e-02,
          2.02623699e-02, 1.39957294e-01, 2.62044340e-01, 8.06925669e-02,
          8.25734343e-03, 7.66275451e-02, 6.73834026e-01, 6.73834026e-01,
          3.69873922e-03, 4.20577684e-03, 6.33913949e-02, 4.90001261e-01,
          4.90001261e-01, 1.25312880e-01, 3.51573639e-02, 4.90001261e-01,
          4.90001261e-01, 1.25553980e-01, 3.94580625e-02, 2.09985692e-02 ]
      - [ 2.97480583e-01, 1.02982208e-01, 3.80902812e-02, 1.95530895e-02,
          8.76296163e-02, 6.58876061e-01, 6.58876061e-01, 1.11766845e-01,
          6.38964027e-02, 5.41145146e-01, 5.41145146e-01, 7.84675032e-02,
          1.32975299e-02, 1.55477449e-01, 4.44412112e-01, 2.47197136e-01,
          3.67808640e-02, 3.44167441e-01, 6.72229111e-01, 6.61645532e-01,
          1.73985586e-02, 1.12550734e-02, 9.98670161e-02, 1.83662876e-01,
          7.11327642e-02, 1.46958055e-02, 2.32834205e-01, 4.78322476e-01,
          4.78322476e-01, 4.78322476e-01, 7.92619810e-02, 1.06887013e-01,
          2.72398978e-01, 4.48279619e-01, 7.03265741e-02, 1.05053730e-01,
          5.24838448e-01, 5.24838448e-01, 1.68180034e-01, 4.90128100e-02,
          3.26830506e-01, 5.01254141e-01, 1.19406834e-01, 1.17265947e-01,
          1.64553151e-01, 5.51049411e-01, 2.51198620e-01, 1.57283212e-03,
          4.29056734e-02, 5.51049411e-01, 5.51049411e-01, 6.26667291e-02,
          2.59954464e-02, 1.18252747e-01, 3.68628979e-01, 5.13815999e-01,
          5.13815999e-01, 5.13815999e-01, 5.79391383e-02, 1.55417755e-01,
          1.57035917e-01, 6.96616992e-02, 9.96792465e-02, 1.90293118e-01,
          3.36171508e-01, 4.02678967e-01, 4.02678967e-01, 1.72786132e-01,
          4.02678967e-01, 4.02678967e-01, 4.02678967e-01, 7.84077197e-02,
          4.16143745e-01, 2.14895844e-01, 2.18244754e-02, 4.92649637e-02,
          4.16143745e-01, 4.16143745e-01, 4.16143745e-01, 4.16143745e-01,
          2.84396201e-01, 3.68628979e-01, 5.13815999e-01, 5.13815999e-01,
          5.13815999e-01, 5.79391383e-02, 1.55417755e-01, 1.57035917e-01,
          6.96616992e-02, 9.96792465e-02, 1.90293118e-01, 3.36171508e-01,
          4.02678967e-01, 4.02678967e-01, 1.72786132e-01, 4.02678967e-01,
          4.02678967e-01, 4.02678967e-01, 7.84077197e-02, 4.16143745e-01,
          2.14895844e-01, 2.18244754e-02, 4.92649637e-02, 4.16143745e-01,
          4.16143745e-01, 4.16143745e-01, 4.16143745e-01, 2.84396201e-01,
          3.52835178e-01, 3.52835178e-01, 3.52835178e-01, 3.52835178e-01,
          2.30948757e-02, 3.52835178e-01, 3.52835178e-01, 3.52835178e-01,
          3.52835178e-01, 3.00874561e-01, 3.72303307e-01, 4.26851183e-01,
          4.26851183e-01, 4.04644459e-02, 6.63302839e-02, 1.78202093e-01,
          4.26851183e-01, 4.26851183e-01, 4.41695988e-01, 4.41695988e-01,
          1.07453465e-01, 3.07882950e-02, 4.49605547e-02, 7.48031363e-02,
          4.41695988e-01, 4.41695988e-01, 4.41695988e-01, 1.23195916e-01,
          2.03266844e-01, 4.94384378e-01, 4.42902654e-01, 4.55686264e-02,
          1.86851937e-02, 8.20455775e-02, 4.94384378e-01, 4.94384378e-01,
          3.58639956e-01, 4.52763617e-01, 4.52763617e-01, 4.52763617e-01,
          1.79246306e-01, 3.75032350e-02, 1.25648892e-02, 1.14811711e-01,
          4.52763617e-01, 1.90819353e-01, 3.03134024e-01, 1.63879752e-01,
          2.83106387e-01, 2.57681161e-01, 4.67258692e-01, 4.67258692e-01,
          4.67258692e-01, 1.96552992e-01, 6.72229111e-01, 6.61645532e-01,
          1.73985586e-02, 1.12550734e-02, 9.98670161e-02, 1.83662876e-01,
          7.11327642e-02, 1.46958055e-02, 2.32834205e-01, 4.26825494e-01,
          2.55897313e-01, 7.57989436e-02, 3.48138243e-01, 2.83850819e-01,
          4.26122904e-01, 2.32974753e-01, 4.02367055e-01, 3.77887279e-01,
          1.43986166e-01, 4.24996018e-02, 4.42600578e-01, 4.42600578e-01,
          1.25680551e-01, 2.12563515e-01, 4.42600578e-01, 4.42600578e-01,
          3.58442277e-01, 5.51049411e-01, 2.51198620e-01, 1.57283212e-03,
          4.29056734e-02, 5.51049411e-01, 5.51049411e-01, 6.26667291e-02,
          2.59954464e-02, 1.18252747e-01, 2.86865264e-01, 4.22756374e-02,
          6.76776934e-03, 3.27708311e-02, 6.45779788e-01, 6.45779788e-01,
          2.59250373e-01, 7.91181847e-02, 2.86469199e-02, 3.16610187e-01,
          2.92689413e-01, 3.85907620e-01, 3.85907620e-01, 3.44077438e-01,
          3.85907620e-01, 3.85907620e-01, 2.87218809e-01, 1.16845474e-01,
          4.16143745e-01, 2.14895844e-01, 2.18244754e-02, 4.92649637e-02,
          4.16143745e-01, 4.16143745e-01, 4.16143745e-01, 4.16143745e-01,
          2.84396201e-01, 4.62025493e-01, 4.62025493e-01, 6.50620833e-02,
          4.72095124e-02, 4.07631069e-01, 4.62025493e-01, 3.62681448e-01,
          1.62187293e-01, 1.56571999e-01, 4.30355936e-01, 4.30355936e-01,
          4.30355936e-01, 2.25872532e-01, 1.81886449e-01, 4.30355936e-01,
          3.74237567e-01, 1.31157771e-01, 1.16271280e-01, 4.16143745e-01,
          2.14895844e-01, 2.18244754e-02, 4.92649637e-02, 4.16143745e-01,
          4.16143745e-01, 4.16143745e-01, 4.16143745e-01, 2.84396201e-01,
          4.62025493e-01, 4.62025493e-01, 6.50620833e-02, 4.72095124e-02,
          4.07631069e-01, 4.62025493e-01, 3.62681448e-01, 1.62187293e-01,
          1.56571999e-01, 4.30355936e-01, 4.30355936e-01, 4.30355936e-01,
          2.25872532e-01, 1.81886449e-01, 4.30355936e-01, 3.74237567e-01,
          1.31157771e-01, 1.16271280e-01, 4.41695988e-01, 4.41695988e-01,
          1.07453465e-01, 3.07882950e-02, 4.49605547e-02, 7.48031363e-02,
          4.41695988e-01, 4.41695988e-01, 4.41695988e-01, 4.57075417e-01,
          2.77242422e-01, 2.66912971e-02, 3.41805480e-02, 1.66745245e-01,
          3.71836990e-01, 5.06810248e-01, 5.06810248e-01, 1.65819719e-01,
          3.90530229e-01, 4.85889286e-01, 4.85889286e-01, 1.59630597e-01,
          2.42747828e-01, 3.54308069e-01, 2.47506589e-01, 2.57183403e-01,
          1.81964234e-01, 1.90819353e-01, 3.03134024e-01, 1.63879752e-01,
          2.83106387e-01, 2.57681161e-01, 4.67258692e-01, 4.67258692e-01,
          4.67258692e-01, 1.96552992e-01, 1.68622494e-01, 1.28163502e-01,
          1.66192241e-02, 4.05200990e-03, 3.24464142e-02, 5.11789739e-01,
          5.73319733e-01, 5.73319733e-01, 1.69559449e-01, 6.41922116e-01,
          6.41922116e-01, 3.72316062e-01, 2.67133117e-02, 7.97998086e-02,
          1.03744164e-01, 2.97611188e-02, 3.19032669e-02, 1.05337314e-01 ]
      - [ 4.18639511e-01, 5.16669214e-01, 1.12770028e-01, 7.95762613e-03,
          6.77532405e-02, 5.16669214e-01, 5.16669214e-01, 3.17957811e-02,
          1.89204533e-02, 2.57717133e-01, 3.90140414e-01, 3.90140414e-01,
          3.90140414e-01, 3.90140414e-01, 3.90140414e-01, 3.12350631e-01,
          2.34229207e-01, 1.27319887e-01, 3.47450763e-01, 2.38957494e-01,
          3.47450763e-01, 3.47450763e-01, 3.47450763e-01, 3.07202697e-01,
          3.47450763e-01, 3.47450763e-01, 3.47450763e-01, 2.04196423e-01,
          3.61013889e-01, 1.70679301e-01, 7.06267357e-02, 6.34811968e-02,
          6.02924347e-01, 6.02924347e-01, 1.65764749e-01, 1.71142161e-01,
          2.54863709e-01, 4.53287601e-01, 4.53287601e-01, 3.99984241e-01,
          1.42021582e-01, 1.36510715e-01, 1.42082676e-01, 3.86435032e-01,
          3.88928384e-01, 3.73319954e-01, 1.13394499e-01, 2.00127661e-01,
          3.36610019e-01, 3.73319954e-01, 3.73319954e-01, 3.73319954e-01,
          3.64987046e-01, 3.73319954e-01, 1.14717923e-01, 4.83740836e-01,
          4.71864760e-01, 1.95999444e-01, 3.29249911e-02, 3.72999832e-02,
          4.91594315e-01, 4.91594315e-01, 3.23607102e-02, 3.37216347e-01,
          4.50155497e-01, 4.50155497e-01, 4.50155497e-01, 2.76503861e-01,
          3.54106128e-01, 2.31441960e-01, 9.95812565e-02, 9.24198255e-02,
          3.51572245e-01, 3.51572245e-01, 2.74221301e-01, 3.15991879e-01,
          3.51572245e-01, 3.51572245e-01, 3.13051432e-01, 3.24688852e-01,
          3.51572245e-01, 1.14717923e-01, 4.83740836e-01, 4.71864760e-01,
          1.95999444e-01, 3.29249911e-02, 3.72999832e-02, 4.91594315e-01,
          4.91594315e-01, 3.23607102e-02, 3.37216347e-01, 4.50155497e-01,
          4.50155497e-01, 4.50155497e-01, 2.76503861e-01, 3.54106128e-01,
          2.31441960e-01, 9.95812565e-02, 9.24198255e-02, 3.51572245e-01,
          3.51572245e-01, 2.74221301e-01, 3.15991879e-01, 3.51572245e-01,
          3.51572245e-01, 3.13051432e-01, 3.24688852e-01, 3.51572245e-01,
          1.92590252e-01, 2.83641517e-01, 2.04070508e-01, 1.92220509e-01,
          1.49431780e-01, 2.20881011e-02, 5.25866508e-01, 5.25866508e-01,
          4.71934706e-01, 2.25576997e-01, 5.27715683e-01, 5.27715683e-01,
          5.27715683e-01, 7.65636936e-02, 8.07680935e-02, 1.80289358e-01,
          2.24464595e-01, 1.14538878e-01, 3.37203830e-01, 3.37203830e-01,
          3.37203830e-01, 3.37203830e-01, 2.94922680e-01, 3.37203830e-01,
          3.37203830e-01, 3.37203830e-01, 3.37203830e-01, 4.64032441e-02,
          2.91816127e-02, 4.91113782e-01, 4.99665260e-01, 2.87034549e-02,
          1.63704355e-03, 3.14525925e-02, 4.99665260e-01, 4.99665260e-01,
          2.97467589e-01, 4.24820572e-01, 4.24820572e-01, 4.24820572e-01,
          2.66307555e-02, 4.62244973e-02, 4.53977585e-02, 4.24820572e-01,
          4.24820572e-01, 3.72801185e-01, 3.72801185e-01, 3.72801185e-01,
          3.72801185e-01, 2.92832732e-01, 3.72801185e-01, 3.72801185e-01,
          1.62493095e-01, 2.24134266e-01, 3.47450763e-01, 2.38957494e-01,
          3.47450763e-01, 3.47450763e-01, 3.47450763e-01, 3.07202697e-01,
          3.47450763e-01, 3.47450763e-01, 3.47450763e-01, 1.90616533e-01,
          1.43607184e-01, 2.19108313e-01, 4.80309635e-01, 3.23914349e-01,
          2.68974274e-01, 4.80309635e-01, 4.80309635e-01, 1.44488290e-01,
          3.32498401e-02, 6.19073436e-02, 2.99436867e-01, 6.77367806e-01,
          1.35098308e-01, 4.56574955e-04, 5.92849590e-02, 5.83740056e-01,
          2.78013170e-01, 3.73319954e-01, 1.13394499e-01, 2.00127661e-01,
          3.36610019e-01, 3.73319954e-01, 3.73319954e-01, 3.73319954e-01,
          3.64987046e-01, 3.73319954e-01, 4.17122513e-01, 1.00775883e-01,
          1.61904488e-02, 3.51890214e-02, 3.37965906e-01, 4.17122513e-01,
          4.17122513e-01, 4.17122513e-01, 4.17122513e-01, 1.85069591e-01,
          5.28229594e-01, 5.71869493e-01, 5.71869493e-01, 5.24771288e-02,
          1.95679013e-02, 1.96477156e-02, 9.32793096e-02, 1.21321827e-01,
          3.51572245e-01, 3.51572245e-01, 2.74221301e-01, 3.15991879e-01,
          3.51572245e-01, 3.51572245e-01, 3.13051432e-01, 3.24688852e-01,
          3.51572245e-01, 2.08116055e-01, 1.04041032e-01, 2.31574759e-01,
          1.75813526e-01, 2.55554169e-01, 2.22549051e-01, 4.97166842e-01,
          4.97166842e-01, 4.97166842e-01, 3.94436479e-01, 6.02775872e-01,
          6.02775872e-01, 1.62272990e-01, 2.89183948e-02, 2.55808998e-02,
          9.48624909e-02, 2.21849933e-01, 1.60262942e-01, 3.51572245e-01,
          3.51572245e-01, 2.74221301e-01, 3.15991879e-01, 3.51572245e-01,
          3.51572245e-01, 3.13051432e-01, 3.24688852e-01, 3.51572245e-01,
          2.08116055e-01, 1.04041032e-01, 2.31574759e-01, 1.75813526e-01,
          2.55554169e-01, 2.22549051e-01, 4.97166842e-01, 4.97166842e-01,
          4.97166842e-01, 3.94436479e-01, 6.02775872e-01, 6.02775872e-01,
          1.62272990e-01, 2.89183948e-02, 2.55808998e-02, 9.48624909e-02,
          2.21849933e-01, 1.60262942e-01, 3.37203830e-01, 3.37203830e-01,
          3.37203830e-01, 3.37203830e-01, 2.94922680e-01, 3.37203830e-01,
          3.37203830e-01, 3.37203830e-01, 3.37203830e-01, 2.69735396e-01,
          1.95732564e-01, 2.19671011e-01, 6.96568564e-02, 5.43514043e-02,
          4.55061734e-01, 4.55061734e-01, 4.55061734e-01, 4.55061734e-01,
          6.42358005e-01, 6.42358005e-01, 3.51170868e-01, 1.35751739e-02,
          2.78967526e-02, 8.77399892e-02, 1.40967712e-01, 9.07607228e-02,
          9.08179134e-02, 3.72801185e-01, 3.72801185e-01, 3.72801185e-01,
          3.72801185e-01, 2.92832732e-01, 3.72801185e-01, 3.72801185e-01,
          1.62493095e-01, 2.24134266e-01, 4.33491617e-01, 3.35165024e-01,
          9.12646875e-02, 2.06439979e-02, 7.69422799e-02, 4.33491617e-01,
          4.33491617e-01, 3.42050940e-01, 4.33491617e-01, 5.55529833e-01,
          5.55529833e-01, 8.50858465e-02, 3.30892578e-02, 2.45298333e-02,
          5.55529833e-01, 2.41642833e-01, 9.29372944e-03, 3.46183032e-02 ]
      - [ 5.94384551e-01, 4.39959973e-01, 1.85243841e-02, 3.42808999e-02,
          1.73792019e-01, 5.94384551e-01, 2.36925498e-01, 7.14329164e-03,
          7.75087401e-02, 3.85897547e-01, 3.85897547e-01, 3.85897547e-01,
          3.83917749e-01, 3.85897547e-01, 3.85897547e-01, 3.04080337e-01,
          9.46912840e-02, 5.23071550e-02, 3.33025962e-01, 2.52990365e-01,
          3.67815316e-01, 3.67815316e-01, 3.67815316e-01, 1.12037957e-01,
          3.63898188e-01, 3.67815316e-01, 3.67815316e-01, 3.56604785e-01,
          1.06004104e-01, 2.50826403e-02, 9.78899151e-02, 4.24338400e-01,
          4.83940661e-01, 4.65152562e-01, 2.41767019e-01, 3.96826535e-01,
          1.68995768e-01, 4.54807103e-01, 4.54807103e-01, 4.06405151e-01,
          1.68774173e-01, 1.14197947e-01, 2.36855820e-01, 3.99834633e-01,
          3.61301988e-01, 3.45300019e-01, 2.07424596e-01, 3.45300019e-01,
          3.45300019e-01, 3.45300019e-01, 3.45300019e-01, 3.44819307e-01,
          3.45300019e-01, 3.45300019e-01, 3.60591084e-01, 3.92384142e-01,
          3.92384142e-01, 3.92384142e-01, 3.92384142e-01, 3.04042757e-01,
          1.77337721e-01, 2.09263876e-01, 2.87246794e-01, 3.62036645e-01,
          4.18235540e-01, 4.18235540e-01, 4.18235540e-01, 4.18235540e-01,
          2.78157175e-01, 6.74235299e-02, 9.18879062e-02, 2.73325592e-01,
          3.77671421e-01, 3.77671421e-01, 3.25717479e-01, 2.65629709e-01,
          3.77671421e-01, 3.77671421e-01, 2.46647805e-01, 2.13453159e-01,
          3.77671421e-01, 3.60591084e-01, 3.92384142e-01, 3.92384142e-01,
          3.92384142e-01, 3.92384142e-01, 3.04042757e-01, 1.77337721e-01,
          2.09263876e-01, 2.87246794e-01, 3.62036645e-01, 4.18235540e-01,
          4.18235540e-01, 4.18235540e-01, 4.18235540e-01, 2.78157175e-01,
          6.74235299e-02, 9.18879062e-02, 2.73325592e-01, 3.77671421e-01,
          3.77671421e-01, 3.25717479e-01, 2.65629709e-01, 3.77671421e-01,
          3.77671421e-01, 2.46647805e-01, 2.13453159e-01, 3.77671421e-01,
          3.64993095e-01, 4.74078089e-01, 1.78379968e-01, 7.98210204e-02,
          9.84280407e-02, 1.83599457e-01, 3.08570117e-01, 4.79809582e-01,
          4.79809582e-01, 3.47123772e-01, 4.37053680e-01, 4.37053680e-01,
          4.37053680e-01, 2.47418895e-01, 2.41067082e-01, 1.09817244e-01,
          2.10129783e-01, 3.55735749e-01, 3.75936151e-01, 3.17704290e-01,
          3.75936151e-01, 3.75936151e-01, 3.75936151e-01, 1.99168056e-01,
          8.75918195e-02, 3.75936151e-01, 3.75936151e-01, 1.09868035e-01,
          1.36421323e-02, 1.64809301e-01, 5.49067855e-01, 2.22642824e-01,
          2.87220348e-02, 1.66270416e-02, 5.49067855e-01, 5.49067855e-01,
          1.36460081e-01, 2.23277077e-01, 5.01286089e-01, 3.57597381e-01,
          1.63214281e-01, 1.18335173e-01, 6.43289015e-02, 5.01286089e-01,
          5.01286089e-01, 3.56223375e-01, 3.56223375e-01, 3.56223375e-01,
          3.56223375e-01, 3.56223375e-01, 2.41112307e-01, 2.23696858e-01,
          3.56223375e-01, 3.56223375e-01, 3.33025962e-01, 2.52990365e-01,
          3.67815316e-01, 3.67815316e-01, 3.67815316e-01, 1.12037957e-01,
          3.63898188e-01, 3.67815316e-01, 3.67815316e-01, 2.40448639e-01,
          7.29363859e-02, 3.73731703e-01, 3.73731703e-01, 3.73731703e-01,
          3.73731703e-01, 3.73731703e-01, 3.73731703e-01, 3.08348149e-01,
          8.42897594e-02, 1.21714119e-02, 1.42389536e-01, 5.85455358e-01,
          5.85455358e-01, 1.03415661e-01, 2.26599842e-01, 2.66470641e-01,
          3.84787589e-01, 3.45300019e-01, 2.07424596e-01, 3.45300019e-01,
          3.45300019e-01, 3.45300019e-01, 3.45300019e-01, 3.44819307e-01,
          3.45300019e-01, 3.45300019e-01, 4.05577332e-01, 1.26682157e-02,
          4.03488353e-02, 8.48641247e-02, 4.05577332e-01, 4.05577332e-01,
          4.05577332e-01, 4.05577332e-01, 4.05577332e-01, 2.74958253e-01,
          4.30492871e-02, 3.10580283e-02, 2.48705044e-01, 2.77626008e-01,
          3.34394008e-01, 4.71212476e-01, 4.71212476e-01, 4.71212476e-01,
          3.77671421e-01, 3.77671421e-01, 3.25717479e-01, 2.65629709e-01,
          3.77671421e-01, 3.77671421e-01, 2.46647805e-01, 2.13453159e-01,
          3.77671421e-01, 4.21124458e-01, 1.75505117e-01, 1.41855091e-01,
          3.48356426e-01, 4.21124458e-01, 2.66194195e-01, 2.08022699e-01,
          4.21124458e-01, 4.21124458e-01, 5.84273227e-02, 5.90622239e-02,
          8.65243375e-02, 6.17744997e-02, 1.95878536e-01, 3.77158582e-01,
          5.15116155e-01, 5.15116155e-01, 5.15116155e-01, 3.77671421e-01,
          3.77671421e-01, 3.25717479e-01, 2.65629709e-01, 3.77671421e-01,
          3.77671421e-01, 2.46647805e-01, 2.13453159e-01, 3.77671421e-01,
          4.21124458e-01, 1.75505117e-01, 1.41855091e-01, 3.48356426e-01,
          4.21124458e-01, 2.66194195e-01, 2.08022699e-01, 4.21124458e-01,
          4.21124458e-01, 5.84273227e-02, 5.90622239e-02, 8.65243375e-02,
          6.17744997e-02, 1.95878536e-01, 3.77158582e-01, 5.15116155e-01,
          5.15116155e-01, 5.15116155e-01, 3.75936151e-01, 3.17704290e-01,
          3.75936151e-01, 3.75936151e-01, 3.75936151e-01, 1.99168056e-01,
          8.75918195e-02, 3.75936151e-01, 3.75936151e-01, 3.54396045e-01,
          3.54396045e-01, 1.53555527e-01, 3.21494997e-01, 3.54396045e-01,
          3.54396045e-01, 3.54396045e-01, 3.40502024e-01, 3.54396045e-01,
          1.10876359e-01, 1.00234360e-01, 9.01884064e-02, 6.80199564e-02,
          2.18828246e-01, 4.77557093e-01, 4.77557093e-01, 4.77557093e-01,
          4.77557093e-01, 3.56223375e-01, 3.56223375e-01, 3.56223375e-01,
          3.56223375e-01, 3.56223375e-01, 2.41112307e-01, 2.23696858e-01,
          3.56223375e-01, 3.56223375e-01, 3.94692391e-01, 2.03192815e-01,
          2.53377378e-01, 2.52493054e-01, 3.94692391e-01, 3.94692391e-01,
          3.94692391e-01, 2.18875468e-01, 3.94692391e-01, 4.18190151e-01,
          2.35909700e-01, 8.68673902e-03, 2.58624293e-02, 4.02028888e-01,
          4.18190151e-01, 4.18190151e-01, 2.79759526e-01, 4.18190151e-01 ]
      - [ 4.79797661e-01, 4.79797661e-01, 1.23473905e-01, 1.30986106e-02,
          2.22234085e-01, 4.79797661e-01, 4.79797661e-01, 6.39307201e-02,
          7.41096959e-02, 4.02331352e-01, 4.02331352e-01, 4.02331352e-01,
          1.70696035e-01, 4.02331352e-01, 4.02331352e-01, 1.23064071e-01,
          2.16652334e-01, 3.08882028e-01, 3.39034051e-01, 1.61770791e-01,
          3.51935476e-01, 3.51935476e-01, 3.51935476e-01, 3.51935476e-01,
          3.34990263e-01, 3.51935476e-01, 3.51935476e-01, 1.82890266e-01,
          5.47639132e-01, 2.38524437e-01, 1.46605242e-02, 1.19939661e-02,
          5.47639132e-01, 5.47639132e-01, 5.01237437e-02, 3.98923978e-02,
          2.67001808e-01, 4.14556324e-01, 4.14556324e-01, 4.14556324e-01,
          2.69557565e-01, 1.91442266e-01, 2.83556640e-01, 4.14556324e-01,
          2.17773497e-01, 3.54509801e-01, 1.15165189e-01, 3.21643829e-01,
          3.54509801e-01, 3.54509801e-01, 3.54509801e-01, 3.54509801e-01,
          3.54509801e-01, 3.54509801e-01, 3.43285620e-01, 2.52544105e-01,
          1.24641925e-01, 6.21294491e-02, 5.77069297e-02, 5.01415253e-01,
          5.01415253e-01, 5.01415253e-01, 1.90764591e-01, 3.42046380e-01,
          4.45375025e-01, 4.45375025e-01, 4.45375025e-01, 1.56085536e-01,
          2.26148129e-01, 2.19000980e-01, 2.95269400e-01, 2.69865930e-01,
          3.83933514e-01, 3.34407389e-01, 2.23556474e-01, 1.83681920e-01,
          3.83933514e-01, 3.83933514e-01, 3.46151203e-01, 3.01958829e-01,
          3.83933514e-01, 3.43285620e-01, 2.52544105e-01, 1.24641925e-01,
          6.21294491e-02, 5.77069297e-02, 5.01415253e-01, 5.01415253e-01,
          5.01415253e-01, 1.90764591e-01, 3.42046380e-01, 4.45375025e-01,
          4.45375025e-01, 4.45375025e-01, 1.56085536e-01, 2.26148129e-01,
          2.19000980e-01, 2.95269400e-01, 2.69865930e-01, 3.83933514e-01,
          3.34407389e-01, 2.23556474e-01, 1.83681920e-01, 3.83933514e-01,
          3.83933514e-01, 3.46151203e-01, 3.01958829e-01, 3.83933514e-01,
          1.60569564e-01, 1.36041000e-01, 3.95405620e-01, 3.47891539e-01,
          2.44744018e-01, 3.54616456e-02, 5.48952162e-01, 5.48952162e-01,
          9.48679671e-02, 3.07372451e-01, 4.76957172e-01, 4.76957172e-01,
          4.76957172e-01, 3.25500697e-01, 1.34744048e-01, 2.81079203e-01,
          1.18494093e-01, 3.37760821e-02, 3.32778692e-01, 3.32778692e-01,
          3.32778692e-01, 3.32778692e-01, 3.32778692e-01, 3.32778692e-01,
          3.32778692e-01, 3.32778692e-01, 3.32778692e-01, 1.37793466e-01,
          6.36086017e-02, 3.52925926e-01, 4.58726406e-01, 7.80819431e-02,
          3.41649167e-03, 4.58726406e-01, 4.58726406e-01, 4.58726406e-01,
          2.45765686e-01, 4.86509800e-01, 4.86509800e-01, 4.86509800e-01,
          1.01785295e-01, 2.30489206e-02, 1.01388343e-01, 2.57294327e-01,
          3.70531052e-01, 3.58933419e-01, 3.58933419e-01, 3.58933419e-01,
          3.58933419e-01, 3.58933419e-01, 3.58933419e-01, 2.39354298e-01,
          1.93108380e-01, 3.58933419e-01, 3.39034051e-01, 1.61770791e-01,
          3.51935476e-01, 3.51935476e-01, 3.51935476e-01, 3.51935476e-01,
          3.34990263e-01, 3.51935476e-01, 3.51935476e-01, 1.16902493e-01,
          1.80976745e-02, 1.32687300e-01, 4.98570591e-01, 4.98570591e-01,
          1.57118276e-01, 4.14258182e-01, 4.55126166e-01, 2.50678629e-01,
          2.62141339e-02, 1.22759761e-02, 1.22261874e-01, 5.13363004e-01,
          4.33995366e-01, 8.15686246e-04, 1.04788747e-02, 5.13363004e-01,
          5.13363004e-01, 3.54509801e-01, 1.15165189e-01, 3.21643829e-01,
          3.54509801e-01, 3.54509801e-01, 3.54509801e-01, 3.54509801e-01,
          3.54509801e-01, 3.54509801e-01, 4.26079661e-01, 1.20278202e-01,
          1.18777372e-01, 9.66733471e-02, 2.23838687e-01, 4.26079661e-01,
          4.26079661e-01, 4.26079661e-01, 4.26079661e-01, 1.36066020e-01,
          1.59285709e-01, 5.44903636e-01, 5.44903636e-01, 5.44903636e-01,
          2.98778694e-02, 5.76333776e-02, 1.73443332e-01, 1.60049140e-01,
          3.83933514e-01, 3.34407389e-01, 2.23556474e-01, 1.83681920e-01,
          3.83933514e-01, 3.83933514e-01, 3.46151203e-01, 3.01958829e-01,
          3.83933514e-01, 4.03057784e-01, 1.43943503e-01, 1.64669100e-02,
          1.57844741e-02, 4.03057784e-01, 4.03057784e-01, 4.03057784e-01,
          4.03057784e-01, 4.03057784e-01, 4.58577722e-01, 4.58577722e-01,
          4.58577722e-01, 8.25781375e-02, 2.23096833e-01, 1.61501572e-01,
          2.05007896e-01, 1.71880722e-01, 4.58577722e-01, 3.83933514e-01,
          3.34407389e-01, 2.23556474e-01, 1.83681920e-01, 3.83933514e-01,
          3.83933514e-01, 3.46151203e-01, 3.01958829e-01, 3.83933514e-01,
          4.03057784e-01, 1.43943503e-01, 1.64669100e-02, 1.57844741e-02,
          4.03057784e-01, 4.03057784e-01, 4.03057784e-01, 4.03057784e-01,
          4.03057784e-01, 4.58577722e-01, 4.58577722e-01, 4.58577722e-01,
          8.25781375e-02, 2.23096833e-01, 1.61501572e-01, 2.05007896e-01,
          1.71880722e-01, 4.58577722e-01, 3.32778692e-01, 3.32778692e-01,
          3.32778692e-01, 3.32778692e-01, 3.32778692e-01, 3.32778692e-01,
          3.32778692e-01, 3.32778692e-01, 3.32778692e-01, 3.08041185e-01,
          2.68284142e-01, 1.96149349e-01, 3.80974501e-01, 2.99469233e-01,
          3.47283185e-01, 3.80974501e-01, 3.80974501e-01, 3.80974501e-01,
          1.98823050e-01, 4.26421493e-01, 3.92308265e-01, 2.10539341e-01,
          1.52937233e-01, 1.75197884e-01, 4.26421493e-01, 4.26421493e-01,
          3.97978723e-01, 3.58933419e-01, 3.58933419e-01, 3.58933419e-01,
          3.58933419e-01, 3.58933419e-01, 3.58933419e-01, 2.39354298e-01,
          1.93108380e-01, 3.58933419e-01, 3.98059219e-01, 3.17383736e-01,
          8.09967741e-02, 9.57406461e-02, 2.95480371e-01, 3.98059219e-01,
          3.98059219e-01, 3.98059219e-01, 3.98059219e-01, 5.23166299e-01,
          5.23166299e-01, 2.49325305e-01, 2.99118944e-02, 1.03703842e-01,
          1.65993422e-01, 3.99188250e-01, 3.26334089e-01, 2.83121884e-01 ]
      - [ 4.96165335e-01, 4.34681803e-01, 3.73104364e-02, 7.72116706e-03,
          1.54736370e-01, 6.70769691e-01, 2.83727229e-01, 1.80688929e-02,
          4.49504144e-02, 2.90689439e-01, 3.99596244e-01, 3.99596244e-01,
          3.99596244e-01, 3.99596244e-01, 3.99596244e-01, 3.08591634e-01,
          1.17876306e-01, 6.32317513e-02, 1.93962619e-01, 2.96310306e-01,
          3.65179598e-01, 3.65179598e-01, 3.65179598e-01, 2.66070515e-01,
          3.65179598e-01, 3.65179598e-01, 3.65179598e-01, 4.50498790e-01,
          1.69296429e-01, 7.97932446e-02, 7.58660287e-02, 3.71663153e-01,
          4.50498790e-01, 3.81205291e-01, 2.49835536e-01, 4.50498790e-01,
          9.90740880e-02, 4.37445641e-01, 4.37445641e-01, 3.40035975e-01,
          1.55496746e-01, 1.64085239e-01, 2.70789385e-01, 4.14347708e-01,
          4.37445641e-01, 3.68441284e-01, 1.27570972e-01, 2.91756660e-01,
          3.68441284e-01, 3.68441284e-01, 3.68441284e-01, 2.83599883e-01,
          3.68441284e-01, 3.68441284e-01, 4.60509449e-01, 2.39351079e-01,
          1.60719097e-01, 4.60509449e-01, 4.60509449e-01, 2.94192880e-01,
          8.90884846e-02, 1.54491544e-01, 3.97139788e-01, 3.95706862e-01,
          3.95706862e-01, 3.95706862e-01, 3.95706862e-01, 3.95706862e-01,
          3.04819793e-01, 2.11361930e-01, 1.16080880e-01, 2.49125376e-01,
          3.72429609e-01, 3.72429609e-01, 2.02629000e-01, 3.10858190e-01,
          3.72429609e-01, 3.72429609e-01, 2.91689724e-01, 2.82817751e-01,
          3.72429609e-01, 4.60509449e-01, 2.39351079e-01, 1.60719097e-01,
          4.60509449e-01, 4.60509449e-01, 2.94192880e-01, 8.90884846e-02,
          1.54491544e-01, 3.97139788e-01, 3.95706862e-01, 3.95706862e-01,
          3.95706862e-01, 3.95706862e-01, 3.95706862e-01, 3.04819793e-01,
          2.11361930e-01, 1.16080880e-01, 2.49125376e-01, 3.72429609e-01,
          3.72429609e-01, 2.02629000e-01, 3.10858190e-01, 3.72429609e-01,
          3.72429609e-01, 2.91689724e-01, 2.82817751e-01, 3.72429609e-01,
          4.25501317e-01, 4.17040318e-01, 1.90935105e-01, 1.97693691e-01,
          2.29536265e-01, 2.64818579e-01, 2.83404410e-01, 4.25501317e-01,
          4.25501317e-01, 4.32228863e-01, 4.32228863e-01, 4.32228863e-01,
          4.32228863e-01, 2.34115854e-01, 1.14694417e-01, 2.54945934e-01,
          1.84024006e-01, 2.85601377e-01, 3.57759058e-01, 2.65297949e-01,
          3.20512325e-01, 3.57759058e-01, 3.57759058e-01, 3.57759058e-01,
          3.21240246e-01, 2.83128023e-01, 3.57759058e-01, 5.15817702e-02,
          4.62303534e-02, 1.64105743e-01, 5.60003698e-01, 1.40864447e-01,
          3.03035863e-02, 3.32502834e-02, 5.60003698e-01, 5.60003698e-01,
          3.06606442e-01, 3.61387908e-01, 4.23301041e-01, 4.23301041e-01,
          1.54859602e-01, 1.30965620e-01, 1.15300179e-01, 4.23301041e-01,
          4.23301041e-01, 3.40407729e-01, 3.38841915e-01, 3.40407729e-01,
          3.40407729e-01, 3.40407729e-01, 3.40407729e-01, 3.40407729e-01,
          2.65787780e-01, 3.40407729e-01, 1.93962619e-01, 2.96310306e-01,
          3.65179598e-01, 3.65179598e-01, 3.65179598e-01, 2.66070515e-01,
          3.65179598e-01, 3.65179598e-01, 3.65179598e-01, 7.67217651e-02,
          1.16210632e-01, 2.42628008e-01, 4.11833525e-01, 4.11833525e-01,
          4.11833525e-01, 4.11833525e-01, 4.11833525e-01, 2.63803124e-01,
          2.82340795e-02, 8.16911459e-03, 1.10258967e-01, 5.73469639e-01,
          3.21054816e-01, 2.53239442e-02, 4.25389558e-02, 4.90064800e-01,
          5.53800166e-01, 3.68441284e-01, 1.27570972e-01, 2.91756660e-01,
          3.68441284e-01, 3.68441284e-01, 3.68441284e-01, 2.83599883e-01,
          3.68441284e-01, 3.68441284e-01, 4.04597729e-01, 4.06698398e-02,
          4.46302257e-02, 1.00580439e-01, 4.04597729e-01, 4.04597729e-01,
          4.04597729e-01, 4.04597729e-01, 4.04597729e-01, 2.25967482e-01,
          9.24993530e-02, 1.60882175e-01, 5.09925604e-01, 3.90357852e-01,
          1.43731847e-01, 2.93999165e-01, 3.94071609e-01, 4.84372377e-01,
          3.72429609e-01, 3.72429609e-01, 2.02629000e-01, 3.10858190e-01,
          3.72429609e-01, 3.72429609e-01, 2.91689724e-01, 2.82817751e-01,
          3.72429609e-01, 1.55769676e-01, 5.71467988e-02, 1.72848165e-01,
          2.69848406e-01, 4.51277256e-01, 2.25084394e-01, 4.51277256e-01,
          4.51277256e-01, 4.51277256e-01, 3.76952887e-01, 1.28710091e-01,
          8.13885927e-02, 5.46358526e-02, 4.23354596e-01, 3.32544059e-01,
          4.23354596e-01, 4.23354596e-01, 4.23354596e-01, 3.72429609e-01,
          3.72429609e-01, 2.02629000e-01, 3.10858190e-01, 3.72429609e-01,
          3.72429609e-01, 2.91689724e-01, 2.82817751e-01, 3.72429609e-01,
          1.55769676e-01, 5.71467988e-02, 1.72848165e-01, 2.69848406e-01,
          4.51277256e-01, 2.25084394e-01, 4.51277256e-01, 4.51277256e-01,
          4.51277256e-01, 3.76952887e-01, 1.28710091e-01, 8.13885927e-02,
          5.46358526e-02, 4.23354596e-01, 3.32544059e-01, 4.23354596e-01,
          4.23354596e-01, 4.23354596e-01, 3.57759058e-01, 2.65297949e-01,
          3.20512325e-01, 3.57759058e-01, 3.57759058e-01, 3.57759058e-01,
          3.21240246e-01, 2.83128023e-01, 3.57759058e-01, 3.98509681e-01,
          2.19138741e-01, 2.15757504e-01, 1.93949893e-01, 1.61135539e-01,
          4.11983013e-01, 4.11983013e-01, 4.11983013e-01, 4.11983013e-01,
          1.46498859e-01, 1.57218441e-01, 1.03889681e-01, 1.02084801e-01,
          2.79779404e-01, 4.15370524e-01, 4.77268755e-01, 4.77268755e-01,
          4.70594227e-01, 3.40407729e-01, 3.38841915e-01, 3.40407729e-01,
          3.40407729e-01, 3.40407729e-01, 3.40407729e-01, 3.40407729e-01,
          2.65787780e-01, 3.40407729e-01, 4.12190109e-01, 1.03563346e-01,
          7.36834928e-02, 6.51635826e-02, 4.12190109e-01, 4.12190109e-01,
          4.12190109e-01, 3.54933828e-01, 4.12190109e-01, 5.73576629e-01,
          5.73576629e-01, 3.30777541e-02, 2.45472472e-02, 1.45467699e-01,
          3.70803833e-01, 2.67268240e-01, 1.14596792e-01, 3.02281857e-01 ]
      - [ 7.64410049e-02, 7.72302598e-02, 8.38722736e-02, 3.35764773e-02,
          1.65596411e-01, 6.81662738e-01, 6.81662738e-01, 8.08470473e-02,
          9.96939540e-02, 4.72955227e-01, 3.38784605e-01, 6.20445907e-02,
          9.80426520e-02, 4.38756675e-01, 4.72955227e-01, 2.87092954e-01,
          4.60870191e-02, 3.77640128e-01, 6.22499645e-01, 3.22799057e-01,
          3.55750211e-02, 5.18605262e-02, 2.17114970e-01, 2.37774178e-01,
          7.97130913e-02, 2.42691729e-02, 6.22499645e-01, 1.70793116e-01,
          4.27668244e-01, 4.51102823e-01, 6.87206909e-02, 1.29003510e-01,
          4.51102823e-01, 4.51102823e-01, 3.54482889e-01, 1.60996005e-01,
          5.00580251e-01, 5.00580251e-01, 5.00580251e-01, 6.63469359e-02,
          1.85790405e-01, 2.01691389e-01, 9.81779471e-02, 1.13554485e-01,
          3.75666887e-01, 4.91202831e-01, 1.67030305e-01, 6.62003038e-03,
          1.47211075e-01, 4.91202831e-01, 4.91202831e-01, 1.36738256e-01,
          7.98163787e-02, 4.43363667e-01, 3.78043741e-01, 3.78043741e-01,
          3.78043741e-01, 1.53529480e-01, 1.09232731e-01, 3.78043741e-01,
          3.78043741e-01, 3.78043741e-01, 3.21275055e-01, 2.37012357e-01,
          4.18651074e-01, 4.18651074e-01, 4.18651074e-01, 5.58959916e-02,
          2.26867974e-01, 4.18651074e-01, 4.18651074e-01, 9.33066308e-02,
          4.15881962e-01, 1.38279781e-01, 6.32358566e-02, 7.85951316e-02,
          4.15881962e-01, 4.15881962e-01, 4.15881962e-01, 4.15881962e-01,
          3.18997055e-01, 3.78043741e-01, 3.78043741e-01, 3.78043741e-01,
          1.53529480e-01, 1.09232731e-01, 3.78043741e-01, 3.78043741e-01,
          3.78043741e-01, 3.21275055e-01, 2.37012357e-01, 4.18651074e-01,
          4.18651074e-01, 4.18651074e-01, 5.58959916e-02, 2.26867974e-01,
          4.18651074e-01, 4.18651074e-01, 9.33066308e-02, 4.15881962e-01,
          1.38279781e-01, 6.32358566e-02, 7.85951316e-02, 4.15881962e-01,
          4.15881962e-01, 4.15881962e-01, 4.15881962e-01, 3.18997055e-01,
          4.12322849e-01, 2.16643780e-01, 4.12322849e-01, 1.99626490e-01,
          6.40942901e-02, 2.34386638e-01, 4.12322849e-01, 4.12322849e-01,
          4.12322849e-01, 3.53471726e-01, 4.20286149e-01, 4.20286149e-01,
          4.20286149e-01, 1.92544926e-02, 4.34142128e-02, 1.43938050e-01,
          3.75930667e-01, 4.20286149e-01, 4.27821487e-01, 4.27821487e-01,
          2.38123193e-01, 5.45093231e-02, 8.54786709e-02, 1.16575107e-01,
          4.27821487e-01, 4.27821487e-01, 4.27821487e-01, 5.25292307e-02,
          3.33294541e-01, 4.66197252e-01, 3.93116593e-01, 6.53682873e-02,
          3.05608623e-02, 2.64067203e-01, 4.66197252e-01, 4.66197252e-01,
          1.64461985e-01, 2.44520620e-01, 4.70995814e-01, 4.70995814e-01,
          1.71426415e-01, 2.90850401e-02, 5.60337193e-02, 4.57792163e-01,
          4.70995814e-01, 1.25643224e-01, 1.62299678e-01, 1.24172330e-01,
          4.39673394e-01, 2.83760816e-01, 5.38500726e-01, 5.38500726e-01,
          2.30212867e-01, 1.74008995e-01, 6.22499645e-01, 3.22799057e-01,
          3.55750211e-02, 5.18605262e-02, 2.17114970e-01, 2.37774178e-01,
          7.97130913e-02, 2.42691729e-02, 6.22499645e-01, 5.79575717e-01,
          3.09211761e-01, 8.04514214e-02, 3.44999284e-01, 2.97987908e-01,
          1.07383139e-01, 2.11613718e-02, 2.26269290e-02, 5.79575717e-01,
          3.96741420e-01, 7.70295486e-02, 3.89240801e-01, 3.96741420e-01,
          2.56257415e-01, 1.32586703e-01, 3.54587853e-01, 3.96741420e-01,
          3.96741420e-01, 4.91202831e-01, 1.67030305e-01, 6.62003038e-03,
          1.47211075e-01, 4.91202831e-01, 4.91202831e-01, 1.36738256e-01,
          7.98163787e-02, 4.43363667e-01, 5.52684307e-01, 5.96121997e-02,
