%YAML:1.0
---
opencv_ml_svm:
   format: 3
   svmType: C_SVC
   kernel:
      type: RBF
      gamma: 5.0624999999999998e-01
   C: 1.2500000000000000e+01
   term_criteria: { epsilon:1.1920928955078125e-07, iterations:1000 }
   var_count: 324
   class_count: 4
   class_labels: !!opencv-matrix
      rows: 4
      cols: 1
      dt: i
      data: [ 0, 1, 2, 3 ]
   sv_total: 484
   support_vectors:
      - [ 4.34666485e-01, 4.34666485e-01, 8.17694888e-02, 1.07623957e-01,
          4.34666485e-01, 4.34666485e-01, 1.04120098e-01, 1.47895306e-01,
          4.34666485e-01, 3.93951505e-01, 3.93951505e-01, 2.49276772e-01,
          3.44832778e-01, 3.93951505e-01, 3.93951505e-01, 1.85379967e-01,
          6.82728887e-02, 3.93951505e-01, 3.60760897e-01, 1.82545409e-01,
          3.60760897e-01, 2.28109658e-01, 3.60760897e-01, 3.60760897e-01,
          3.60760897e-01, 3.60760897e-01, 3.60760897e-01, 4.42088813e-01,
          4.42088813e-01, 2.30172295e-02, 2.92922482e-02, 4.42088813e-01,
          4.42088813e-01, 7.54739866e-02, 1.06242418e-01, 4.42088813e-01,
          4.93410408e-01, 4.93410408e-01, 1.73283026e-01, 2.17007086e-01,
          2.41144389e-01, 3.30572903e-01, 8.61251578e-02, 1.12893216e-01,
          4.93410408e-01, 4.64745969e-01, 4.64745969e-01, 1.23960227e-01,
          1.28891796e-01, 1.33704126e-01, 1.58874840e-01, 3.35084885e-01,
          4.00015682e-01, 4.64745969e-01, 4.08665806e-01, 2.79284865e-01,
          3.64300132e-01, 3.69103476e-02, 4.08665806e-01, 4.08665806e-01,
          3.39248478e-01, 2.68355217e-02, 4.08665806e-01, 3.96376222e-01,
          1.25414670e-01, 3.43144804e-01, 3.96376222e-01, 3.96376222e-01,
          3.76776278e-01, 2.74466574e-01, 1.29669592e-01, 3.96376222e-01,
          1.85237586e-01, 2.62082994e-01, 4.17799383e-01, 4.17799383e-01,
          1.24838151e-01, 6.67804480e-02, 4.17799383e-01, 4.17799383e-01,
          4.17799383e-01, 4.08665806e-01, 2.79284865e-01, 3.64300132e-01,
          3.69103476e-02, 4.08665806e-01, 4.08665806e-01, 3.39248478e-01,
          2.68355217e-02, 4.08665806e-01, 3.96376222e-01, 1.25414670e-01,
          3.43144804e-01, 3.96376222e-01, 3.96376222e-01, 3.76776278e-01,
          2.74466574e-01, 1.29669592e-01, 3.96376222e-01, 1.85237586e-01,
          2.62082994e-01, 4.17799383e-01, 4.17799383e-01, 1.24838151e-01,
          6.67804480e-02, 4.17799383e-01, 4.17799383e-01, 4.17799383e-01,
          3.78602952e-01, 3.69082123e-01, 3.78602952e-01, 1.33985370e-01,
          3.24790001e-01, 3.78602952e-01, 3.78602952e-01, 1.40905410e-01,
          3.78602952e-01, 3.77922624e-01, 3.77922624e-01, 2.99409181e-01,
          1.50766060e-01, 3.77922624e-01, 3.77922624e-01, 3.77922624e-01,
          2.44585812e-01, 3.31509203e-01, 3.86411667e-01, 3.86411667e-01,
          3.86411667e-01, 3.71718973e-01, 1.96793497e-01, 2.60225713e-01,
          3.86411667e-01, 3.86411667e-01, 7.03539774e-02, 3.40548754e-01,
          1.26464576e-01, 2.21132979e-01, 3.90182167e-01, 3.90182167e-01,
          3.90182167e-01, 3.90182167e-01, 2.32432544e-01, 3.90182167e-01,
          4.51673716e-01, 4.51673716e-01, 1.01643048e-01, 1.52406931e-01,
          4.51673716e-01, 4.51673716e-01, 3.19909275e-01, 1.39441565e-01,
          1.55263096e-01, 1.32208318e-01, 2.40856305e-01, 2.31408194e-01,
          4.41902727e-01, 4.41902727e-01, 4.41902727e-01, 4.41902727e-01,
          2.91452408e-01, 2.21071914e-02, 3.60760897e-01, 1.82545409e-01,
          3.60760897e-01, 2.28109658e-01, 3.60760897e-01, 3.60760897e-01,
          3.60760897e-01, 3.60760897e-01, 3.60760897e-01, 3.21669102e-01,
          3.25778186e-01, 3.17704022e-01, 3.41071635e-01, 3.02807450e-01,
          3.45682591e-01, 3.45682591e-01, 3.45682591e-01, 3.45682591e-01,
          3.77079576e-01, 3.77079576e-01, 2.69732531e-02, 1.34990038e-02,
          3.77079576e-01, 3.77079576e-01, 3.77079576e-01, 3.77079576e-01,
          3.77079576e-01, 4.64745969e-01, 4.64745969e-01, 1.23960227e-01,
          1.28891796e-01, 1.33704126e-01, 1.58874840e-01, 3.35084885e-01,
          4.00015682e-01, 4.64745969e-01, 4.67185736e-01, 4.67185736e-01,
          1.66243970e-01, 9.64146182e-02, 5.10022044e-02, 9.24241766e-02,
          2.72409976e-01, 4.67185736e-01, 4.67185736e-01, 4.69196528e-01,
          4.69196528e-01, 1.34351626e-01, 4.21136282e-02, 1.91369697e-01,
          2.35915750e-01, 5.12790792e-02, 4.69196528e-01, 4.69196528e-01,
          1.85237586e-01, 2.62082994e-01, 4.17799383e-01, 4.17799383e-01,
          1.24838151e-01, 6.67804480e-02, 4.17799383e-01, 4.17799383e-01,
          4.17799383e-01, 4.54653919e-01, 8.18564221e-02, 7.14903772e-02,
          6.22395426e-02, 4.67224512e-03, 1.27372369e-01, 5.02110362e-01,
          5.02110362e-01, 5.02110362e-01, 4.94230658e-01, 4.40452956e-02,
          2.23190468e-02, 2.02192385e-02, 4.59907837e-02, 1.14219204e-01,
          4.94230658e-01, 4.94230658e-01, 4.94230658e-01, 1.85237586e-01,
          2.62082994e-01, 4.17799383e-01, 4.17799383e-01, 1.24838151e-01,
          6.67804480e-02, 4.17799383e-01, 4.17799383e-01, 4.17799383e-01,
          4.54653919e-01, 8.18564221e-02, 7.14903772e-02, 6.22395426e-02,
          4.67224512e-03, 1.27372369e-01, 5.02110362e-01, 5.02110362e-01,
          5.02110362e-01, 4.94230658e-01, 4.40452956e-02, 2.23190468e-02,
          2.02192385e-02, 4.59907837e-02, 1.14219204e-01, 4.94230658e-01,
          4.94230658e-01, 4.94230658e-01, 3.86411667e-01, 3.86411667e-01,
          3.86411667e-01, 3.71718973e-01, 1.96793497e-01, 2.60225713e-01,
          3.86411667e-01, 3.86411667e-01, 7.03539774e-02, 1.49991125e-01,
          5.68395071e-02, 3.76820639e-02, 1.58548113e-02, 9.88339484e-02,
          1.33682162e-01, 5.59575379e-01, 5.59575379e-01, 5.59575379e-01,
          2.26745248e-01, 2.06938665e-02, 1.38786538e-02, 1.87133197e-02,
          8.69692937e-02, 3.00570339e-01, 5.39617717e-01, 5.39617717e-01,
          5.11806548e-01, 1.32208318e-01, 2.40856305e-01, 2.31408194e-01,
          4.41902727e-01, 4.41902727e-01, 4.41902727e-01, 4.41902727e-01,
          2.91452408e-01, 2.21071914e-02, 3.38891498e-03, 1.14451500e-03,
          1.47559553e-01, 4.97822285e-01, 5.28873742e-01, 5.28873742e-01,
          3.84786427e-01, 1.24751993e-01, 4.54557799e-02, 6.99443296e-02,
          3.76162934e-03, 1.40370816e-01, 5.85558414e-01, 5.85558414e-01,
          3.33602965e-01, 2.36821353e-01, 3.09944212e-01, 1.42634496e-01 ]
      - [ 2.88451910e-01, 1.27932444e-01, 4.93680052e-02, 5.28227817e-03,
          2.40748420e-01, 6.33017004e-01, 6.33017004e-01, 8.68006274e-02,
          1.57252848e-01, 4.16312456e-01, 4.16312456e-01, 2.32900649e-01,
          7.76460469e-02, 4.16312456e-01, 4.16312456e-01, 8.62950087e-02,
          2.48077363e-01, 4.16312456e-01, 5.01944005e-01, 8.49764422e-02,
          9.52074900e-02, 3.03962469e-01, 5.01944005e-01, 2.59744525e-01,
          1.31229356e-01, 2.13954344e-01, 5.01944005e-01, 3.46731216e-01,
          4.22116280e-01, 4.22116280e-01, 1.10453658e-01, 1.70552403e-01,
          4.22116280e-01, 4.22116280e-01, 2.80016124e-01, 2.07689539e-01,
          4.32676643e-01, 4.32676643e-01, 4.32676643e-01, 7.73882940e-02,
          3.33028942e-01, 1.81672364e-01, 2.96276540e-01, 9.57063213e-02,
          4.32676643e-01, 5.16621709e-01, 1.17587904e-02, 2.38509197e-02,
          1.65930763e-01, 5.16621709e-01, 3.91539901e-01, 1.03801966e-01,
          4.27548140e-02, 5.16621709e-01, 1.57758981e-01, 3.48985165e-01,
          4.11325425e-01, 3.66376311e-01, 1.49864450e-01, 1.25567272e-01,
          4.11325425e-01, 4.11325425e-01, 4.11325425e-01, 3.32836360e-02,
          3.24091941e-01, 4.76834387e-01, 3.42310220e-01, 2.18709439e-01,
          1.88824058e-01, 4.76834387e-01, 4.76834387e-01, 7.94754475e-02,
          1.65049314e-01, 1.74340457e-01, 1.09335296e-01, 3.67086381e-01,
          4.33087915e-01, 4.33087915e-01, 4.33087915e-01, 4.33087915e-01,
          2.02658966e-01, 1.57758981e-01, 3.48985165e-01, 4.11325425e-01,
          3.66376311e-01, 1.49864450e-01, 1.25567272e-01, 4.11325425e-01,
          4.11325425e-01, 4.11325425e-01, 3.32836360e-02, 3.24091941e-01,
          4.76834387e-01, 3.42310220e-01, 2.18709439e-01, 1.88824058e-01,
          4.76834387e-01, 4.76834387e-01, 7.94754475e-02, 1.65049314e-01,
          1.74340457e-01, 1.09335296e-01, 3.67086381e-01, 4.33087915e-01,
          4.33087915e-01, 4.33087915e-01, 4.33087915e-01, 2.02658966e-01,
          1.48604989e-01, 3.25578034e-01, 4.63082701e-01, 3.75813127e-01,
          1.73916221e-02, 2.11041477e-02, 2.86303937e-01, 4.63082701e-01,
          4.63082701e-01, 3.35408658e-01, 4.10304397e-01, 4.10304397e-01,
          1.94494605e-01, 2.16633491e-02, 5.79331703e-02, 4.10304397e-01,
          4.10304397e-01, 4.10304397e-01, 4.10865098e-01, 4.41768706e-01,
          8.01608488e-02, 9.61180627e-02, 5.76314740e-02, 1.64780930e-01,
          4.41768706e-01, 4.41768706e-01, 4.41768706e-01, 2.18699928e-02,
          2.77224295e-02, 4.90549386e-01, 4.90549386e-01, 1.14404954e-01,
          2.28168163e-02, 1.33002877e-01, 4.90549386e-01, 4.90549386e-01,
          6.46669790e-02, 6.53098822e-02, 4.22405422e-01, 4.28767502e-01,
          2.37744063e-01, 4.28767502e-01, 1.51218086e-01, 4.28767502e-01,
          4.21816856e-01, 1.27157629e-01, 7.63700232e-02, 1.08969644e-01,
          1.20103523e-01, 1.92678988e-01, 6.08298540e-01, 6.08298540e-01,
          3.74014407e-01, 1.68995336e-01, 5.01944005e-01, 8.49764422e-02,
          9.52074900e-02, 3.03962469e-01, 5.01944005e-01, 2.59744525e-01,
          1.31229356e-01, 2.13954344e-01, 5.01944005e-01, 4.64719534e-01,
          4.24590223e-02, 1.86505258e-01, 4.64719534e-01, 4.64719534e-01,
          1.78641275e-01, 1.54835954e-01, 1.97553515e-01, 4.64719534e-01,
          3.80749047e-01, 3.49994400e-03, 4.62256581e-01, 4.62256581e-01,
          4.33869660e-01, 7.59568810e-02, 3.71151753e-02, 1.18184417e-01,
          4.62256581e-01, 5.16621709e-01, 1.17587904e-02, 2.38509197e-02,
          1.65930763e-01, 5.16621709e-01, 3.91539901e-01, 1.03801966e-01,
          4.27548140e-02, 5.16621709e-01, 5.30175865e-01, 1.78466234e-02,
          2.25203787e-03, 2.43379086e-01, 5.30175865e-01, 3.00945878e-01,
          1.20885968e-02, 3.42688784e-02, 5.30175865e-01, 3.89640808e-01,
          2.07164828e-02, 1.75053343e-01, 3.89640808e-01, 3.89640808e-01,
          2.32625932e-01, 3.89640808e-01, 3.89640808e-01, 3.89640808e-01,
          1.65049314e-01, 1.74340457e-01, 1.09335296e-01, 3.67086381e-01,
          4.33087915e-01, 4.33087915e-01, 4.33087915e-01, 4.33087915e-01,
          2.02658966e-01, 2.84009188e-01, 1.17398411e-01, 5.04815504e-02,
          4.29809928e-01, 5.38567126e-01, 5.38567126e-01, 1.78922117e-01,
          1.48512647e-01, 2.80561954e-01, 1.66813642e-01, 1.22583114e-01,
          1.37978792e-01, 4.46400017e-01, 4.46400017e-01, 4.46400017e-01,
          3.86277854e-01, 3.88873577e-01, 1.88141614e-01, 1.65049314e-01,
          1.74340457e-01, 1.09335296e-01, 3.67086381e-01, 4.33087915e-01,
          4.33087915e-01, 4.33087915e-01, 4.33087915e-01, 2.02658966e-01,
          2.84009188e-01, 1.17398411e-01, 5.04815504e-02, 4.29809928e-01,
          5.38567126e-01, 5.38567126e-01, 1.78922117e-01, 1.48512647e-01,
          2.80561954e-01, 1.66813642e-01, 1.22583114e-01, 1.37978792e-01,
          4.46400017e-01, 4.46400017e-01, 4.46400017e-01, 3.86277854e-01,
          3.88873577e-01, 1.88141614e-01, 4.10865098e-01, 4.41768706e-01,
          8.01608488e-02, 9.61180627e-02, 5.76314740e-02, 1.64780930e-01,
          4.41768706e-01, 4.41768706e-01, 4.41768706e-01, 2.10031390e-01,
          2.21243501e-01, 3.80568981e-01, 3.80568981e-01, 3.80568981e-01,
          3.42807084e-01, 3.80568981e-01, 3.80568981e-01, 2.47902408e-01,
          3.60875040e-01, 2.34421074e-01, 1.72701269e-01, 3.60875040e-01,
          3.60875040e-01, 3.60875040e-01, 3.60875040e-01, 3.60875040e-01,
          3.60875040e-01, 1.27157629e-01, 7.63700232e-02, 1.08969644e-01,
          1.20103523e-01, 1.92678988e-01, 6.08298540e-01, 6.08298540e-01,
          3.74014407e-01, 1.68995336e-01, 3.63788396e-01, 2.35408410e-01,
          2.83658564e-01, 3.18469763e-01, 3.74107450e-01, 3.74107450e-01,
          3.74107450e-01, 3.74107450e-01, 2.58442461e-01, 3.55816334e-01,
          3.55816334e-01, 2.31387094e-01, 3.55816334e-01, 3.55816334e-01,
          3.55816334e-01, 3.55816334e-01, 3.55816334e-01, 2.38050982e-01 ]
      - [ 3.58009189e-01, 3.58009189e-01, 3.58009189e-01, 3.58009189e-01,
          3.58009189e-01, 3.58009189e-01, 2.21555620e-01, 2.23924741e-01,
          3.58009189e-01, 3.49957019e-01, 3.49957019e-01, 2.92201042e-01,
          2.32018307e-01, 3.49957019e-01, 3.49957019e-01, 3.49957019e-01,
          3.49957019e-01, 3.49957019e-01, 3.41471106e-01, 3.41471106e-01,
          2.52523661e-01, 3.41471106e-01, 3.41471106e-01, 3.41471106e-01,
          3.41471106e-01, 3.41471106e-01, 3.41471106e-01, 3.63391966e-01,
          3.63391966e-01, 3.63391966e-01, 3.63391966e-01, 3.63391966e-01,
          3.63391966e-01, 1.90287173e-01, 1.89167082e-01, 3.63391966e-01,
          3.35806847e-01, 3.35806847e-01, 3.35806847e-01, 3.35806847e-01,
          3.35806847e-01, 3.35806847e-01, 3.07432830e-01, 3.35806847e-01,
          3.35806847e-01, 3.59629244e-01, 3.59629244e-01, 1.97388619e-01,
          2.28281423e-01, 3.59629244e-01, 3.59629244e-01, 3.59629244e-01,
          3.59629244e-01, 3.59629244e-01, 4.94817972e-01, 4.94817972e-01,
          9.59650725e-02, 6.42438084e-02, 7.97737837e-02, 2.54293114e-01,
          1.59648344e-01, 3.88162971e-01, 4.94817972e-01, 4.68762636e-01,
          3.61870527e-01, 2.38003209e-01, 1.91270515e-01, 1.85022101e-01,
          9.72303674e-02, 2.61219233e-01, 4.68762636e-01, 4.68762636e-01,
          4.26027596e-01, 4.26027596e-01, 1.53119937e-01, 1.20835587e-01,
          3.44160467e-01, 1.90873966e-01, 2.77164161e-01, 4.26027596e-01,
          4.26027596e-01, 4.94817972e-01, 4.94817972e-01, 9.59650725e-02,
          6.42438084e-02, 7.97737837e-02, 2.54293114e-01, 1.59648344e-01,
          3.88162971e-01, 4.94817972e-01, 4.68762636e-01, 3.61870527e-01,
          2.38003209e-01, 1.91270515e-01, 1.85022101e-01, 9.72303674e-02,
          2.61219233e-01, 4.68762636e-01, 4.68762636e-01, 4.26027596e-01,
          4.26027596e-01, 1.53119937e-01, 1.20835587e-01, 3.44160467e-01,
          1.90873966e-01, 2.77164161e-01, 4.26027596e-01, 4.26027596e-01,
          3.49941939e-01, 3.49941939e-01, 3.49941939e-01, 1.29725829e-01,
          3.49941939e-01, 3.49941939e-01, 3.49941939e-01, 3.49941939e-01,
          3.49941939e-01, 3.50600362e-01, 3.50600362e-01, 3.50600362e-01,
          2.97823220e-01, 3.50600362e-01, 3.50600362e-01, 3.50600362e-01,
          2.92557001e-01, 2.91007191e-01, 2.50362426e-01, 2.98083901e-01,
          3.63390416e-01, 3.29534769e-01, 3.63390416e-01, 3.63390416e-01,
          3.63390416e-01, 3.63390416e-01, 2.75640577e-01, 2.20151022e-01,
          1.78276420e-01, 3.01289916e-01, 1.41709477e-01, 4.89351094e-01,
          4.89351094e-01, 4.89351094e-01, 2.03529447e-01, 2.10210964e-01,
          3.03092748e-01, 2.03987688e-01, 1.49758562e-01, 3.05837899e-01,
          4.89617646e-01, 4.89617646e-01, 4.78629887e-01, 1.31177172e-01,
          1.41153529e-01, 2.42483824e-01, 1.95715353e-01, 4.13313627e-01,
          4.13313627e-01, 4.13313627e-01, 4.13313627e-01, 4.13313627e-01,
          8.34837854e-02, 1.94056630e-01, 3.41471106e-01, 3.41471106e-01,
          2.52523661e-01, 3.41471106e-01, 3.41471106e-01, 3.41471106e-01,
          3.41471106e-01, 3.41471106e-01, 3.41471106e-01, 4.43509191e-01,
          3.68594259e-01, 1.26419276e-01, 2.06407145e-01, 4.43509191e-01,
          4.43509191e-01, 2.34726816e-01, 1.24581657e-01, 3.74705106e-01,
          4.83562708e-01, 1.15481295e-01, 4.11088802e-02, 1.83151383e-02,
          4.83562708e-01, 4.83562708e-01, 1.11287832e-01, 1.79142982e-01,
          4.83562708e-01, 3.59629244e-01, 3.59629244e-01, 1.97388619e-01,
          2.28281423e-01, 3.59629244e-01, 3.59629244e-01, 3.59629244e-01,
          3.59629244e-01, 3.59629244e-01, 4.47699040e-01, 4.47699040e-01,
          2.06915915e-01, 2.56151795e-01, 2.77565420e-01, 2.65684068e-01,
          2.39080742e-01, 2.84616709e-01, 4.47699040e-01, 4.74266291e-01,
          4.07082796e-01, 4.71976176e-02, 1.01435281e-01, 2.80827850e-01,
          2.09758490e-01, 1.69138074e-01, 4.64437634e-01, 4.74266291e-01,
          4.26027596e-01, 4.26027596e-01, 1.53119937e-01, 1.20835587e-01,
          3.44160467e-01, 1.90873966e-01, 2.77164161e-01, 4.26027596e-01,
          4.26027596e-01, 5.37023544e-01, 4.02569979e-01, 1.15486011e-01,
          2.26240344e-02, 3.67106870e-02, 2.21908521e-02, 1.39735073e-01,
          4.69649732e-01, 5.37023544e-01, 4.62349027e-01, 3.21147218e-02,
          1.20874692e-03, 3.09981052e-02, 1.56785116e-01, 1.94763005e-01,
          4.88822848e-01, 4.88822848e-01, 4.88822848e-01, 4.26027596e-01,
          4.26027596e-01, 1.53119937e-01, 1.20835587e-01, 3.44160467e-01,
          1.90873966e-01, 2.77164161e-01, 4.26027596e-01, 4.26027596e-01,
          5.37023544e-01, 4.02569979e-01, 1.15486011e-01, 2.26240344e-02,
          3.67106870e-02, 2.21908521e-02, 1.39735073e-01, 4.69649732e-01,
          5.37023544e-01, 4.62349027e-01, 3.21147218e-02, 1.20874692e-03,
          3.09981052e-02, 1.56785116e-01, 1.94763005e-01, 4.88822848e-01,
          4.88822848e-01, 4.88822848e-01, 2.50362426e-01, 2.98083901e-01,
          3.63390416e-01, 3.29534769e-01, 3.63390416e-01, 3.63390416e-01,
          3.63390416e-01, 3.63390416e-01, 2.75640577e-01, 5.09918816e-02,
          3.60259623e-03, 5.83734810e-02, 2.21989393e-01, 4.73239422e-01,
          4.73239422e-01, 4.73239422e-01, 4.73239422e-01, 2.10121229e-01,
          4.37628329e-02, 6.08402304e-03, 2.83388123e-02, 2.00692654e-01,
          4.89155978e-01, 2.89795250e-01, 4.89155978e-01, 4.89155978e-01,
          3.87659222e-01, 2.42483824e-01, 1.95715353e-01, 4.13313627e-01,
          4.13313627e-01, 4.13313627e-01, 4.13313627e-01, 4.13313627e-01,
          8.34837854e-02, 1.94056630e-01, 3.22489709e-01, 3.04411322e-01,
          3.25355709e-01, 3.75784189e-01, 3.75784189e-01, 3.75784189e-01,
          3.18459898e-01, 1.65685877e-01, 3.75784189e-01, 1.49690539e-01,
          9.68879163e-02, 3.41598898e-01, 3.93420786e-01, 3.93420786e-01,
          3.93420786e-01, 3.93420786e-01, 3.93420786e-01, 2.71451294e-01 ]
      - [ 4.79609698e-01, 1.01318106e-01, 2.38349468e-01, 4.79609698e-01,
          4.79609698e-01, 3.84233780e-02, 1.34976266e-03, 8.09551105e-02,
          4.79609698e-01, 4.63532656e-01, 4.46898006e-02, 2.05786437e-01,
          2.77095556e-01, 1.03126742e-01, 6.44806772e-02, 4.63532656e-01,
          4.63532656e-01, 4.63532656e-01, 4.29844707e-01, 1.92605048e-01,
          1.08158551e-01, 3.66567564e-03, 1.51872516e-01, 4.29844707e-01,
          4.29844707e-01, 4.29844707e-01, 4.29844707e-01, 3.85634512e-01,
          6.56486526e-02, 3.39288324e-01, 3.85634512e-01, 3.85634512e-01,
          3.85634512e-01, 2.60095298e-01, 2.55932987e-01, 3.85634512e-01,
          5.74884489e-02, 2.09602341e-01, 4.73411798e-01, 4.73411798e-01,
          1.15951724e-01, 1.74036875e-01, 4.73411798e-01, 4.73411798e-01,
          8.84586424e-02, 1.50251994e-02, 8.38162936e-03, 1.81569792e-02,
          7.20897242e-02, 4.84995872e-01, 4.96153921e-01, 4.96153921e-01,
          4.96153921e-01, 1.24478616e-01, 3.08631331e-01, 3.80830914e-01,
          3.80830914e-01, 2.43557483e-01, 3.80830914e-01, 3.80830914e-01,
          3.80830914e-01, 1.32601172e-01, 3.14448506e-01, 3.51193577e-01,
          4.28784460e-01, 4.28784460e-01, 4.28784460e-01, 5.47530986e-02,
          1.42789736e-01, 4.28784460e-01, 3.36495399e-01, 1.84223410e-02,
          2.59157736e-02, 7.26431757e-02, 8.09386373e-02, 2.82804724e-02,
          4.62395817e-01, 5.05651891e-01, 5.05651891e-01, 5.05651891e-01,
          2.80910470e-02, 3.08631331e-01, 3.80830914e-01, 3.80830914e-01,
          2.43557483e-01, 3.80830914e-01, 3.80830914e-01, 3.80830914e-01,
          1.32601172e-01, 3.14448506e-01, 3.51193577e-01, 4.28784460e-01,
          4.28784460e-01, 4.28784460e-01, 5.47530986e-02, 1.42789736e-01,
          4.28784460e-01, 3.36495399e-01, 1.84223410e-02, 2.59157736e-02,
          7.26431757e-02, 8.09386373e-02, 2.82804724e-02, 4.62395817e-01,
          5.05651891e-01, 5.05651891e-01, 5.05651891e-01, 2.80910470e-02,
          5.64730406e-01, 5.64730406e-01, 4.07270342e-01, 4.98660505e-02,
          2.08101019e-01, 3.12553287e-01, 1.31074816e-01, 3.25980186e-02,
          1.70074150e-01, 3.83674890e-01, 4.66475964e-01, 4.66475964e-01,
          1.33191217e-02, 4.28959876e-02, 1.40039191e-01, 4.66475964e-01,
          4.16603148e-01, 1.21764643e-02, 6.86430698e-03, 3.77729186e-03,
          8.87733977e-03, 6.53215125e-02, 5.26641488e-01, 5.56639194e-01,
          5.56639194e-01, 3.04863334e-01, 6.86430698e-03, 5.57386518e-01,
          4.58931506e-01, 3.84165347e-02, 1.32569090e-01, 5.57386518e-01,
          3.64991397e-01, 3.99170332e-02, 1.01313367e-02, 9.21486095e-02,
          4.25360799e-02, 6.91684708e-02, 1.13040255e-02, 2.27848664e-02,
          5.71626663e-01, 5.71626663e-01, 5.71626663e-01, 8.23404491e-02,
          4.87870595e-04, 0., 0., 3.23669193e-03, 1.54911742e-01,
          6.81156695e-01, 6.81156695e-01, 2.01577500e-01, 2.46894620e-02,
          0., 4.29844707e-01, 1.92605048e-01, 1.08158551e-01,
          3.66567564e-03, 1.51872516e-01, 4.29844707e-01, 4.29844707e-01,
          4.29844707e-01, 4.29844707e-01, 4.88571018e-01, 1.34856179e-01,
          1.09091662e-01, 5.07636368e-03, 8.02248418e-02, 2.30330557e-01,
          4.62000489e-01, 4.63326484e-01, 4.88571018e-01, 4.31445509e-01,
          3.50631624e-01, 1.63494915e-01, 9.66642499e-02, 1.16395816e-01,
          2.80257612e-01, 4.31445509e-01, 4.31445509e-01, 4.31445509e-01,
          1.50251994e-02, 8.38162936e-03, 1.81569792e-02, 7.20897242e-02,
          4.84995872e-01, 4.96153921e-01, 4.96153921e-01, 4.96153921e-01,
          1.24478616e-01, 1.45856775e-02, 1.68942045e-02, 1.63400266e-02,
          2.30835870e-01, 4.95849937e-01, 4.95849937e-01, 4.95849937e-01,
          4.33249027e-01, 1.25264168e-01, 2.04380676e-01, 4.48692948e-01,
          4.48692948e-01, 2.51108676e-01, 1.29471406e-01, 2.60711968e-01,
          4.48692948e-01, 4.48692948e-01, 2.56156344e-02, 2.59157736e-02,
          7.26431757e-02, 8.09386373e-02, 2.82804724e-02, 4.62395817e-01,
          5.05651891e-01, 5.05651891e-01, 5.05651891e-01, 2.80910470e-02,
          1.13153430e-02, 3.69549654e-02, 1.72925964e-02, 8.50293711e-02,
          5.11263549e-01, 5.11263549e-01, 5.11263549e-01, 4.48582798e-01,
          2.17571985e-02, 6.40124679e-02, 2.02106103e-01, 4.80046809e-01,
          4.80046809e-01, 1.32456377e-01, 1.58176154e-01, 4.80046809e-01,
          4.65046793e-01, 9.64929350e-03, 2.59157736e-02, 7.26431757e-02,
          8.09386373e-02, 2.82804724e-02, 4.62395817e-01, 5.05651891e-01,
          5.05651891e-01, 5.05651891e-01, 2.80910470e-02, 1.13153430e-02,
          3.69549654e-02, 1.72925964e-02, 8.50293711e-02, 5.11263549e-01,
          5.11263549e-01, 5.11263549e-01, 4.48582798e-01, 2.17571985e-02,
          6.40124679e-02, 2.02106103e-01, 4.80046809e-01, 4.80046809e-01,
          1.32456377e-01, 1.58176154e-01, 4.80046809e-01, 4.65046793e-01,
          9.64929350e-03, 6.86430698e-03, 3.77729186e-03, 8.87733977e-03,
          6.53215125e-02, 5.26641488e-01, 5.56639194e-01, 5.56639194e-01,
          3.04863334e-01, 6.86430698e-03, 1.08106644e-03, 2.16654129e-02,
          1.28692791e-01, 2.07017168e-01, 5.53067386e-01, 5.53067386e-01,
          5.53067386e-01, 1.30043924e-01, 5.16069727e-03, 2.45033607e-01,
          4.68957335e-01, 4.68957335e-01, 3.20814401e-01, 1.33681059e-01,
          2.43160337e-01, 4.68957335e-01, 2.94112116e-01, 9.53425914e-02,
          0., 0., 3.23669193e-03, 1.54911742e-01, 6.81156695e-01,
          6.81156695e-01, 2.01577500e-01, 2.46894620e-02, 0., 0.,
          4.87308018e-02, 1.14534669e-01, 5.00258863e-01, 6.63476527e-01,
          5.35635591e-01, 2.26254668e-02, 2.45538773e-03, 6.34403841e-05,
          1.50354400e-01, 4.48830038e-01, 4.48830038e-01, 4.48830038e-01,
          4.48830038e-01, 1.80319130e-01, 3.65431339e-01, 3.03502176e-02,
          1.18498318e-02 ]
      - [ 4.88732308e-01, 4.88732308e-01, 4.09267619e-02, 5.38288541e-02,
          1.83205992e-01, 4.88732308e-01, 4.88732308e-01, 3.47818881e-02,
          1.83040928e-02, 1.12865008e-01, 1.45214289e-01, 5.91940545e-02,
          8.60538706e-02, 6.12542629e-01, 6.12542629e-01, 3.50244939e-01,
          2.13980958e-01, 1.73990786e-01, 4.29081827e-01, 4.29081827e-01,
          3.52839708e-01, 2.67505020e-01, 4.29081827e-01, 4.29081827e-01,
          3.87703218e-02, 6.30914345e-02, 2.40271524e-01, 2.98438787e-01,
          2.99575776e-01, 2.35956624e-01, 3.50156486e-01, 1.71536133e-01,
          5.23806512e-01, 5.23806512e-01, 1.58337638e-01, 1.85554340e-01,
          3.75127047e-01, 3.75127047e-01, 3.75127047e-01, 3.72936189e-01,
          3.60514522e-01, 1.08366013e-01, 1.08883016e-01, 3.75127047e-01,
          3.75127047e-01, 3.55161279e-01, 3.55161279e-01, 3.07165504e-01,
          3.18244100e-01, 3.55161279e-01, 2.09724694e-01, 3.55161279e-01,
          3.55161279e-01, 3.55161279e-01, 3.54926497e-01, 3.54926497e-01,
          3.54926497e-01, 2.07644880e-01, 3.54926497e-01, 2.67446667e-01,
          3.54926497e-01, 3.54926497e-01, 3.54926497e-01, 3.77766073e-01,
          3.77766073e-01, 3.77766073e-01, 3.65854025e-01, 2.70112455e-01,
          2.38949656e-01, 3.53057593e-01, 1.91939339e-01, 3.77766073e-01,
          2.23168582e-01, 1.94158256e-01, 1.90917343e-01, 4.28378344e-01,
          4.28378344e-01, 1.55386627e-01, 3.37035060e-01, 4.28378344e-01,
          4.28378344e-01, 3.54926497e-01, 3.54926497e-01, 3.54926497e-01,
          2.07644880e-01, 3.54926497e-01, 2.67446667e-01, 3.54926497e-01,
          3.54926497e-01, 3.54926497e-01, 3.77766073e-01, 3.77766073e-01,
          3.77766073e-01, 3.65854025e-01, 2.70112455e-01, 2.38949656e-01,
          3.53057593e-01, 1.91939339e-01, 3.77766073e-01, 2.23168582e-01,
          1.94158256e-01, 1.90917343e-01, 4.28378344e-01, 4.28378344e-01,
          1.55386627e-01, 3.37035060e-01, 4.28378344e-01, 4.28378344e-01,
          4.00495052e-01, 4.00495052e-01, 4.00495052e-01, 1.69189006e-01,
          2.55942315e-01, 6.92408159e-02, 3.08369935e-01, 4.00495052e-01,
          4.00495052e-01, 3.50116193e-01, 3.50116193e-01, 3.50116193e-01,
          3.50116193e-01, 3.22664976e-01, 1.85255796e-01, 3.50116193e-01,
          3.50116193e-01, 3.50116193e-01, 3.05051655e-01, 3.69292229e-01,
          1.69778734e-01, 3.69292229e-01, 3.47737670e-01, 3.69292229e-01,
          3.69292229e-01, 3.69292229e-01, 2.67626256e-01, 3.19941133e-01,
          3.59504342e-01, 3.59504342e-01, 3.59504342e-01, 2.63510793e-01,
          3.58021170e-01, 2.24080011e-01, 3.59504342e-01, 3.59504342e-01,
          1.62216827e-01, 6.98179528e-02, 2.50462651e-01, 3.99911910e-01,
          3.99911910e-01, 3.99911910e-01, 3.99911910e-01, 3.99911910e-01,
          3.20057482e-01, 1.12710521e-01, 6.35374337e-02, 3.99363833e-03,
          2.50929147e-01, 4.68401730e-01, 4.68401730e-01, 4.68401730e-01,
          4.68401730e-01, 1.94932505e-01, 4.29081827e-01, 4.29081827e-01,
          3.52839708e-01, 2.67505020e-01, 4.29081827e-01, 4.29081827e-01,
          3.87703218e-02, 6.30914345e-02, 2.40271524e-01, 3.63377422e-01,
          3.63377422e-01, 2.34770387e-01, 3.63377422e-01, 3.63377422e-01,
          2.37840578e-01, 3.04015607e-01, 3.63377422e-01, 3.63377422e-01,
          2.04997376e-01, 7.11144805e-02, 1.07704915e-01, 5.02208710e-01,
          3.02023739e-01, 7.15309829e-02, 2.88664132e-01, 5.02208710e-01,
          5.02208710e-01, 3.55161279e-01, 3.55161279e-01, 3.07165504e-01,
          3.18244100e-01, 3.55161279e-01, 2.09724694e-01, 3.55161279e-01,
          3.55161279e-01, 3.55161279e-01, 2.25421384e-01, 3.43829513e-01,
          3.43829513e-01, 3.43829513e-01, 3.43829513e-01, 3.43829513e-01,
          3.43829513e-01, 3.43829513e-01, 3.43829513e-01, 2.11177677e-01,
          2.76860416e-01, 4.14809793e-01, 4.14809793e-01, 2.85540313e-01,
          4.14809793e-01, 4.14809793e-01, 2.80291259e-01, 1.61997899e-01,
          2.23168582e-01, 1.94158256e-01, 1.90917343e-01, 4.28378344e-01,
          4.28378344e-01, 1.55386627e-01, 3.37035060e-01, 4.28378344e-01,
          4.28378344e-01, 1.35749588e-02, 1.40402280e-02, 1.00505561e-01,
          4.22841072e-01, 4.22841072e-01, 3.02192688e-01, 4.22841072e-01,
          4.22841072e-01, 4.22841072e-01, 4.98601533e-02, 1.54268414e-01,
          4.24259275e-01, 3.26324970e-01, 3.36030930e-01, 4.24259275e-01,
          4.24259275e-01, 4.21234339e-01, 1.80682704e-01, 2.23168582e-01,
          1.94158256e-01, 1.90917343e-01, 4.28378344e-01, 4.28378344e-01,
          1.55386627e-01, 3.37035060e-01, 4.28378344e-01, 4.28378344e-01,
          1.35749588e-02, 1.40402280e-02, 1.00505561e-01, 4.22841072e-01,
          4.22841072e-01, 3.02192688e-01, 4.22841072e-01, 4.22841072e-01,
          4.22841072e-01, 4.98601533e-02, 1.54268414e-01, 4.24259275e-01,
          3.26324970e-01, 3.36030930e-01, 4.24259275e-01, 4.24259275e-01,
          4.21234339e-01, 1.80682704e-01, 3.05051655e-01, 3.69292229e-01,
          1.69778734e-01, 3.69292229e-01, 3.47737670e-01, 3.69292229e-01,
          3.69292229e-01, 3.69292229e-01, 2.67626256e-01, 3.85682955e-02,
          6.29139505e-03, 3.37334834e-02, 4.40431684e-01, 4.40431684e-01,
          4.25696671e-01, 4.40431684e-01, 4.40431684e-01, 1.89202264e-01,
          3.62976044e-01, 4.32153225e-01, 3.54626477e-01, 2.08817557e-01,
          1.76280975e-01, 1.07547186e-01, 3.02747756e-01, 4.32153225e-01,
          4.32153225e-01, 1.12710521e-01, 6.35374337e-02, 3.99363833e-03,
          2.50929147e-01, 4.68401730e-01, 4.68401730e-01, 4.68401730e-01,
          4.68401730e-01, 1.94932505e-01, 4.01592702e-01, 4.01592702e-01,
          7.39815235e-02, 1.35456845e-01, 9.84827802e-02, 4.01592702e-01,
          4.01592702e-01, 3.95074666e-01, 4.01592702e-01, 5.53279221e-01,
          5.53279221e-01, 7.42536411e-02, 6.84325173e-02, 5.71226142e-02,
          5.53279221e-01, 2.34381005e-01, 7.55446851e-02, 4.49447297e-02 ]
      - [ 4.61155623e-01, 4.61155623e-01, 6.45341426e-02, 2.87317056e-02,
          2.63855249e-01, 4.61155623e-01, 3.55133414e-01, 8.30582902e-02,
          3.87004107e-01, 3.24397892e-01, 2.96844035e-01, 1.56574503e-01,
          1.92178741e-01, 4.29067433e-01, 4.29067433e-01, 6.72302395e-02,
          4.29067433e-01, 4.29067433e-01, 3.37699801e-01, 3.37699801e-01,
          3.37699801e-01, 2.90339112e-01, 3.37699801e-01, 3.37699801e-01,
          3.37699801e-01, 3.37699801e-01, 3.37699801e-01, 4.31748211e-01,
          4.31748211e-01, 4.31748211e-01, 8.63404125e-02, 1.79751739e-01,
          4.31748211e-01, 3.97182435e-01, 1.28794432e-01, 1.89614967e-01,
          8.03329051e-02, 1.38401657e-01, 1.11896731e-01, 3.79079282e-01,
          4.40635443e-01, 1.92690924e-01, 4.40635443e-01, 4.40635443e-01,
          4.40635443e-01, 1.75381824e-01, 3.25167060e-01, 3.91360849e-01,
          1.13930032e-01, 2.95765817e-01, 3.91360849e-01, 3.91360849e-01,
          3.91360849e-01, 3.82736474e-01, 1.04663096e-01, 4.08920020e-01,
          4.08920020e-01, 4.08920020e-01, 4.08920020e-01, 4.08920020e-01,
          3.21100265e-01, 2.08115727e-01, 4.96523716e-02, 4.42906097e-02,
          2.25919977e-01, 4.55752820e-01, 3.36818814e-01, 3.90021890e-01,
          2.24507794e-01, 4.55752820e-01, 4.55752820e-01, 5.78488484e-02,
          3.77418965e-01, 3.77418965e-01, 2.70978361e-01, 1.48639694e-01,
          3.47015619e-01, 3.77418965e-01, 3.77418965e-01, 3.77418965e-01,
          2.60885060e-01, 1.04663096e-01, 4.08920020e-01, 4.08920020e-01,
          4.08920020e-01, 4.08920020e-01, 4.08920020e-01, 3.21100265e-01,
          2.08115727e-01, 4.96523716e-02, 4.42906097e-02, 2.25919977e-01,
          4.55752820e-01, 3.36818814e-01, 3.90021890e-01, 2.24507794e-01,
          4.55752820e-01, 4.55752820e-01, 5.78488484e-02, 3.77418965e-01,
          3.77418965e-01, 2.70978361e-01, 1.48639694e-01, 3.47015619e-01,
          3.77418965e-01, 3.77418965e-01, 3.77418965e-01, 2.60885060e-01,
          2.29858652e-01, 2.99032003e-01, 4.47326332e-01, 4.47326332e-01,
          3.13014925e-01, 2.87124544e-01, 3.21512491e-01, 3.57888281e-01,
          2.02982083e-01, 2.50282139e-01, 1.35741264e-01, 3.86821270e-01,
          3.86821270e-01, 3.86821270e-01, 1.31470934e-01, 3.86821270e-01,
          3.86821270e-01, 3.86821270e-01, 4.55196619e-01, 2.43549168e-01,
          1.75482109e-02, 5.83687983e-02, 4.55196619e-01, 4.55196619e-01,
          1.69466600e-01, 2.73655504e-01, 4.55196619e-01, 1.89431593e-01,
          1.44645765e-01, 3.57453853e-01, 2.41517380e-01, 1.22913450e-01,
          9.56631675e-02, 2.03988329e-01, 5.85394621e-01, 5.85394621e-01,
          2.47371748e-01, 5.01511097e-02, 3.81799400e-01, 4.27972704e-01,
          4.27972704e-01, 4.27972704e-01, 8.29245523e-02, 2.16164634e-01,
          4.27972704e-01, 4.60107625e-01, 2.57430047e-01, 2.03766897e-02,
          2.85316408e-01, 4.60107625e-01, 4.60107625e-01, 3.43311608e-01,
          1.07430220e-01, 2.87771434e-01, 3.37699801e-01, 3.37699801e-01,
          3.37699801e-01, 2.90339112e-01, 3.37699801e-01, 3.37699801e-01,
          3.37699801e-01, 3.37699801e-01, 3.37699801e-01, 1.36022121e-01,
          3.10750335e-01, 2.06668869e-01, 4.04558510e-01, 4.04558510e-01,
          3.31833690e-01, 4.04558510e-01, 3.73634309e-01, 3.12185556e-01,
          2.22586915e-02, 4.86789383e-02, 5.20766795e-01, 5.20766795e-01,
          1.38269767e-01, 7.78701007e-02, 3.95729125e-01, 4.98021066e-01,
          1.40460819e-01, 1.75381824e-01, 3.25167060e-01, 3.91360849e-01,
          1.13930032e-01, 2.95765817e-01, 3.91360849e-01, 3.91360849e-01,
          3.91360849e-01, 3.82736474e-01, 3.40389878e-01, 3.40389878e-01,
          3.40389878e-01, 2.63963491e-01, 3.40389878e-01, 3.40389878e-01,
          3.40389878e-01, 3.40389878e-01, 3.40389878e-01, 2.39696950e-01,
          1.84542283e-01, 4.43188399e-01, 4.43188399e-01, 7.15651140e-02,
          1.45162806e-01, 3.03652942e-01, 4.43188399e-01, 4.43188399e-01,
          3.77418965e-01, 3.77418965e-01, 2.70978361e-01, 1.48639694e-01,
          3.47015619e-01, 3.77418965e-01, 3.77418965e-01, 3.77418965e-01,
          2.60885060e-01, 5.56582868e-01, 5.14987528e-01, 7.57475570e-02,
          2.01715171e-01, 3.08024943e-01, 1.77750021e-01, 1.54040977e-01,
          8.66886079e-02, 4.64004993e-01, 3.69997054e-01, 3.69997054e-01,
          3.69997054e-01, 1.54828012e-01, 1.18520960e-01, 3.69997054e-01,
          3.69997054e-01, 3.69997054e-01, 3.69997054e-01, 3.77418965e-01,
          3.77418965e-01, 2.70978361e-01, 1.48639694e-01, 3.47015619e-01,
          3.77418965e-01, 3.77418965e-01, 3.77418965e-01, 2.60885060e-01,
          5.56582868e-01, 5.14987528e-01, 7.57475570e-02, 2.01715171e-01,
          3.08024943e-01, 1.77750021e-01, 1.54040977e-01, 8.66886079e-02,
          4.64004993e-01, 3.69997054e-01, 3.69997054e-01, 3.69997054e-01,
          1.54828012e-01, 1.18520960e-01, 3.69997054e-01, 3.69997054e-01,
          3.69997054e-01, 3.69997054e-01, 4.55196619e-01, 2.43549168e-01,
          1.75482109e-02, 5.83687983e-02, 4.55196619e-01, 4.55196619e-01,
          1.69466600e-01, 2.73655504e-01, 4.55196619e-01, 5.28913617e-01,
          2.32631758e-01, 1.52101610e-02, 2.19263844e-02, 5.28913617e-01,
          5.28913617e-01, 4.87247333e-02, 2.19572391e-02, 3.12703192e-01,
          4.10525054e-01, 4.20354694e-01, 3.06890130e-01, 4.97562401e-02,
          4.20354694e-01, 4.20354694e-01, 4.18613851e-01, 1.13141619e-01,
          1.11713789e-01, 4.60107625e-01, 2.57430047e-01, 2.03766897e-02,
          2.85316408e-01, 4.60107625e-01, 4.60107625e-01, 3.43311608e-01,
          1.07430220e-01, 2.87771434e-01, 4.59895372e-01, 4.59895372e-01,
          3.71105336e-02, 5.58184721e-02, 4.59895372e-01, 4.59895372e-01,
          2.52052367e-01, 1.13412812e-01, 2.61735827e-01, 5.40885150e-01,
          5.40885150e-01, 1.51219934e-01, 1.74071476e-01, 3.47470313e-01,
          3.63952279e-01, 1.97323799e-01, 1.51153609e-01, 2.03311831e-01 ]
      - [ 3.98031473e-01, 3.98031473e-01, 3.98031473e-01, 3.98031473e-01,
          3.98031473e-01, 2.50974447e-01, 8.22889358e-02, 8.07570070e-02,
          3.57207268e-01, 3.15328479e-01, 4.04879242e-01, 4.04879242e-01,
          4.04879242e-01, 4.04879242e-01, 1.19082861e-01, 1.72383159e-01,
          3.62158954e-01, 2.56434530e-01, 4.50321674e-01, 4.50321674e-01,
          1.53136224e-01, 7.12228566e-02, 1.41681731e-01, 4.50321674e-01,
          2.74929285e-01, 2.45275795e-01, 4.50321674e-01, 4.16698128e-01,
          4.16698128e-01, 4.16698128e-01, 5.28118201e-02, 1.86765581e-01,
          7.57931620e-02, 3.69876385e-01, 3.47943276e-01, 4.16698128e-01,
          4.61494207e-01, 4.61494207e-01, 4.61494207e-01, 6.99704364e-02,
          1.25697345e-01, 3.21147442e-01, 2.93071717e-01, 2.04317778e-01,
          3.24023813e-01, 5.32141268e-01, 5.32141268e-01, 1.22573182e-01,
          1.83322690e-02, 2.68442929e-02, 5.32141268e-01, 3.42518240e-01,
          3.06811612e-02, 1.04028128e-01, 7.31806904e-02, 4.82158422e-01,
          4.82158422e-01, 4.09324057e-02, 1.17675930e-01, 1.92882419e-01,
          4.82158422e-01, 4.82158422e-01, 8.48237798e-02, 2.52438694e-01,
          4.01186913e-01, 4.01186913e-01, 1.16928229e-02, 2.49579519e-01,
          4.01186913e-01, 4.01186913e-01, 3.29842120e-01, 3.42404276e-01,
          1.93767294e-01, 5.12042403e-01, 1.73233598e-01, 2.16461755e-02,
          2.30847999e-01, 5.32000124e-01, 5.32000124e-01, 1.83627948e-01,
          1.06850587e-01, 7.31806904e-02, 4.82158422e-01, 4.82158422e-01,
          4.09324057e-02, 1.17675930e-01, 1.92882419e-01, 4.82158422e-01,
          4.82158422e-01, 8.48237798e-02, 2.52438694e-01, 4.01186913e-01,
          4.01186913e-01, 1.16928229e-02, 2.49579519e-01, 4.01186913e-01,
          4.01186913e-01, 3.29842120e-01, 3.42404276e-01, 1.93767294e-01,
          5.12042403e-01, 1.73233598e-01, 2.16461755e-02, 2.30847999e-01,
          5.32000124e-01, 5.32000124e-01, 1.83627948e-01, 1.06850587e-01,
          1.08413234e-01, 4.35646355e-01, 4.35646355e-01, 3.10882032e-01,
          3.11566561e-01, 3.45427722e-01, 4.35646355e-01, 3.17139000e-01,
          3.02148573e-02, 3.41073349e-02, 4.70087022e-01, 4.93939012e-01,
          3.16863991e-02, 1.01862200e-01, 1.63589522e-01, 4.93939012e-01,
          4.93939012e-01, 5.34144975e-02, 1.38706267e-01, 2.19833359e-01,
          4.76900399e-01, 5.54685406e-02, 1.80921122e-01, 2.52226084e-01,
          5.27308643e-01, 5.27308643e-01, 2.10232332e-01, 3.79055887e-01,
          4.04912621e-01, 4.04912621e-01, 4.04912621e-01, 4.04912621e-01,
          4.04912621e-01, 1.65618703e-01, 2.93904040e-02, 6.48617744e-02,
          4.01224308e-02, 4.01978344e-01, 4.01978344e-01, 4.01978344e-01,
          2.83971876e-01, 1.93108827e-01, 4.01978344e-01, 4.01978344e-01,
          2.61745125e-01, 7.45546520e-02, 1.78397819e-01, 4.11797792e-01,
          3.43984574e-01, 2.28963286e-01, 1.19943552e-01, 4.48487252e-01,
          4.48487252e-01, 4.48487252e-01, 4.50321674e-01, 4.50321674e-01,
          1.53136224e-01, 7.12228566e-02, 1.41681731e-01, 4.50321674e-01,
          2.74929285e-01, 2.45275795e-01, 4.50321674e-01, 4.56780434e-01,
          4.56780434e-01, 5.78520782e-02, 2.85009183e-02, 4.56780434e-01,
          3.78079772e-01, 1.10589392e-01, 3.88648994e-02, 4.56780434e-01,
          5.67774355e-01, 5.00001684e-02, 3.38060893e-02, 1.18158879e-02,
          5.67774355e-01, 1.38413593e-01, 3.67517769e-02, 5.41821234e-02,
          5.67774355e-01, 5.32141268e-01, 5.32141268e-01, 1.22573182e-01,
          1.83322690e-02, 2.68442929e-02, 5.32141268e-01, 3.42518240e-01,
          3.06811612e-02, 1.04028128e-01, 4.17984694e-01, 4.17984694e-01,
          4.17984694e-01, 8.74441862e-02, 4.17984694e-01, 4.17984694e-01,
          2.29572684e-01, 5.69279641e-02, 2.42234364e-01, 3.88682365e-01,
          2.22894818e-01, 3.88682365e-01, 2.08161831e-01, 3.88682365e-01,
          2.71134406e-01, 2.72432983e-01, 3.88682365e-01, 3.88682365e-01,
          1.93767294e-01, 5.12042403e-01, 1.73233598e-01, 2.16461755e-02,
          2.30847999e-01, 5.32000124e-01, 5.32000124e-01, 1.83627948e-01,
          1.06850587e-01, 1.98755711e-01, 4.49743360e-01, 4.49743360e-01,
          2.72883981e-01, 3.55446726e-01, 2.39631578e-01, 1.99059546e-01,
          3.07700753e-01, 3.98659974e-01, 3.61001968e-01, 1.38785928e-01,
          3.09380502e-01, 3.61001968e-01, 3.61001968e-01, 3.61001968e-01,
          3.15405875e-01, 3.61001968e-01, 3.61001968e-01, 1.93767294e-01,
          5.12042403e-01, 1.73233598e-01, 2.16461755e-02, 2.30847999e-01,
          5.32000124e-01, 5.32000124e-01, 1.83627948e-01, 1.06850587e-01,
          1.98755711e-01, 4.49743360e-01, 4.49743360e-01, 2.72883981e-01,
          3.55446726e-01, 2.39631578e-01, 1.99059546e-01, 3.07700753e-01,
          3.98659974e-01, 3.61001968e-01, 1.38785928e-01, 3.09380502e-01,
          3.61001968e-01, 3.61001968e-01, 3.61001968e-01, 3.15405875e-01,
          3.61001968e-01, 3.61001968e-01, 1.38706267e-01, 2.19833359e-01,
          4.76900399e-01, 5.54685406e-02, 1.80921122e-01, 2.52226084e-01,
          5.27308643e-01, 5.27308643e-01, 2.10232332e-01, 3.96509141e-01,
          3.96509141e-01, 3.96509141e-01, 3.46345574e-01, 3.96509141e-01,
          3.96509141e-01, 1.59395009e-01, 1.07148089e-01, 2.30431065e-01,
          4.00867194e-01, 3.07125717e-01, 1.42575935e-01, 1.08370356e-01,
          4.00867194e-01, 4.00867194e-01, 2.57146955e-01, 4.00867194e-01,
          4.00867194e-01, 7.45546520e-02, 1.78397819e-01, 4.11797792e-01,
          3.43984574e-01, 2.28963286e-01, 1.19943552e-01, 4.48487252e-01,
          4.48487252e-01, 4.48487252e-01, 3.96490663e-01, 3.96490663e-01,
          3.96490663e-01, 3.96490663e-01, 1.81123182e-01, 1.55399203e-01,
          2.89406806e-01, 3.65373969e-01, 3.04976493e-01, 3.46180737e-01,
          3.46180737e-01, 1.94454476e-01, 3.46180737e-01, 3.46180737e-01,
          3.46180737e-01, 3.46180737e-01, 3.46180737e-01, 3.46180737e-01 ]
      - [ 4.75864798e-01, 4.75864798e-01, 1.48294270e-01, 2.74813958e-02,
          1.87701151e-01, 4.75864798e-01, 4.75864798e-01, 1.29077315e-01,
          1.21731713e-01, 3.89898479e-01, 3.84402573e-01, 6.78914264e-02,
          1.47941589e-01, 3.31103176e-01, 4.23935652e-01, 1.43838316e-01,
          4.23935652e-01, 4.23935652e-01, 3.30665469e-01, 2.94640273e-01,
          3.55912656e-01, 3.55912656e-01, 3.55912656e-01, 2.00620770e-01,
          3.55912656e-01, 3.55912656e-01, 3.55912656e-01, 3.44277024e-01,
          4.13907051e-01, 4.13907051e-01, 3.29637155e-02, 4.13907051e-01,
          4.13907051e-01, 4.13907051e-01, 1.31738931e-01, 4.79758456e-02,
          6.48013800e-02, 1.86541528e-01, 4.00363088e-01, 4.21748608e-01,
          4.21748608e-01, 6.56915009e-02, 4.21748608e-01, 4.21748608e-01,
          2.84071386e-01, 1.48325890e-01, 3.85893464e-01, 4.20017540e-01,
          3.33322346e-01, 3.29151183e-01, 5.10456152e-02, 4.20017540e-01,
          4.20017540e-01, 2.71285594e-01, 5.16997091e-02, 4.41649735e-01,
          4.41649735e-01, 2.65214574e-02, 4.41649735e-01, 4.41649735e-01,
          4.10067290e-01, 1.84106976e-01, 9.97175947e-02, 1.64104328e-01,
          2.80827343e-01, 4.69523638e-01, 1.89349890e-01, 3.40326041e-01,
          1.05447069e-01, 4.69523638e-01, 4.69523638e-01, 2.55664527e-01,
          3.75636965e-01, 3.75636965e-01, 2.03857780e-01, 1.65683165e-01,
          3.75636965e-01, 3.44658434e-01, 3.41372579e-01, 3.57073009e-01,
          3.75636965e-01, 5.16997091e-02, 4.41649735e-01, 4.41649735e-01,
          2.65214574e-02, 4.41649735e-01, 4.41649735e-01, 4.10067290e-01,
          1.84106976e-01, 9.97175947e-02, 1.64104328e-01, 2.80827343e-01,
          4.69523638e-01, 1.89349890e-01, 3.40326041e-01, 1.05447069e-01,
          4.69523638e-01, 4.69523638e-01, 2.55664527e-01, 3.75636965e-01,
          3.75636965e-01, 2.03857780e-01, 1.65683165e-01, 3.75636965e-01,
          3.44658434e-01, 3.41372579e-01, 3.57073009e-01, 3.75636965e-01,
          1.26519397e-01, 4.57955509e-01, 4.57955509e-01, 4.57955509e-01,
          2.10819110e-01, 9.33740139e-02, 3.04928780e-01, 3.99951518e-01,
          2.10101411e-01, 3.48810881e-01, 1.52193606e-01, 3.48810881e-01,
          3.48810881e-01, 3.48810881e-01, 3.48810881e-01, 3.48810881e-01,
          3.48810881e-01, 3.48810881e-01, 4.61926937e-01, 3.12342256e-01,
          1.61592439e-02, 1.57700822e-01, 4.61926937e-01, 4.61926937e-01,
          1.08073831e-01, 8.66699144e-02, 4.61926937e-01, 2.30377585e-01,
          4.91241962e-02, 2.52437353e-01, 4.35631961e-01, 2.47720480e-01,
          6.66146353e-02, 1.64656907e-01, 5.44363022e-01, 5.44363022e-01,
          3.95918161e-01, 6.44733533e-02, 1.91422924e-01, 3.95918161e-01,
          3.95918161e-01, 3.95918161e-01, 2.66735643e-01, 3.16767097e-01,
          3.95918161e-01, 4.30031747e-01, 4.30031747e-01, 4.86305207e-02,
          2.10865378e-01, 4.30031747e-01, 4.30031747e-01, 9.89103317e-02,
          1.20230727e-01, 4.30031747e-01, 3.30665469e-01, 2.94640273e-01,
          3.55912656e-01, 3.55912656e-01, 3.55912656e-01, 2.00620770e-01,
          3.55912656e-01, 3.55912656e-01, 3.55912656e-01, 8.50203261e-02,
          7.79913217e-02, 5.09874225e-01, 6.44451320e-01, 2.86485255e-01,
          6.77584112e-02, 2.08772615e-01, 3.41352820e-01, 2.41232008e-01,
          2.47508381e-02, 1.78947896e-01, 4.89876091e-01, 4.89876091e-01,
          2.67608035e-02, 8.63500312e-03, 4.89876091e-01, 4.89876091e-01,
          4.20384221e-02, 1.48325890e-01, 3.85893464e-01, 4.20017540e-01,
          3.33322346e-01, 3.29151183e-01, 5.10456152e-02, 4.20017540e-01,
          4.20017540e-01, 2.71285594e-01, 1.90280214e-01, 3.82535756e-01,
          3.82535756e-01, 3.82535756e-01, 1.88387126e-01, 3.82535756e-01,
          3.82535756e-01, 3.82535756e-01, 2.15593502e-01, 4.97707948e-02,
          4.08063263e-01, 4.54118550e-01, 4.54118550e-01, 1.10344198e-02,
          3.44728306e-02, 4.54118550e-01, 4.54118550e-01, 1.63210686e-02,
          3.75636965e-01, 3.75636965e-01, 2.03857780e-01, 1.65683165e-01,
          3.75636965e-01, 3.44658434e-01, 3.41372579e-01, 3.57073009e-01,
          3.75636965e-01, 4.13258612e-01, 3.87721896e-01, 1.41612798e-01,
          1.21782757e-01, 4.13258612e-01, 4.02213067e-01, 2.80068845e-01,
          2.41031602e-01, 4.13258612e-01, 2.88090080e-01, 4.61116612e-01,
          4.61116612e-01, 1.93164468e-01, 5.57451248e-02, 7.12486282e-02,
          4.61116612e-01, 4.61116612e-01, 1.28015161e-01, 3.75636965e-01,
          3.75636965e-01, 2.03857780e-01, 1.65683165e-01, 3.75636965e-01,
          3.44658434e-01, 3.41372579e-01, 3.57073009e-01, 3.75636965e-01,
          4.13258612e-01, 3.87721896e-01, 1.41612798e-01, 1.21782757e-01,
          4.13258612e-01, 4.02213067e-01, 2.80068845e-01, 2.41031602e-01,
          4.13258612e-01, 2.88090080e-01, 4.61116612e-01, 4.61116612e-01,
          1.93164468e-01, 5.57451248e-02, 7.12486282e-02, 4.61116612e-01,
          4.61116612e-01, 1.28015161e-01, 4.61926937e-01, 3.12342256e-01,
          1.61592439e-02, 1.57700822e-01, 4.61926937e-01, 4.61926937e-01,
          1.08073831e-01, 8.66699144e-02, 4.61926937e-01, 4.01353449e-01,
          4.01353449e-01, 1.05254762e-01, 1.53393224e-01, 4.01353449e-01,
          4.01353449e-01, 3.48645627e-01, 1.85487568e-01, 4.01353449e-01,
          3.63548577e-01, 4.42721099e-01, 4.42721099e-01, 3.79499272e-02,
          2.11098626e-01, 1.71857774e-01, 4.42721099e-01, 4.42721099e-01,
          6.21632338e-02, 4.30031747e-01, 4.30031747e-01, 4.86305207e-02,
          2.10865378e-01, 4.30031747e-01, 4.30031747e-01, 9.89103317e-02,
          1.20230727e-01, 4.30031747e-01, 4.97606754e-01, 4.97606754e-01,
          1.04776293e-01, 6.80870712e-02, 4.97606754e-01, 3.39714885e-01,
          8.60053822e-02, 1.02097817e-01, 3.21483582e-01, 3.00841659e-01,
          4.05187279e-01, 3.83854628e-01, 1.20050989e-01, 4.05187279e-01,
          2.93670535e-01, 4.05187279e-01, 4.05187279e-01, 2.72133201e-02 ]
      - [ 3.84152532e-01, 3.84152532e-01, 3.84152532e-01, 2.13241726e-01,
          1.09933093e-01, 3.84152532e-01, 3.84152532e-01, 2.30577588e-01,
          3.84152532e-01, 4.39913183e-01, 4.39913183e-01, 2.42512375e-02,
          1.09454421e-02, 8.74231011e-02, 4.39913183e-01, 4.27795023e-01,
          1.73643291e-01, 4.39913183e-01, 4.71215576e-01, 4.71215576e-01,
          1.26247942e-01, 2.32901070e-02, 2.40826696e-01, 4.03520256e-01,
          2.50830323e-01, 1.70112103e-01, 4.71215576e-01, 4.19113725e-01,
          4.19113725e-01, 4.19113725e-01, 1.45294055e-01, 7.91321620e-02,
          3.83773744e-01, 1.25565529e-01, 3.20572495e-01, 4.19113725e-01,
          5.88436007e-01, 1.73568934e-01, 9.93617103e-02, 2.37551734e-01,
          2.02751145e-01, 2.04629272e-01, 8.48288909e-02, 3.39121848e-01,
          5.88436007e-01, 6.08586788e-01, 6.31540120e-02, 1.22234158e-01,
          9.44135264e-02, 2.55549490e-01, 1.96543962e-01, 1.31821811e-01,
          3.22508842e-01, 6.08586788e-01, 3.49734455e-01, 3.49734455e-01,
          3.49734455e-01, 3.49734455e-01, 3.28995019e-01, 3.49734455e-01,
          3.49734455e-01, 1.79077595e-01, 3.49734455e-01, 3.56393635e-01,
          1.87350854e-01, 3.56393635e-01, 3.56393635e-01, 3.37353885e-01,
          2.92288959e-01, 3.56393635e-01, 3.56393635e-01, 3.56393635e-01,
          1.93044618e-01, 1.41582549e-01, 3.96628857e-01, 3.96628857e-01,
          3.63703072e-01, 1.40973791e-01, 3.96628857e-01, 3.96628857e-01,
          3.96628857e-01, 3.49734455e-01, 3.49734455e-01, 3.49734455e-01,
          3.49734455e-01, 3.28995019e-01, 3.49734455e-01, 3.49734455e-01,
          1.79077595e-01, 3.49734455e-01, 3.56393635e-01, 1.87350854e-01,
          3.56393635e-01, 3.56393635e-01, 3.37353885e-01, 2.92288959e-01,
          3.56393635e-01, 3.56393635e-01, 3.56393635e-01, 1.93044618e-01,
          1.41582549e-01, 3.96628857e-01, 3.96628857e-01, 3.63703072e-01,
          1.40973791e-01, 3.96628857e-01, 3.96628857e-01, 3.96628857e-01,
          1.29722625e-01, 3.96393776e-01, 3.96393776e-01, 2.32148603e-01,
          2.55215645e-01, 2.73027152e-01, 3.96393776e-01, 3.96393776e-01,
          3.96393776e-01, 3.32778692e-01, 3.32778692e-01, 3.32778692e-01,
          3.32778692e-01, 3.32778692e-01, 3.32778692e-01, 3.32778692e-01,
          3.32778692e-01, 3.32778692e-01, 3.96795422e-01, 2.60251701e-01,
          3.96795422e-01, 3.96795422e-01, 3.03908914e-01, 1.47130713e-01,
          3.96795422e-01, 3.96795422e-01, 1.64511427e-01, 1.95859179e-01,
          3.17249745e-01, 3.57144147e-01, 3.57144147e-01, 3.57144147e-01,
          3.03499609e-01, 3.57144147e-01, 3.57144147e-01, 3.57144147e-01,
          3.35260153e-01, 3.35260153e-01, 3.35260153e-01, 3.12178135e-01,
          3.35260153e-01, 3.35260153e-01, 3.35260153e-01, 3.35260153e-01,
          3.35260153e-01, 4.53108847e-01, 4.53108847e-01, 1.73768014e-01,
          1.41068265e-01, 1.15414850e-01, 4.53108847e-01, 4.53108847e-01,
          1.92925081e-01, 2.71306694e-01, 4.71215576e-01, 4.71215576e-01,
          1.26247942e-01, 2.32901070e-02, 2.40826696e-01, 4.03520256e-01,
          2.50830323e-01, 1.70112103e-01, 4.71215576e-01, 3.95487040e-01,
          3.95487040e-01, 3.62750351e-01, 1.47408396e-01, 1.29774064e-01,
          2.52647579e-01, 3.95487040e-01, 3.69350582e-01, 3.95487040e-01,
          4.74202394e-01, 4.71216738e-01, 1.40586674e-01, 2.26840645e-01,
          1.28647238e-01, 1.19996771e-01, 2.78833479e-01, 3.78898323e-01,
          4.74202394e-01, 6.08586788e-01, 6.31540120e-02, 1.22234158e-01,
          9.44135264e-02, 2.55549490e-01, 1.96543962e-01, 1.31821811e-01,
          3.22508842e-01, 6.08586788e-01, 4.77321148e-01, 3.09809238e-01,
          4.77321148e-01, 4.15424079e-01, 1.58693120e-01, 4.45782244e-02,
          5.29445484e-02, 1.14861332e-01, 4.77321148e-01, 3.62842381e-01,
          3.42195094e-01, 3.62842381e-01, 3.62842381e-01, 3.06513429e-01,
          6.47885026e-03, 3.62842381e-01, 3.62842381e-01, 3.56387466e-01,
          1.93044618e-01, 1.41582549e-01, 3.96628857e-01, 3.96628857e-01,
          3.63703072e-01, 1.40973791e-01, 3.96628857e-01, 3.96628857e-01,
          3.96628857e-01, 3.47180188e-01, 1.39095902e-01, 3.41451973e-01,
          3.94989073e-01, 3.26033652e-01, 9.60172340e-02, 3.94989073e-01,
          3.94989073e-01, 3.94989073e-01, 2.64760554e-01, 3.15282702e-01,
          3.99987698e-01, 3.99987698e-01, 3.99987698e-01, 1.11620776e-01,
          3.99987698e-01, 3.99987698e-01, 1.18712872e-01, 1.93044618e-01,
          1.41582549e-01, 3.96628857e-01, 3.96628857e-01, 3.63703072e-01,
          1.40973791e-01, 3.96628857e-01, 3.96628857e-01, 3.96628857e-01,
          3.47180188e-01, 1.39095902e-01, 3.41451973e-01, 3.94989073e-01,
          3.26033652e-01, 9.60172340e-02, 3.94989073e-01, 3.94989073e-01,
          3.94989073e-01, 2.64760554e-01, 3.15282702e-01, 3.99987698e-01,
          3.99987698e-01, 3.99987698e-01, 1.11620776e-01, 3.99987698e-01,
          3.99987698e-01, 1.18712872e-01, 3.96795422e-01, 2.60251701e-01,
          3.96795422e-01, 3.96795422e-01, 3.03908914e-01, 1.47130713e-01,
          3.96795422e-01, 3.96795422e-01, 1.64511427e-01, 3.60634536e-01,
          2.90609926e-01, 4.30821657e-01, 4.30821657e-01, 1.71425059e-01,
          4.54222374e-02, 4.30821657e-01, 4.30821657e-01, 8.54761079e-02,
          3.02219421e-01, 7.87587538e-02, 2.15309680e-01, 3.23772848e-01,
          4.20896053e-01, 4.20896053e-01, 4.20896053e-01, 4.20896053e-01,
          1.96099043e-01, 4.53108847e-01, 4.53108847e-01, 1.73768014e-01,
          1.41068265e-01, 1.15414850e-01, 4.53108847e-01, 4.53108847e-01,
          1.92925081e-01, 2.71306694e-01, 4.05407399e-01, 2.35563874e-01,
          2.19590396e-01, 4.05407399e-01, 2.83666551e-02, 4.05407399e-01,
          4.05407399e-01, 4.05407399e-01, 2.63930351e-01, 2.84465421e-02,
          1.44349476e-02, 1.23768590e-01, 1.82118163e-01, 4.69058752e-01,
          4.69058752e-01, 4.69058752e-01, 4.69058752e-01, 2.56411970e-01 ]
      - [ 4.45161968e-01, 4.45161968e-01, 2.21527830e-01, 1.63280278e-01,
          4.45161968e-01, 4.45161968e-01, 1.18640266e-01, 1.76357739e-02,
          3.35790277e-01, 6.62789762e-01, 2.40635663e-01, 1.12688556e-01,
          1.50170058e-01, 1.33444518e-01, 3.95481251e-02, 4.19192128e-02,
          2.27748640e-02, 6.62789762e-01, 6.97592974e-01, 6.99394047e-02,
          3.55693251e-02, 3.09211947e-02, 8.12322274e-02, 6.52537029e-03,
          3.46700996e-02, 6.93410113e-02, 6.97592974e-01, 5.67029595e-01,
          5.67029595e-01, 5.67029595e-01, 7.22856000e-02, 5.09305783e-02,
          8.09717365e-03, 2.97444910e-02, 3.67360227e-02, 1.40182450e-01,
          3.96284908e-01, 3.74079108e-01, 2.63402313e-01, 1.91103339e-01,
          3.96284908e-01, 3.64947021e-01, 3.62654597e-01, 1.19895332e-01,
          3.96284908e-01, 5.33772111e-01, 1.41107533e-02, 2.12962441e-02,
          2.73217529e-01, 5.33772111e-01, 2.52104640e-01, 3.23294103e-02,
          5.39222918e-03, 5.33772111e-01, 2.74994910e-01, 6.63932741e-01,
          6.63932741e-01, 2.04768255e-02, 1.29780509e-02, 3.85655696e-03,
          8.33682269e-02, 6.91684484e-02, 1.54269919e-01, 7.93377459e-02,
          1.74407840e-01, 5.11796236e-01, 1.03394970e-01, 3.20117295e-01,
          2.35198990e-01, 5.11796236e-01, 5.11796236e-01, 6.23350739e-02,
          2.65503526e-01, 4.25410271e-02, 1.24885980e-02, 3.63043368e-01,
          5.22874355e-01, 3.41751665e-01, 4.26319510e-01, 3.03800553e-01,
          3.55365843e-01, 2.74994910e-01, 6.63932741e-01, 6.63932741e-01,
          2.04768255e-02, 1.29780509e-02, 3.85655696e-03, 8.33682269e-02,
          6.91684484e-02, 1.54269919e-01, 7.93377459e-02, 1.74407840e-01,
          5.11796236e-01, 1.03394970e-01, 3.20117295e-01, 2.35198990e-01,
          5.11796236e-01, 5.11796236e-01, 6.23350739e-02, 2.65503526e-01,
          4.25410271e-02, 1.24885980e-02, 3.63043368e-01, 5.22874355e-01,
          3.41751665e-01, 4.26319510e-01, 3.03800553e-01, 3.55365843e-01,
          4.65015739e-01, 4.65015739e-01, 4.65015739e-01, 1.21117160e-01,
          1.78699731e-03, 0., 1.08131012e-02, 3.40010673e-01,
          4.65015739e-01, 4.28215027e-01, 4.28215027e-01, 3.82254690e-01,
          1.41485045e-02, 6.28848560e-03, 2.34088860e-02, 4.28215027e-01,
          4.28215027e-01, 3.39622945e-01, 4.54967260e-01, 3.91112000e-01,
          8.82067485e-04, 8.48489255e-03, 3.29575725e-02, 1.15529947e-01,
          4.54967260e-01, 4.54967260e-01, 4.54967260e-01, 1.08388953e-01,
          1.37733608e-01, 4.90419477e-01, 4.90419477e-01, 4.80846912e-02,
          4.85725142e-03, 1.49067619e-03, 4.90419477e-01, 4.90419477e-01,
          2.54749030e-01, 1.57300517e-01, 1.34598821e-01, 5.47853410e-01,
          2.33832240e-01, 5.47853410e-01, 4.29594427e-01, 1.20507374e-01,
          1.80925742e-01, 1.44394979e-01, 5.24659008e-02, 4.92297951e-03,
          2.54091807e-02, 6.23660646e-02, 6.23193264e-01, 6.23193264e-01,
          3.85950625e-01, 1.99795604e-01, 6.97592974e-01, 6.99394047e-02,
          3.55693251e-02, 3.09211947e-02, 8.12322274e-02, 6.52537029e-03,
          3.46700996e-02, 6.93410113e-02, 6.97592974e-01, 5.97347140e-01,
          4.32781316e-02, 1.41017899e-01, 4.62947845e-01, 1.59497544e-01,
          6.26223013e-02, 3.31219435e-02, 1.17688142e-01, 5.97347140e-01,
          5.15703142e-01, 2.40220651e-02, 4.15136844e-01, 5.15703142e-01,
          1.21654369e-01, 1.91818234e-02, 3.76593955e-02, 8.65955129e-02,
          5.15703142e-01, 5.33772111e-01, 1.41107533e-02, 2.12962441e-02,
          2.73217529e-01, 5.33772111e-01, 2.52104640e-01, 3.23294103e-02,
          5.39222918e-03, 5.33772111e-01, 5.62657058e-01, 7.04818172e-03,
          5.13154361e-03, 9.43181515e-02, 5.62657058e-01, 1.88778982e-01,
          3.22280708e-03, 3.54528986e-03, 5.62657058e-01, 4.28695977e-01,
          1.73959639e-02, 8.81816596e-02, 2.04007640e-01, 4.28695977e-01,
          3.04267585e-01, 4.28695977e-01, 3.43977153e-01, 4.28695977e-01,
          2.65503526e-01, 4.25410271e-02, 1.24885980e-02, 3.63043368e-01,
          5.22874355e-01, 3.41751665e-01, 4.26319510e-01, 3.03800553e-01,
          3.55365843e-01, 1.55919701e-01, 2.12816205e-02, 1.22604985e-02,
          2.01542750e-01, 7.99043834e-01, 4.92291927e-01, 1.19497739e-02,
          4.29663956e-02, 2.08999112e-01, 2.82148004e-01, 2.22837385e-02,
          6.79753022e-03, 1.08666778e-01, 6.41034067e-01, 6.41034067e-01,
          2.14038968e-01, 9.70616639e-02, 1.56711116e-01, 2.65503526e-01,
          4.25410271e-02, 1.24885980e-02, 3.63043368e-01, 5.22874355e-01,
          3.41751665e-01, 4.26319510e-01, 3.03800553e-01, 3.55365843e-01,
          1.55919701e-01, 2.12816205e-02, 1.22604985e-02, 2.01542750e-01,
          7.99043834e-01, 4.92291927e-01, 1.19497739e-02, 4.29663956e-02,
          2.08999112e-01, 2.82148004e-01, 2.22837385e-02, 6.79753022e-03,
          1.08666778e-01, 6.41034067e-01, 6.41034067e-01, 2.14038968e-01,
          9.70616639e-02, 1.56711116e-01, 4.54967260e-01, 3.91112000e-01,
          8.82067485e-04, 8.48489255e-03, 3.29575725e-02, 1.15529947e-01,
          4.54967260e-01, 4.54967260e-01, 4.54967260e-01, 4.99125689e-01,
          1.70542672e-01, 1.33143157e-01, 7.69082159e-02, 3.13898981e-01,
          1.09393619e-01, 4.26857024e-01, 3.89010221e-01, 4.99125689e-01,
          5.96652448e-01, 2.02691972e-01, 9.92469192e-02, 1.06375419e-01,
          3.30645353e-01, 2.27298290e-01, 1.10482238e-01, 2.15886846e-01,
          5.96652448e-01, 1.44394979e-01, 5.24659008e-02, 4.92297951e-03,
          2.54091807e-02, 6.23660646e-02, 6.23193264e-01, 6.23193264e-01,
          3.85950625e-01, 1.99795604e-01, 3.61047775e-01, 3.61047775e-01,
          2.36087993e-01, 3.46828938e-01, 3.61047775e-01, 2.80878395e-01,
          3.61047775e-01, 2.99491137e-01, 3.61047775e-01, 5.94483554e-01,
          5.94483554e-01, 8.57296288e-02, 8.74582231e-02, 2.14357480e-01,
          1.01347223e-01, 7.57525861e-02, 1.45797640e-01, 4.34774041e-01 ]
      - [ 4.83163804e-01, 4.83163804e-01, 1.55502483e-01, 2.64631379e-02,
          7.93603361e-02, 4.83163804e-01, 4.83163804e-01, 5.40126450e-02,
          1.65192664e-01, 4.59118932e-01, 4.59118932e-01, 9.97452512e-02,
          5.09735905e-02, 1.04733869e-01, 3.35284352e-01, 1.27754360e-01,
          4.59118932e-01, 4.59118932e-01, 4.94359881e-01, 2.28404924e-01,
          2.93992996e-01, 1.94004595e-01, 9.03427675e-02, 7.60073066e-02,
          2.67787248e-01, 4.94359881e-01, 4.94359881e-01, 3.25594455e-01,
          4.46901172e-01, 4.46901172e-01, 1.38900220e-01, 2.52637208e-01,
          4.46901172e-01, 4.46901172e-01, 8.65066350e-02, 6.26915507e-03,
          1.09310344e-01, 3.18926066e-01, 3.75758916e-01, 3.75758916e-01,
          3.75758916e-01, 1.88188210e-01, 3.75758916e-01, 3.75758916e-01,
          3.75758916e-01, 5.23307659e-02, 1.15394101e-01, 1.81456134e-01,
          4.11711514e-01, 3.32574338e-01, 2.79884756e-01, 4.82503802e-01,
          4.82503802e-01, 3.49475205e-01, 3.65351178e-02, 4.18525219e-01,
          4.18525219e-01, 3.39774162e-01, 4.18525219e-01, 4.18525219e-01,
          4.18525219e-01, 5.62170073e-02, 7.77979754e-03, 1.76753309e-02,
          4.33552712e-01, 4.33552712e-01, 4.07430857e-01, 2.13008553e-01,
          1.66328177e-01, 4.33552712e-01, 4.33552712e-01, 6.66886643e-02,
          3.00578356e-01, 2.90219814e-01, 1.96737409e-01, 3.91885191e-01,
          3.91885191e-01, 2.70137757e-01, 3.91885191e-01, 3.91885191e-01,
          3.09085727e-01, 3.65351178e-02, 4.18525219e-01, 4.18525219e-01,
          3.39774162e-01, 4.18525219e-01, 4.18525219e-01, 4.18525219e-01,
          5.62170073e-02, 7.77979754e-03, 1.76753309e-02, 4.33552712e-01,
          4.33552712e-01, 4.07430857e-01, 2.13008553e-01, 1.66328177e-01,
          4.33552712e-01, 4.33552712e-01, 6.66886643e-02, 3.00578356e-01,
          2.90219814e-01, 1.96737409e-01, 3.91885191e-01, 3.91885191e-01,
          2.70137757e-01, 3.91885191e-01, 3.91885191e-01, 3.09085727e-01,
          1.68666556e-01, 4.23788458e-01, 4.23788458e-01, 4.23788458e-01,
          1.62954003e-01, 8.50223824e-02, 4.23788458e-01, 4.23788458e-01,
          1.88552573e-01, 1.13435082e-01, 4.37323183e-01, 4.37323183e-01,
          4.37323183e-01, 6.01917878e-02, 5.62950112e-02, 4.13018495e-01,
          4.37323183e-01, 2.00951099e-01, 4.41591501e-01, 3.16216439e-01,
          3.01600248e-02, 1.27788946e-01, 4.41591501e-01, 2.63386935e-01,
          1.70210242e-01, 4.41591501e-01, 4.41591501e-01, 1.01588652e-01,
          1.84602976e-01, 2.97788262e-01, 2.42512807e-01, 1.07208230e-01,
          2.20883675e-02, 2.73504049e-01, 5.98060846e-01, 5.98060846e-01,
          7.81371817e-02, 3.44361335e-01, 4.91411179e-01, 4.91411179e-01,
          4.91411179e-01, 3.63780975e-01, 4.07660902e-02, 7.21649006e-02,
          8.21021125e-02, 2.83834904e-01, 8.46896172e-02, 9.22148898e-02,
          5.35705984e-01, 5.46640813e-01, 5.46640813e-01, 1.52737154e-02,
          5.74043300e-03, 1.15859024e-01, 4.94359881e-01, 2.28404924e-01,
          2.93992996e-01, 1.94004595e-01, 9.03427675e-02, 7.60073066e-02,
          2.67787248e-01, 4.94359881e-01, 4.94359881e-01, 4.37418073e-01,
          4.37418073e-01, 4.37418073e-01, 4.37418073e-01, 2.29709834e-01,
          1.72371700e-01, 1.47130072e-01, 1.36639923e-01, 3.27865720e-01,
          1.08250454e-01, 1.45527959e-01, 6.42458439e-01, 6.42458439e-01,
          1.16157956e-01, 2.55133249e-02, 3.92552353e-02, 2.77566761e-01,
          2.06047639e-01, 5.23307659e-02, 1.15394101e-01, 1.81456134e-01,
          4.11711514e-01, 3.32574338e-01, 2.79884756e-01, 4.82503802e-01,
          4.82503802e-01, 3.49475205e-01, 3.52473229e-01, 4.80911553e-01,
          4.80911553e-01, 2.34168231e-01, 9.17470828e-02, 7.46952519e-02,
          4.80911553e-01, 2.26474717e-01, 2.38765910e-01, 4.36991155e-01,
          4.42607254e-01, 4.42607254e-01, 4.42607254e-01, 5.43788858e-02,
          2.09824704e-02, 3.04876834e-01, 2.92125612e-01, 1.87694758e-01,
          3.00578356e-01, 2.90219814e-01, 1.96737409e-01, 3.91885191e-01,
          3.91885191e-01, 2.70137757e-01, 3.91885191e-01, 3.91885191e-01,
          3.09085727e-01, 5.32368481e-01, 5.32368481e-01, 2.73964703e-01,
          1.29680455e-01, 1.95694402e-01, 3.13275270e-02, 4.30706069e-02,
          1.06903151e-01, 5.32368481e-01, 5.33162475e-01, 4.17150468e-01,
          1.79064021e-01, 7.70435780e-02, 1.40455350e-01, 4.29582931e-02,
          1.99039385e-01, 3.91084522e-01, 5.33162475e-01, 3.00578356e-01,
          2.90219814e-01, 1.96737409e-01, 3.91885191e-01, 3.91885191e-01,
          2.70137757e-01, 3.91885191e-01, 3.91885191e-01, 3.09085727e-01,
          5.32368481e-01, 5.32368481e-01, 2.73964703e-01, 1.29680455e-01,
          1.95694402e-01, 3.13275270e-02, 4.30706069e-02, 1.06903151e-01,
          5.32368481e-01, 5.33162475e-01, 4.17150468e-01, 1.79064021e-01,
          7.70435780e-02, 1.40455350e-01, 4.29582931e-02, 1.99039385e-01,
          3.91084522e-01, 5.33162475e-01, 4.41591501e-01, 3.16216439e-01,
          3.01600248e-02, 1.27788946e-01, 4.41591501e-01, 2.63386935e-01,
          1.70210242e-01, 4.41591501e-01, 4.41591501e-01, 4.88571793e-01,
          2.98187882e-01, 9.88348015e-03, 1.45291910e-01, 4.88571793e-01,
          4.10676569e-01, 1.49489883e-02, 3.29093449e-03, 4.88571793e-01,
          3.90676022e-01, 2.30902925e-01, 3.88904922e-02, 1.67722806e-01,
          3.90676022e-01, 3.90676022e-01, 3.87296617e-01, 3.90676022e-01,
          3.90676022e-01, 2.83834904e-01, 8.46896172e-02, 9.22148898e-02,
          5.35705984e-01, 5.46640813e-01, 5.46640813e-01, 1.52737154e-02,
          5.74043300e-03, 1.15859024e-01, 3.13947171e-01, 1.95575833e-01,
          6.35572225e-02, 4.24995810e-01, 5.64884722e-01, 5.64884722e-01,
          5.33054993e-02, 3.08152847e-03, 1.78451851e-01, 4.75321352e-01,
          4.75321352e-01, 1.35428518e-01, 2.00559735e-01, 4.75321352e-01,
          4.75321352e-01, 1.68122470e-01, 2.62988377e-02, 6.33165240e-02 ]
      - [ 5.02565682e-01, 5.02565682e-01, 4.74750847e-02, 3.21592693e-03,
          8.51751864e-02, 5.02565682e-01, 4.72913235e-01, 2.20372975e-02,
          6.01026267e-02, 4.77461338e-01, 4.77461338e-01, 1.37084136e-02,
          4.27517742e-02, 4.77461338e-01, 4.77461338e-01, 2.12559566e-01,
          1.27085239e-01, 1.41441852e-01, 6.14987850e-01, 6.14987850e-01,
          6.24587573e-03, 2.03084163e-02, 2.32851118e-01, 4.11669403e-01,
          8.12183991e-02, 3.71367522e-02, 7.29461983e-02, 4.82005507e-01,
          4.82005507e-01, 2.03838944e-01, 8.97706195e-04, 1.06738545e-01,
          4.82005507e-01, 4.82005507e-01, 7.81160593e-02, 8.25968683e-02,
          6.07225060e-01, 6.07225060e-01, 8.48828256e-03, 1.37235271e-02,
          3.66500653e-02, 4.88933384e-01, 1.18397221e-01, 3.21699828e-02,
          2.79328786e-02, 5.39318681e-01, 5.05747914e-01, 6.48368557e-04,
          3.38664348e-03, 8.87354463e-02, 5.52163720e-01, 3.65591824e-01,
          2.50647329e-02, 2.80071385e-02, 4.83214736e-01, 4.98808384e-01,
          4.98808384e-01, 4.98808384e-01, 2.71274839e-02, 7.69591257e-02,
          7.12236241e-02, 3.07879560e-02, 4.91215363e-02, 3.66899103e-01,
          3.66899103e-01, 3.02870452e-01, 3.50926280e-01, 3.35191898e-02,
          3.66899103e-01, 3.66899103e-01, 3.66899103e-01, 3.27500194e-01,
          3.97176176e-01, 2.23983228e-01, 1.17950410e-01, 2.59589422e-02,
          3.21314670e-02, 4.39339131e-01, 4.39339131e-01, 4.39339131e-01,
          4.39339131e-01, 4.83214736e-01, 4.98808384e-01, 4.98808384e-01,
          4.98808384e-01, 2.71274839e-02, 7.69591257e-02, 7.12236241e-02,
          3.07879560e-02, 4.91215363e-02, 3.66899103e-01, 3.66899103e-01,
          3.02870452e-01, 3.50926280e-01, 3.35191898e-02, 3.66899103e-01,
          3.66899103e-01, 3.66899103e-01, 3.27500194e-01, 3.97176176e-01,
          2.23983228e-01, 1.17950410e-01, 2.59589422e-02, 3.21314670e-02,
          4.39339131e-01, 4.39339131e-01, 4.39339131e-01, 4.39339131e-01,
          4.02826279e-01, 3.78582835e-01, 4.02826279e-01, 4.02826279e-01,
          1.32021643e-02, 1.95734411e-01, 2.99828440e-01, 4.02826279e-01,
          2.74210632e-01, 2.97938913e-01, 1.42792910e-01, 4.96522874e-01,
          4.96522874e-01, 1.17079611e-03, 2.76604351e-02, 1.14326298e-01,
          4.96522874e-01, 3.63925427e-01, 4.39217806e-01, 4.39217806e-01,
          4.39217806e-01, 1.37917414e-01, 1.32801803e-03, 3.59301157e-02,
          1.03620410e-01, 4.39217806e-01, 4.39217806e-01, 2.13569880e-01,
          1.35390565e-01, 2.99991071e-01, 4.83891249e-01, 7.78889656e-02,
          2.49887612e-02, 1.12206079e-01, 5.41857660e-01, 5.41857660e-01,
          4.66582149e-01, 3.22995305e-01, 4.66582149e-01, 4.66582149e-01,
          9.18298811e-02, 1.55658973e-02, 3.32203805e-02, 1.02173395e-01,
          4.66582149e-01, 3.89176339e-01, 2.50049859e-01, 3.89176339e-01,
          3.89176339e-01, 3.89176339e-01, 7.71863386e-02, 1.37404904e-01,
          3.89176339e-01, 3.89176339e-01, 6.14987850e-01, 6.14987850e-01,
          6.24587573e-03, 2.03084163e-02, 2.32851118e-01, 4.11669403e-01,
          8.12183991e-02, 3.71367522e-02, 7.29461983e-02, 3.81581485e-01,
          3.81115496e-01, 5.40314205e-02, 2.94229478e-01, 1.82828754e-01,
          3.81581485e-01, 3.81581485e-01, 3.81581485e-01, 3.81581485e-01,
          1.25295654e-01, 4.82367948e-02, 4.63064551e-01, 4.64315414e-01,
          2.49890402e-01, 1.36842296e-01, 3.20808887e-01, 4.64315414e-01,
          3.84240627e-01, 5.39318681e-01, 5.05747914e-01, 6.48368557e-04,
          3.38664348e-03, 8.87354463e-02, 5.52163720e-01, 3.65591824e-01,
          2.50647329e-02, 2.80071385e-02, 1.73872516e-01, 1.91287830e-01,
          8.90228339e-03, 0., 2.05824763e-01, 6.81594133e-01,
          6.37344837e-01, 1.08606182e-01, 3.68187688e-02, 4.11466569e-01,
          4.11466569e-01, 4.11466569e-01, 4.11466569e-01, 7.55992383e-02,
          3.10441941e-01, 4.11466569e-01, 1.76239341e-01, 1.27343401e-01,
          3.97176176e-01, 2.23983228e-01, 1.17950410e-01, 2.59589422e-02,
          3.21314670e-02, 4.39339131e-01, 4.39339131e-01, 4.39339131e-01,
          4.39339131e-01, 4.26715374e-01, 4.26715374e-01, 8.58951882e-02,
          3.10602272e-03, 5.04374839e-02, 4.26715374e-01, 2.74546593e-01,
          4.26715374e-01, 4.26715374e-01, 4.17878717e-01, 4.17878717e-01,
          1.17055051e-01, 6.85733333e-02, 1.14132836e-01, 3.04254711e-01,
          4.17878717e-01, 4.17878717e-01, 4.16333675e-01, 3.97176176e-01,
          2.23983228e-01, 1.17950410e-01, 2.59589422e-02, 3.21314670e-02,
          4.39339131e-01, 4.39339131e-01, 4.39339131e-01, 4.39339131e-01,
          4.26715374e-01, 4.26715374e-01, 8.58951882e-02, 3.10602272e-03,
          5.04374839e-02, 4.26715374e-01, 2.74546593e-01, 4.26715374e-01,
          4.26715374e-01, 4.17878717e-01, 4.17878717e-01, 1.17055051e-01,
          6.85733333e-02, 1.14132836e-01, 3.04254711e-01, 4.17878717e-01,
          4.17878717e-01, 4.16333675e-01, 4.39217806e-01, 4.39217806e-01,
          4.39217806e-01, 1.37917414e-01, 1.32801803e-03, 3.59301157e-02,
          1.03620410e-01, 4.39217806e-01, 4.39217806e-01, 2.17219248e-01,
          2.27053896e-01, 3.01309943e-01, 2.09662062e-03, 2.40857759e-03,
          1.73150226e-02, 5.04393339e-01, 5.24648726e-01, 5.24648726e-01,
          4.00180638e-01, 4.00180638e-01, 3.10699463e-01, 1.35816053e-01,
          1.33094922e-01, 2.50169992e-01, 4.00180638e-01, 4.00180638e-01,
          4.00180638e-01, 3.89176339e-01, 2.50049859e-01, 3.89176339e-01,
          3.89176339e-01, 3.89176339e-01, 7.71863386e-02, 1.37404904e-01,
          3.89176339e-01, 3.89176339e-01, 1.19889215e-01, 4.40840721e-02,
          4.00870405e-02, 3.37690860e-02, 1.35331452e-01, 1.00313850e-01,
          6.70688093e-01, 6.70688093e-01, 2.14983255e-01, 4.63861078e-01,
          4.63861078e-01, 4.28960770e-02, 1.24462752e-03, 9.43579618e-03,
          1.56868279e-01, 4.63861078e-01, 4.51660126e-01, 3.45442325e-01 ]
      - [ 4.45626944e-01, 4.45626944e-01, 3.74082506e-01, 4.09341082e-02,
          2.15375349e-01, 4.45626944e-01, 4.45626944e-01, 5.51198274e-02,
          1.00882418e-01, 4.55396950e-01, 4.55396950e-01, 2.17160881e-01,
          9.95540470e-02, 4.34564799e-01, 4.55396950e-01, 9.13727060e-02,
          1.49408624e-01, 3.10972422e-01, 3.51311833e-01, 1.37944072e-01,
          1.78367700e-02, 5.95565215e-02, 1.00220226e-01, 7.41728321e-02,
          2.94375569e-01, 6.10486686e-01, 6.10486686e-01, 3.74199361e-01,
          3.74199361e-01, 3.74199361e-01, 2.99177140e-01, 3.74199361e-01,
          3.74199361e-01, 3.74199361e-01, 8.29387158e-02, 2.44386867e-01,
          3.58594686e-01, 3.58594686e-01, 3.58594686e-01, 3.58594686e-01,
          3.58594686e-01, 3.49135339e-01, 3.57550532e-01, 1.93506658e-01,
          2.57456303e-01, 1.22963317e-01, 4.68287915e-02, 1.73441872e-01,
          3.99183512e-01, 3.99183512e-01, 3.99183512e-01, 3.99183512e-01,
          3.99183512e-01, 3.89717758e-01, 3.85869652e-01, 3.91541928e-01,
          3.91541928e-01, 3.91541928e-01, 3.26070666e-01, 3.52224633e-02,
          4.64025177e-02, 3.52500707e-01, 3.91541928e-01, 3.20229173e-01,
          3.84697050e-01, 3.84697050e-01, 9.63056013e-02, 1.22623600e-01,
          3.59637916e-01, 3.84697050e-01, 3.84697050e-01, 3.84697050e-01,
          2.48837605e-01, 6.01930507e-02, 3.34172755e-01, 3.69480222e-01,
          3.69480222e-01, 3.69480222e-01, 3.69480222e-01, 3.69480222e-01,
          3.69480222e-01, 3.85869652e-01, 3.91541928e-01, 3.91541928e-01,
          3.91541928e-01, 3.26070666e-01, 3.52224633e-02, 4.64025177e-02,
          3.52500707e-01, 3.91541928e-01, 3.20229173e-01, 3.84697050e-01,
          3.84697050e-01, 9.63056013e-02, 1.22623600e-01, 3.59637916e-01,
          3.84697050e-01, 3.84697050e-01, 3.84697050e-01, 2.48837605e-01,
          6.01930507e-02, 3.34172755e-01, 3.69480222e-01, 3.69480222e-01,
          3.69480222e-01, 3.69480222e-01, 3.69480222e-01, 3.69480222e-01,
          1.93183184e-01, 4.33464766e-01, 4.33464766e-01, 4.33464766e-01,
          2.31571048e-01, 2.76409108e-02, 6.08267784e-02, 3.85609359e-01,
          4.33464766e-01, 1.42954528e-01, 3.73061925e-01, 3.73061925e-01,
          3.73061925e-01, 3.73061925e-01, 1.81898087e-01, 3.28174859e-01,
          3.73061925e-01, 3.73061925e-01, 4.38319921e-01, 4.29646000e-02,
          1.02879591e-01, 4.38319921e-01, 4.38319921e-01, 7.48843551e-02,
          1.30238175e-01, 4.38319921e-01, 4.38319921e-01, 8.51522833e-02,
          7.60472938e-02, 3.07387531e-01, 5.31234324e-01, 1.14274904e-01,
          3.73914763e-02, 1.33982390e-01, 5.35031676e-01, 5.35031676e-01,
          1.06355347e-01, 2.58062985e-02, 3.02954078e-01, 4.79323715e-01,
          4.79323715e-01, 1.47789612e-01, 8.60481635e-02, 4.15877610e-01,
          4.79323715e-01, 1.27355799e-01, 2.19467990e-02, 1.20727517e-01,
          4.99440759e-01, 4.99440759e-01, 2.90195625e-02, 5.58149591e-02,
          4.59842324e-01, 4.99440759e-01, 3.51311833e-01, 1.37944072e-01,
          1.78367700e-02, 5.95565215e-02, 1.00220226e-01, 7.41728321e-02,
          2.94375569e-01, 6.10486686e-01, 6.10486686e-01, 2.51802087e-01,
          1.65068492e-01, 2.74156898e-01, 3.13782424e-01, 4.02397096e-01,
          1.63588181e-01, 3.20687741e-01, 4.68785137e-01, 4.68785137e-01,
          1.65683076e-01, 1.04213275e-01, 4.98190284e-01, 5.21542966e-01,
          5.16338229e-01, 9.49143246e-02, 7.91950971e-02, 4.91790585e-02,
          3.89840007e-01, 1.22963317e-01, 4.68287915e-02, 1.73441872e-01,
          3.99183512e-01, 3.99183512e-01, 3.99183512e-01, 3.99183512e-01,
          3.99183512e-01, 3.89717758e-01, 2.00770676e-01, 1.34606540e-01,
          2.57751018e-01, 2.11213395e-01, 2.69039541e-01, 4.34110254e-01,
          4.34110254e-01, 4.34110254e-01, 4.34110254e-01, 4.06195849e-01,
          3.09748143e-01, 4.06195849e-01, 4.06195849e-01, 2.68640161e-01,
          2.54113064e-03, 5.33758812e-02, 4.06195849e-01, 4.06195849e-01,
          2.48837605e-01, 6.01930507e-02, 3.34172755e-01, 3.69480222e-01,
          3.69480222e-01, 3.69480222e-01, 3.69480222e-01, 3.69480222e-01,
          3.69480222e-01, 3.97878200e-01, 3.97878200e-01, 2.40390405e-01,
          3.01101357e-01, 3.97878200e-01, 1.88304380e-01, 1.43463746e-01,
          3.97878200e-01, 3.97878200e-01, 3.50275457e-01, 3.50275457e-01,
          3.50275457e-01, 3.50275457e-01, 3.00840914e-01, 3.50275457e-01,
          2.17128783e-01, 3.50275457e-01, 3.50275457e-01, 2.48837605e-01,
          6.01930507e-02, 3.34172755e-01, 3.69480222e-01, 3.69480222e-01,
          3.69480222e-01, 3.69480222e-01, 3.69480222e-01, 3.69480222e-01,
          3.97878200e-01, 3.97878200e-01, 2.40390405e-01, 3.01101357e-01,
          3.97878200e-01, 1.88304380e-01, 1.43463746e-01, 3.97878200e-01,
          3.97878200e-01, 3.50275457e-01, 3.50275457e-01, 3.50275457e-01,
          3.50275457e-01, 3.00840914e-01, 3.50275457e-01, 2.17128783e-01,
          3.50275457e-01, 3.50275457e-01, 4.38319921e-01, 4.29646000e-02,
          1.02879591e-01, 4.38319921e-01, 4.38319921e-01, 7.48843551e-02,
          1.30238175e-01, 4.38319921e-01, 4.38319921e-01, 4.99617428e-01,
          1.24329180e-01, 3.36455628e-02, 2.07721934e-01, 4.21738714e-01,
          8.64670351e-02, 3.28488871e-02, 4.99617428e-01, 4.99617428e-01,
          4.77892011e-01, 1.73734337e-01, 1.39055744e-01, 6.18890114e-02,
          1.24334738e-01, 1.13552131e-01, 4.77892011e-01, 4.77892011e-01,
          4.77892011e-01, 1.27355799e-01, 2.19467990e-02, 1.20727517e-01,
          4.99440759e-01, 4.99440759e-01, 2.90195625e-02, 5.58149591e-02,
          4.59842324e-01, 4.99440759e-01, 3.68370026e-01, 8.76962915e-02,
          1.86826274e-01, 5.03285944e-01, 5.03285944e-01, 9.78551134e-02,
          6.40696064e-02, 2.07633018e-01, 5.03285944e-01, 3.42782468e-01,
          3.42782468e-01, 2.46937662e-01, 3.36300552e-01, 3.42782468e-01,
          3.42782468e-01, 3.42782468e-01, 3.42782468e-01, 3.42782468e-01 ]
      - [ 4.45708632e-01, 5.12168527e-01, 6.77329972e-02, 1.67397931e-02,
          7.65184984e-02, 5.12168527e-01, 4.96039510e-01, 3.19516733e-02,
          1.17458403e-01, 4.39287901e-01, 4.39287901e-01, 4.85567600e-02,
          2.85984371e-02, 1.20136186e-01, 4.39287901e-01, 1.14604324e-01,
          4.39287901e-01, 4.39287901e-01, 2.04587325e-01, 1.53969988e-01,
          2.78539032e-01, 8.03239942e-02, 1.35818318e-01, 8.59750882e-02,
          3.23809743e-01, 5.97388148e-01, 5.97388148e-01, 3.04145038e-01,
          4.67094392e-01, 4.67094392e-01, 8.60780701e-02, 9.61212590e-02,
          4.67094392e-01, 4.67094392e-01, 1.15888484e-01, 6.54936489e-03,
          1.93482876e-01, 3.63112837e-01, 3.63112837e-01, 3.63112837e-01,
          3.63112837e-01, 3.63112837e-01, 3.63112837e-01, 3.63112837e-01,
          1.89683899e-01, 5.04405461e-02, 4.65777107e-02, 9.84371901e-02,
          4.59700882e-01, 4.59700882e-01, 1.08540937e-01, 4.59700882e-01,
          4.59700882e-01, 3.52028400e-01, 4.64173127e-03, 4.29529399e-01,
          4.29529399e-01, 2.47322038e-01, 4.29529399e-01, 4.29529399e-01,
          4.29529399e-01, 1.07913494e-01, 1.99185926e-02, 3.74423806e-03,
          4.47835982e-01, 4.56966013e-01, 2.39926368e-01, 1.16833001e-01,
          3.11579585e-01, 4.56966013e-01, 4.56966013e-01, 1.06859757e-02,
          2.41832659e-01, 4.46888283e-02, 6.59217834e-02, 4.70676243e-01,
          4.70676243e-01, 1.23552702e-01, 4.70676243e-01, 4.70676243e-01,
          1.70479119e-01, 4.64173127e-03, 4.29529399e-01, 4.29529399e-01,
          2.47322038e-01, 4.29529399e-01, 4.29529399e-01, 4.29529399e-01,
          1.07913494e-01, 1.99185926e-02, 3.74423806e-03, 4.47835982e-01,
          4.56966013e-01, 2.39926368e-01, 1.16833001e-01, 3.11579585e-01,
          4.56966013e-01, 4.56966013e-01, 1.06859757e-02, 2.41832659e-01,
          4.46888283e-02, 6.59217834e-02, 4.70676243e-01, 4.70676243e-01,
          1.23552702e-01, 4.70676243e-01, 4.70676243e-01, 1.70479119e-01,
          1.20890081e-01, 4.11780655e-01, 4.11780655e-01, 4.11780655e-01,
          3.08004826e-01, 1.42901570e-01, 4.11780655e-01, 4.11780655e-01,
          1.34787291e-01, 3.30886580e-02, 5.01289546e-01, 5.01289546e-01,
          5.01289546e-01, 6.19310103e-02, 3.01722642e-02, 2.92848825e-01,
          3.66871089e-01, 1.22164451e-01, 4.59700495e-01, 3.58173959e-02,
          7.43662715e-02, 8.70535150e-02, 4.59700495e-01, 2.14105815e-01,
          2.99795419e-01, 4.59700495e-01, 4.59700495e-01, 4.24744748e-02,
          1.47785991e-01, 2.41192952e-01, 7.05305114e-02, 4.13055718e-02,
          6.23222589e-02, 3.28513533e-01, 6.29843950e-01, 6.29843950e-01,
          1.38250133e-02, 3.19614261e-01, 5.14220834e-01, 5.14220834e-01,
          5.14220834e-01, 2.98899353e-01, 1.61926560e-02, 7.10211918e-02,
          6.78515285e-02, 1.20720908e-01, 3.84424105e-02, 5.61426058e-02,
          3.16352099e-01, 6.52192533e-01, 6.52192533e-01, 1.58768483e-02,
          2.39550546e-02, 1.50567874e-01, 2.04587325e-01, 1.53969988e-01,
          2.78539032e-01, 8.03239942e-02, 1.35818318e-01, 8.59750882e-02,
          3.23809743e-01, 5.97388148e-01, 5.97388148e-01, 3.62469971e-01,
          3.62469971e-01, 3.62469971e-01, 3.62469971e-01, 3.62469971e-01,
          2.20938727e-01, 3.62469971e-01, 2.89664954e-01, 2.74503320e-01,
          4.44572829e-02, 2.55594533e-02, 2.52951264e-01, 7.33164728e-01,
          4.35341567e-01, 1.41068682e-01, 1.77685007e-01, 3.29149902e-01,
          1.97997212e-01, 5.04405461e-02, 4.65777107e-02, 9.84371901e-02,
          4.59700882e-01, 4.59700882e-01, 1.08540937e-01, 4.59700882e-01,
          4.59700882e-01, 3.52028400e-01, 8.19269344e-02, 3.27934206e-01,
          4.21598822e-01, 3.12573105e-01, 2.99417645e-01, 1.23239495e-01,
          4.87022936e-01, 4.87022936e-01, 1.61906391e-01, 2.32018828e-01,
          1.36743113e-01, 1.72841638e-01, 4.16192979e-01, 2.51875579e-01,
          3.55007797e-01, 4.33705091e-01, 4.33705091e-01, 3.92903954e-01,
          2.41832659e-01, 4.46888283e-02, 6.59217834e-02, 4.70676243e-01,
          4.70676243e-01, 1.23552702e-01, 4.70676243e-01, 4.70676243e-01,
          1.70479119e-01, 4.84282404e-01, 1.86400041e-01, 5.20232059e-02,
          2.70762593e-01, 4.84282404e-01, 9.63060781e-02, 2.88247824e-01,
          2.97403961e-01, 4.84282404e-01, 6.76042318e-01, 3.50195132e-02,
          1.00735752e-02, 4.01101448e-02, 1.75575644e-01, 1.34753257e-01,
          1.01076595e-01, 1.30561084e-01, 6.76042318e-01, 2.41832659e-01,
          4.46888283e-02, 6.59217834e-02, 4.70676243e-01, 4.70676243e-01,
          1.23552702e-01, 4.70676243e-01, 4.70676243e-01, 1.70479119e-01,
          4.84282404e-01, 1.86400041e-01, 5.20232059e-02, 2.70762593e-01,
          4.84282404e-01, 9.63060781e-02, 2.88247824e-01, 2.97403961e-01,
          4.84282404e-01, 6.76042318e-01, 3.50195132e-02, 1.00735752e-02,
          4.01101448e-02, 1.75575644e-01, 1.34753257e-01, 1.01076595e-01,
          1.30561084e-01, 6.76042318e-01, 4.59700495e-01, 3.58173959e-02,
          7.43662715e-02, 8.70535150e-02, 4.59700495e-01, 2.14105815e-01,
          2.99795419e-01, 4.59700495e-01, 4.59700495e-01, 5.04450858e-01,
          1.39168739e-01, 8.09074787e-04, 3.24147418e-02, 5.04450858e-01,
          4.59483147e-01, 7.91151018e-04, 2.29801959e-03, 5.04450858e-01,
          4.91702855e-01, 3.07620931e-02, 2.10667192e-03, 5.88762723e-02,
          4.91702855e-01, 4.91702855e-01, 1.11066341e-01, 1.06062792e-01,
          4.91702855e-01, 1.20720908e-01, 3.84424105e-02, 5.61426058e-02,
          3.16352099e-01, 6.52192533e-01, 6.52192533e-01, 1.58768483e-02,
          2.39550546e-02, 1.50567874e-01, 1.44261062e-01, 1.59739722e-02,
          5.42315748e-03, 1.44860774e-01, 6.66047513e-01, 6.66047513e-01,
          3.69127840e-02, 3.99224758e-02, 2.47134089e-01, 4.79958534e-01,
          4.79958534e-01, 6.09112158e-03, 1.29199073e-01, 4.79958534e-01,
          4.79958534e-01, 1.85331449e-01, 5.14271706e-02, 1.41574562e-01 ]
      - [ 3.59964103e-01, 4.06200707e-01, 1.79952905e-01, 4.95169498e-02,
          1.44359171e-01, 5.66153944e-01, 5.66153944e-01, 4.20995466e-02,
          3.55798490e-02, 5.78981996e-01, 5.78981996e-01, 1.74081102e-01,
          1.00927882e-01, 6.67763203e-02, 1.16872758e-01, 4.51197512e-02,
          8.75157863e-03, 5.12890816e-01, 6.89495623e-01, 1.56420991e-01,
          5.62598929e-02, 7.87699223e-02, 8.45038146e-02, 3.61936279e-02,
          4.48400807e-03, 4.72249783e-04, 6.89495623e-01, 3.81735653e-01,
          5.01491487e-01, 5.01491487e-01, 1.06268480e-01, 1.34179860e-01,
          2.47702375e-01, 5.01491487e-01, 6.09057136e-02, 2.06180271e-02,
          3.82989585e-01, 3.82989585e-01, 3.82989585e-01, 9.43939313e-02,
          3.82989585e-01, 3.82989585e-01, 3.82989585e-01, 2.77763009e-01,
          1.73278272e-01, 5.35780907e-01, 8.16355646e-02, 2.97474433e-02,
          2.48617247e-01, 5.35780907e-01, 5.35780907e-01, 1.27483428e-01,
          4.82919142e-02, 2.13358581e-01, 5.24765670e-01, 5.24765670e-01,
          5.24765670e-01, 1.31018370e-01, 1.46213457e-01, 1.00767642e-01,
          2.56347209e-01, 1.66641653e-01, 1.62605509e-01, 1.54355451e-01,
          4.83167410e-01, 4.83167410e-01, 7.30099306e-02, 9.32743624e-02,
          1.31158099e-01, 4.83167410e-01, 4.83167410e-01, 7.94516206e-02,
          4.14275140e-01, 1.94756642e-01, 2.80281194e-02, 1.58169493e-01,
          4.14275140e-01, 2.72045612e-01, 4.14275140e-01, 4.14275140e-01,
          4.14275140e-01, 5.24765670e-01, 5.24765670e-01, 5.24765670e-01,
          1.31018370e-01, 1.46213457e-01, 1.00767642e-01, 2.56347209e-01,
          1.66641653e-01, 1.62605509e-01, 1.54355451e-01, 4.83167410e-01,
          4.83167410e-01, 7.30099306e-02, 9.32743624e-02, 1.31158099e-01,
          4.83167410e-01, 4.83167410e-01, 7.94516206e-02, 4.14275140e-01,
          1.94756642e-01, 2.80281194e-02, 1.58169493e-01, 4.14275140e-01,
          2.72045612e-01, 4.14275140e-01, 4.14275140e-01, 4.14275140e-01,
          4.35952961e-01, 4.35952961e-01, 4.35952961e-01, 1.61225110e-01,
          6.73521357e-03, 5.26930764e-03, 1.38937086e-01, 4.35952961e-01,
          4.35952961e-01, 4.05598164e-01, 4.05598164e-01, 4.05598164e-01,
          8.79441351e-02, 3.02236229e-02, 1.55297061e-02, 4.05598164e-01,
          4.05598164e-01, 4.05598164e-01, 4.54640388e-01, 4.53945518e-01,
          3.83243449e-02, 2.70714872e-02, 5.62925190e-02, 2.48775542e-01,
          4.54640388e-01, 4.54640388e-01, 3.19435000e-01, 9.54450965e-02,
          1.95878044e-01, 4.85922247e-01, 4.85922247e-01, 3.00543178e-02,
          0., 4.77881134e-02, 4.85922247e-01, 4.85922247e-01,
          1.88161448e-01, 3.81392539e-01, 4.57875550e-01, 4.57875550e-01,
          1.10925116e-01, 4.57875550e-01, 2.82920897e-01, 1.37627169e-01,
          2.72619992e-01, 1.57362089e-01, 9.75825489e-02, 3.69467959e-02,
          6.92749694e-02, 1.10576004e-01, 6.31653488e-01, 6.31653488e-01,
          3.70841742e-01, 7.43061155e-02, 6.89495623e-01, 1.56420991e-01,
          5.62598929e-02, 7.87699223e-02, 8.45038146e-02, 3.61936279e-02,
          4.48400807e-03, 4.72249783e-04, 6.89495623e-01, 6.66177511e-01,
          6.29689172e-02, 3.38595174e-02, 6.00824654e-02, 3.10502678e-01,
          2.50026565e-02, 2.41120439e-03, 1.14695518e-04, 6.66177511e-01,
          4.01051432e-01, 7.17888176e-02, 4.01051432e-01, 4.01051432e-01,
          1.16351791e-01, 1.10673666e-01, 4.01051432e-01, 4.01051432e-01,
          4.01051432e-01, 5.35780907e-01, 8.16355646e-02, 2.97474433e-02,
          2.48617247e-01, 5.35780907e-01, 5.35780907e-01, 1.27483428e-01,
          4.82919142e-02, 2.13358581e-01, 4.41951811e-01, 2.20026057e-02,
          4.93205935e-02, 2.10124955e-01, 6.72620356e-01, 5.29650867e-01,
          5.79497498e-03, 5.52799786e-04, 1.33838221e-01, 1.73518375e-01,
          1.02141798e-01, 4.26365227e-01, 2.63362944e-01, 4.62186486e-01,
          4.62186486e-01, 4.62186486e-01, 2.40424141e-01, 7.10062087e-02,
          4.14275140e-01, 1.94756642e-01, 2.80281194e-02, 1.58169493e-01,
          4.14275140e-01, 2.72045612e-01, 4.14275140e-01, 4.14275140e-01,
          4.14275140e-01, 4.81103718e-01, 2.70475566e-01, 8.00734088e-02,
          2.93963492e-01, 4.81103718e-01, 4.68616098e-01, 4.34362590e-02,
          4.79774959e-02, 3.77492100e-01, 4.83803511e-01, 4.83803511e-01,
          3.43918324e-01, 1.85982049e-01, 4.83803511e-01, 2.47300446e-01,
          1.03417180e-01, 2.29690340e-03, 2.61234015e-01, 4.14275140e-01,
          1.94756642e-01, 2.80281194e-02, 1.58169493e-01, 4.14275140e-01,
          2.72045612e-01, 4.14275140e-01, 4.14275140e-01, 4.14275140e-01,
          4.81103718e-01, 2.70475566e-01, 8.00734088e-02, 2.93963492e-01,
          4.81103718e-01, 4.68616098e-01, 4.34362590e-02, 4.79774959e-02,
          3.77492100e-01, 4.83803511e-01, 4.83803511e-01, 3.43918324e-01,
          1.85982049e-01, 4.83803511e-01, 2.47300446e-01, 1.03417180e-01,
          2.29690340e-03, 2.61234015e-01, 4.54640388e-01, 4.53945518e-01,
          3.83243449e-02, 2.70714872e-02, 5.62925190e-02, 2.48775542e-01,
          4.54640388e-01, 4.54640388e-01, 3.19435000e-01, 3.99195403e-01,
          2.16651455e-01, 2.75612295e-01, 2.87166536e-01, 3.99195403e-01,
          2.58070260e-01, 3.99195403e-01, 3.99195403e-01, 2.94311762e-01,
          4.68639344e-01, 4.68639344e-01, 4.68639344e-01, 4.68639344e-01,
          2.77868927e-01, 1.57414526e-01, 2.53673308e-02, 3.07699628e-02,
          1.15095794e-01, 1.57362089e-01, 9.75825489e-02, 3.69467959e-02,
          6.92749694e-02, 1.10576004e-01, 6.31653488e-01, 6.31653488e-01,
          3.70841742e-01, 7.43061155e-02, 3.90215844e-01, 3.90215844e-01,
          2.57368386e-01, 3.46368194e-01, 3.90215844e-01, 2.30624720e-01,
          3.82223845e-01, 2.24482492e-01, 3.21577460e-01, 6.62698030e-01,
          6.62698030e-01, 2.82600462e-01, 8.05448070e-02, 2.03148443e-02,
          8.91810935e-03, 1.39006949e-03, 2.19804095e-03, 1.67920262e-01 ]
      - [ 1.21588156e-01, 4.78735447e-01, 4.78735447e-01, 6.70538750e-03,
          1.80239782e-01, 4.78735447e-01, 4.78735447e-01, 1.22875966e-01,
          1.26705498e-01, 2.54408509e-01, 3.11268810e-02, 5.34177832e-02,
          6.42204657e-02, 5.73747337e-01, 5.73747337e-01, 3.97634983e-01,
          4.00197655e-02, 3.21735024e-01, 4.43115234e-01, 2.57920325e-02,
          5.66702560e-02, 3.73969734e-01, 4.43115234e-01, 4.43115234e-01,
          2.50520915e-01, 6.06514737e-02, 4.43115234e-01, 6.60461858e-02,
          4.20842439e-01, 4.97703701e-01, 3.07592340e-02, 4.77288216e-02,
          4.97703701e-01, 4.97703701e-01, 2.46150196e-01, 8.13488737e-02,
          4.41945702e-01, 4.41945702e-01, 4.41945702e-01, 7.03344792e-02,
          9.02624354e-02, 3.59869987e-01, 2.22218543e-01, 1.49464652e-01,
          4.41945702e-01, 5.48963189e-01, 2.49952778e-01, 3.17338258e-02,
          8.49267095e-02, 5.48963189e-01, 1.27622113e-01, 5.22137843e-02,
          2.69547366e-02, 5.48963189e-01, 1.88023165e-01, 4.41636413e-01,
          4.41636413e-01, 5.53293265e-02, 1.02309860e-01, 4.41636413e-01,
          4.41636413e-01, 3.83437037e-01, 1.39686435e-01, 1.82736114e-01,
          5.42125702e-01, 5.42125702e-01, 4.81631234e-02, 8.18215683e-02,
          8.27326402e-02, 5.37790060e-01, 2.51737088e-01, 7.03141913e-02,
          1.23758592e-01, 1.35636583e-01, 1.85599387e-01, 2.11422116e-01,
          4.77403134e-01, 4.24216002e-01, 4.77403134e-01, 4.77403134e-01,
          1.36643484e-01, 1.88023165e-01, 4.41636413e-01, 4.41636413e-01,
          5.53293265e-02, 1.02309860e-01, 4.41636413e-01, 4.41636413e-01,
          3.83437037e-01, 1.39686435e-01, 1.82736114e-01, 5.42125702e-01,
          5.42125702e-01, 4.81631234e-02, 8.18215683e-02, 8.27326402e-02,
          5.37790060e-01, 2.51737088e-01, 7.03141913e-02, 1.23758592e-01,
          1.35636583e-01, 1.85599387e-01, 2.11422116e-01, 4.77403134e-01,
          4.24216002e-01, 4.77403134e-01, 4.77403134e-01, 1.36643484e-01,
          2.23131120e-01, 4.32564825e-01, 4.32564825e-01, 8.73208418e-02,
          2.13151928e-02, 4.74392772e-02, 4.32564825e-01, 4.32564825e-01,
          4.32564825e-01, 2.78007537e-01, 4.27386105e-01, 4.27386105e-01,
          7.12771118e-02, 7.70526472e-03, 2.86393194e-03, 4.27386105e-01,
          4.27386105e-01, 4.27386105e-01, 4.41836745e-01, 4.41836745e-01,
          8.28799531e-02, 5.99314421e-02, 3.26929428e-02, 8.92089903e-02,
          4.41836745e-01, 4.41836745e-01, 4.41836745e-01, 2.50856653e-02,
          3.45974177e-01, 4.31507021e-01, 4.31507021e-01, 1.03337644e-02,
          3.75344208e-03, 3.80411714e-01, 4.31507021e-01, 4.14648384e-01,
          1.25260010e-01, 1.07690610e-01, 4.70020741e-01, 4.70020741e-01,
          5.17834425e-02, 3.80336404e-01, 1.14648990e-01, 4.49917614e-01,
          4.04068649e-01, 2.79032886e-01, 1.88452572e-01, 6.53763935e-02,
          8.30783024e-02, 7.28444010e-02, 6.22508645e-01, 6.22508645e-01,
          2.59277642e-01, 1.47206262e-01, 4.43115234e-01, 2.57920325e-02,
          5.66702560e-02, 3.73969734e-01, 4.43115234e-01, 4.43115234e-01,
          2.50520915e-01, 6.06514737e-02, 4.43115234e-01, 4.58695412e-01,
          5.25557883e-02, 2.23562106e-01, 4.58695412e-01, 4.58695412e-01,
          2.34155610e-01, 1.09320454e-01, 1.85176671e-01, 4.58695412e-01,
          3.40241551e-01, 2.26469729e-02, 4.85275507e-01, 4.85275507e-01,
          4.85275507e-01, 1.67244703e-01, 4.85138297e-02, 1.82149455e-01,
          3.29994082e-01, 5.48963189e-01, 2.49952778e-01, 3.17338258e-02,
          8.49267095e-02, 5.48963189e-01, 1.27622113e-01, 5.22137843e-02,
          2.69547366e-02, 5.48963189e-01, 5.69504440e-01, 1.11485145e-03,
          7.46775279e-03, 6.21463321e-02, 5.69504440e-01, 1.30859718e-01,
          1.41276261e-02, 8.00436549e-03, 5.69504440e-01, 4.16681677e-01,
          1.89790111e-02, 1.47506043e-01, 3.26576442e-01, 4.16681677e-01,
          2.60748565e-01, 3.64250064e-01, 3.81481826e-01, 4.16681677e-01,
          1.23758592e-01, 1.35636583e-01, 1.85599387e-01, 2.11422116e-01,
          4.77403134e-01, 4.24216002e-01, 4.77403134e-01, 4.77403134e-01,
          1.36643484e-01, 1.32971346e-01, 4.53732815e-03, 8.74094199e-03,
          2.02472776e-01, 7.24314392e-01, 6.00466371e-01, 2.94211451e-02,
          1.01820510e-02, 2.18714580e-01, 1.68034717e-01, 1.97473429e-02,
          4.10847440e-02, 1.69232301e-02, 5.81619203e-01, 5.81619203e-01,
          3.46479207e-01, 2.83211201e-01, 2.94574797e-01, 1.23758592e-01,
          1.35636583e-01, 1.85599387e-01, 2.11422116e-01, 4.77403134e-01,
          4.24216002e-01, 4.77403134e-01, 4.77403134e-01, 1.36643484e-01,
          1.32971346e-01, 4.53732815e-03, 8.74094199e-03, 2.02472776e-01,
          7.24314392e-01, 6.00466371e-01, 2.94211451e-02, 1.01820510e-02,
          2.18714580e-01, 1.68034717e-01, 1.97473429e-02, 4.10847440e-02,
          1.69232301e-02, 5.81619203e-01, 5.81619203e-01, 3.46479207e-01,
          2.83211201e-01, 2.94574797e-01, 4.41836745e-01, 4.41836745e-01,
          8.28799531e-02, 5.99314421e-02, 3.26929428e-02, 8.92089903e-02,
          4.41836745e-01, 4.41836745e-01, 4.41836745e-01, 3.93993109e-01,
          1.70777932e-01, 3.25002819e-02, 3.84914801e-02, 4.16835934e-01,
          3.37481201e-01, 4.16835934e-01, 4.16835934e-01, 4.16835934e-01,
          3.98854166e-01, 9.41806287e-02, 1.50120378e-01, 1.00506037e-01,
          3.98854166e-01, 3.98854166e-01, 3.98854166e-01, 3.98854166e-01,
          3.98854166e-01, 2.79032886e-01, 1.88452572e-01, 6.53763935e-02,
          8.30783024e-02, 7.28444010e-02, 6.22508645e-01, 6.22508645e-01,
          2.59277642e-01, 1.47206262e-01, 2.23562837e-01, 1.18002139e-01,
          2.94843484e-02, 3.21126021e-02, 1.45407245e-01, 4.99805272e-01,
          4.99805272e-01, 4.99805272e-01, 3.98300827e-01, 5.25349021e-01,
          5.25349021e-01, 1.88181594e-01, 2.06493158e-02, 1.19111091e-01,
          4.33989376e-01, 2.63401181e-01, 1.38033763e-01, 3.40534478e-01 ]
      - [ 4.57398802e-01, 4.57398802e-01, 7.85115659e-02, 3.17432694e-02,
          3.80082935e-01, 7.61762410e-02, 1.06312402e-01, 4.46150452e-01,
          4.57398802e-01, 5.54167688e-01, 1.03926659e-01, 1.11252651e-01,
          9.89926606e-02, 4.14110035e-01, 7.64278546e-02, 1.36649206e-01,
          3.88952047e-01, 5.54167688e-01, 4.83135939e-01, 8.11006799e-02,
          3.94637227e-01, 4.83135939e-01, 1.49371296e-01, 7.34044239e-02,
          1.60210714e-01, 2.81478405e-01, 4.83135939e-01, 3.48520011e-01,
          3.68236125e-01, 1.82533383e-01, 1.93005249e-01, 3.89270544e-01,
          3.89270544e-01, 3.89270544e-01, 2.49702290e-01, 3.89270544e-01,
          4.62394923e-01, 9.11112037e-03, 2.01007538e-03, 4.89363164e-01,
          4.89363164e-01, 2.05467120e-01, 4.53054607e-02, 1.36081055e-01,
          4.89363164e-01, 4.38011885e-01, 2.68033966e-02, 9.90530103e-03,
          4.38011885e-01, 4.38011885e-01, 2.85109401e-01, 2.78595686e-01,
          2.61701316e-01, 4.38011885e-01, 4.35392767e-01, 2.53815025e-01,
          1.15945943e-01, 3.93547863e-02, 1.35031492e-01, 3.73812079e-01,
          4.35392767e-01, 4.35392767e-01, 4.35392767e-01, 3.95290554e-01,
          6.75385594e-02, 3.14652286e-02, 3.28794092e-01, 3.95290554e-01,
          3.17995101e-01, 3.95290554e-01, 3.95290554e-01, 3.95290554e-01,
          1.79906264e-01, 1.70684546e-01, 2.73899436e-02, 4.24315184e-01,
          4.24315184e-01, 4.24315184e-01, 2.42505848e-01, 4.08913344e-01,
          4.09099519e-01, 4.35392767e-01, 2.53815025e-01, 1.15945943e-01,
          3.93547863e-02, 1.35031492e-01, 3.73812079e-01, 4.35392767e-01,
          4.35392767e-01, 4.35392767e-01, 3.95290554e-01, 6.75385594e-02,
          3.14652286e-02, 3.28794092e-01, 3.95290554e-01, 3.17995101e-01,
          3.95290554e-01, 3.95290554e-01, 3.95290554e-01, 1.79906264e-01,
          1.70684546e-01, 2.73899436e-02, 4.24315184e-01, 4.24315184e-01,
          4.24315184e-01, 2.42505848e-01, 4.08913344e-01, 4.09099519e-01,
          3.54283214e-01, 5.77647164e-02, 4.51786490e-03, 7.68810697e-03,
          3.77285928e-01, 5.01666009e-01, 5.01666009e-01, 3.97381544e-01,
          2.49925032e-01, 3.34859133e-01, 6.67462870e-02, 1.03135798e-02,
          3.87915745e-02, 4.22610521e-01, 4.22610521e-01, 4.22610521e-01,
          4.22610521e-01, 4.03958976e-01, 4.18443918e-01, 4.18443918e-01,
          1.92872003e-01, 1.22074097e-01, 3.40006441e-01, 4.18443918e-01,
          1.33268386e-01, 3.31620455e-01, 4.18443918e-01, 4.22120959e-01,
          9.51622427e-03, 1.52553534e-02, 2.27851242e-01, 4.22120959e-01,
          4.22120959e-01, 2.29375526e-01, 4.22120959e-01, 4.22120959e-01,
          4.69700545e-01, 4.69700545e-01, 2.83367969e-02, 8.96738470e-02,
          4.69700545e-01, 2.21634552e-01, 1.00239076e-01, 2.11707532e-01,
          4.69700545e-01, 5.64602077e-01, 5.64602077e-01, 4.71960008e-02,
          5.13008460e-02, 1.70076430e-01, 5.84923923e-02, 1.54737877e-02,
          2.42805202e-02, 5.64602077e-01, 4.83135939e-01, 8.11006799e-02,
          3.94637227e-01, 4.83135939e-01, 1.49371296e-01, 7.34044239e-02,
          1.60210714e-01, 2.81478405e-01, 4.83135939e-01, 2.03346834e-01,
          3.50463748e-01, 4.21257228e-01, 4.21257228e-01, 2.59037644e-01,
          1.50382385e-01, 4.21257228e-01, 3.10433388e-01, 3.36392522e-01,
          1.56927675e-01, 8.92751142e-02, 2.97691524e-01, 7.44632781e-02,
          1.72987774e-01, 4.90078121e-01, 4.90078121e-01, 4.90078121e-01,
          3.43350530e-01, 4.38011885e-01, 2.68033966e-02, 9.90530103e-03,
          4.38011885e-01, 4.38011885e-01, 2.85109401e-01, 2.78595686e-01,
          2.61701316e-01, 4.38011885e-01, 1.15967244e-01, 3.80943537e-01,
          3.80943537e-01, 3.80943537e-01, 3.80943537e-01, 2.43836716e-01,
